FANN_FLO_2.1
num_layers=3
learning_rate=0.700000
connection_rate=1.000000
network_type=0
learning_momentum=0.000000
training_algorithm=2
train_error_function=1
train_stop_function=0
cascade_output_change_fraction=0.010000
quickprop_decay=-0.000100
quickprop_mu=1.750000
rprop_increase_factor=1.200000
rprop_decrease_factor=0.500000
rprop_delta_min=0.000000
rprop_delta_max=50.000000
rprop_delta_zero=0.100000
cascade_output_stagnation_epochs=12
cascade_candidate_change_fraction=0.010000
cascade_candidate_stagnation_epochs=12
cascade_max_out_epochs=150
cascade_max_cand_epochs=150
cascade_num_candidate_groups=2
bit_fail_limit=3.49999994039535522461e-01
cascade_candidate_limit=1.00000000000000000000e+03
cascade_weight_multiplier=4.00000005960464477539e-01
cascade_activation_functions_count=10
cascade_activation_functions=3 5 7 8 10 11 14 15 16 17 
cascade_activation_steepnesses_count=4
cascade_activation_steepnesses=2.50000000000000000000e-01 5.00000000000000000000e-01 7.50000000000000000000e-01 1.00000000000000000000e+00 
layer_sizes=126 33 3 
scale_included=0
neurons (num_inputs, activation_function, activation_steepness)=(0, 0, 0.00000000000000000000e+00) (0, 0, 0.00000000000000000000e+00) (0, 0, 0.00000000000000000000e+00) (0, 0, 0.00000000000000000000e+00) (0, 0, 0.00000000000000000000e+00) (0, 0, 0.00000000000000000000e+00) (0, 0, 0.00000000000000000000e+00) (0, 0, 0.00000000000000000000e+00) (0, 0, 0.00000000000000000000e+00) (0, 0, 0.00000000000000000000e+00) (0, 0, 0.00000000000000000000e+00) (0, 0, 0.00000000000000000000e+00) (0, 0, 0.00000000000000000000e+00) (0, 0, 0.00000000000000000000e+00) (0, 0, 0.00000000000000000000e+00) (0, 0, 0.00000000000000000000e+00) (0, 0, 0.00000000000000000000e+00) (0, 0, 0.00000000000000000000e+00) (0, 0, 0.00000000000000000000e+00) (0, 0, 0.00000000000000000000e+00) (0, 0, 0.00000000000000000000e+00) (0, 0, 0.00000000000000000000e+00) (0, 0, 0.00000000000000000000e+00) (0, 0, 0.00000000000000000000e+00) (0, 0, 0.00000000000000000000e+00) (0, 0, 0.00000000000000000000e+00) (0, 0, 0.00000000000000000000e+00) (0, 0, 0.00000000000000000000e+00) (0, 0, 0.00000000000000000000e+00) (0, 0, 0.00000000000000000000e+00) (0, 0, 0.00000000000000000000e+00) (0, 0, 0.00000000000000000000e+00) (0, 0, 0.00000000000000000000e+00) (0, 0, 0.00000000000000000000e+00) (0, 0, 0.00000000000000000000e+00) (0, 0, 0.00000000000000000000e+00) (0, 0, 0.00000000000000000000e+00) (0, 0, 0.00000000000000000000e+00) (0, 0, 0.00000000000000000000e+00) (0, 0, 0.00000000000000000000e+00) (0, 0, 0.00000000000000000000e+00) (0, 0, 0.00000000000000000000e+00) (0, 0, 0.00000000000000000000e+00) (0, 0, 0.00000000000000000000e+00) (0, 0, 0.00000000000000000000e+00) (0, 0, 0.00000000000000000000e+00) (0, 0, 0.00000000000000000000e+00) (0, 0, 0.00000000000000000000e+00) (0, 0, 0.00000000000000000000e+00) (0, 0, 0.00000000000000000000e+00) (0, 0, 0.00000000000000000000e+00) (0, 0, 0.00000000000000000000e+00) (0, 0, 0.00000000000000000000e+00) (0, 0, 0.00000000000000000000e+00) (0, 0, 0.00000000000000000000e+00) (0, 0, 0.00000000000000000000e+00) (0, 0, 0.00000000000000000000e+00) (0, 0, 0.00000000000000000000e+00) (0, 0, 0.00000000000000000000e+00) (0, 0, 0.00000000000000000000e+00) (0, 0, 0.00000000000000000000e+00) (0, 0, 0.00000000000000000000e+00) (0, 0, 0.00000000000000000000e+00) (0, 0, 0.00000000000000000000e+00) (0, 0, 0.00000000000000000000e+00) (0, 0, 0.00000000000000000000e+00) (0, 0, 0.00000000000000000000e+00) (0, 0, 0.00000000000000000000e+00) (0, 0, 0.00000000000000000000e+00) (0, 0, 0.00000000000000000000e+00) (0, 0, 0.00000000000000000000e+00) (0, 0, 0.00000000000000000000e+00) (0, 0, 0.00000000000000000000e+00) (0, 0, 0.00000000000000000000e+00) (0, 0, 0.00000000000000000000e+00) (0, 0, 0.00000000000000000000e+00) (0, 0, 0.00000000000000000000e+00) (0, 0, 0.00000000000000000000e+00) (0, 0, 0.00000000000000000000e+00) (0, 0, 0.00000000000000000000e+00) (0, 0, 0.00000000000000000000e+00) (0, 0, 0.00000000000000000000e+00) (0, 0, 0.00000000000000000000e+00) (0, 0, 0.00000000000000000000e+00) (0, 0, 0.00000000000000000000e+00) (0, 0, 0.00000000000000000000e+00) (0, 0, 0.00000000000000000000e+00) (0, 0, 0.00000000000000000000e+00) (0, 0, 0.00000000000000000000e+00) (0, 0, 0.00000000000000000000e+00) (0, 0, 0.00000000000000000000e+00) (0, 0, 0.00000000000000000000e+00) (0, 0, 0.00000000000000000000e+00) (0, 0, 0.00000000000000000000e+00) (0, 0, 0.00000000000000000000e+00) (0, 0, 0.00000000000000000000e+00) (0, 0, 0.00000000000000000000e+00) (0, 0, 0.00000000000000000000e+00) (0, 0, 0.00000000000000000000e+00) (0, 0, 0.00000000000000000000e+00) (0, 0, 0.00000000000000000000e+00) (0, 0, 0.00000000000000000000e+00) (0, 0, 0.00000000000000000000e+00) (0, 0, 0.00000000000000000000e+00) (0, 0, 0.00000000000000000000e+00) (0, 0, 0.00000000000000000000e+00) (0, 0, 0.00000000000000000000e+00) (0, 0, 0.00000000000000000000e+00) (0, 0, 0.00000000000000000000e+00) (0, 0, 0.00000000000000000000e+00) (0, 0, 0.00000000000000000000e+00) (0, 0, 0.00000000000000000000e+00) (0, 0, 0.00000000000000000000e+00) (0, 0, 0.00000000000000000000e+00) (0, 0, 0.00000000000000000000e+00) (0, 0, 0.00000000000000000000e+00) (0, 0, 0.00000000000000000000e+00) (0, 0, 0.00000000000000000000e+00) (0, 0, 0.00000000000000000000e+00) (0, 0, 0.00000000000000000000e+00) (0, 0, 0.00000000000000000000e+00) (0, 0, 0.00000000000000000000e+00) (0, 0, 0.00000000000000000000e+00) (0, 0, 0.00000000000000000000e+00) (0, 0, 0.00000000000000000000e+00) (0, 0, 0.00000000000000000000e+00) (126, 6, 5.00000000000000000000e-01) (126, 6, 5.00000000000000000000e-01) (126, 6, 5.00000000000000000000e-01) (126, 6, 5.00000000000000000000e-01) (126, 6, 5.00000000000000000000e-01) (126, 6, 5.00000000000000000000e-01) (126, 6, 5.00000000000000000000e-01) (126, 6, 5.00000000000000000000e-01) (126, 6, 5.00000000000000000000e-01) (126, 6, 5.00000000000000000000e-01) (126, 6, 5.00000000000000000000e-01) (126, 6, 5.00000000000000000000e-01) (126, 6, 5.00000000000000000000e-01) (126, 6, 5.00000000000000000000e-01) (126, 6, 5.00000000000000000000e-01) (126, 6, 5.00000000000000000000e-01) (126, 6, 5.00000000000000000000e-01) (126, 6, 5.00000000000000000000e-01) (126, 6, 5.00000000000000000000e-01) (126, 6, 5.00000000000000000000e-01) (126, 6, 5.00000000000000000000e-01) (126, 6, 5.00000000000000000000e-01) (126, 6, 5.00000000000000000000e-01) (126, 6, 5.00000000000000000000e-01) (126, 6, 5.00000000000000000000e-01) (126, 6, 5.00000000000000000000e-01) (126, 6, 5.00000000000000000000e-01) (126, 6, 5.00000000000000000000e-01) (126, 6, 5.00000000000000000000e-01) (126, 6, 5.00000000000000000000e-01) (126, 6, 5.00000000000000000000e-01) (126, 6, 5.00000000000000000000e-01) (0, 6, 0.00000000000000000000e+00) (33, 4, 5.00000000000000000000e-01) (33, 4, 5.00000000000000000000e-01) (0, 4, 0.00000000000000000000e+00) 
connections (connected_to_neuron, weight)=(0, -1.31964719295501708984e+00) (1, 1.50000000000000000000e+03) (2, -9.75452661514282226562e-02) (3, -9.13749411702156066895e-02) (4, 6.27209171652793884277e-02) (5, 2.81274261474609375000e+01) (6, -2.80031681060791015625e-01) (7, 1.50000000000000000000e+03) (8, 5.24963378906250000000e-01) (9, -1.04330666363239288330e-01) (10, -6.92752778530120849609e-01) (11, 2.07943964004516601562e+00) (12, -1.29242157936096191406e+00) (13, -6.10334277153015136719e-02) (14, 7.29885482788085937500e+01) (15, 1.43978137969970703125e+01) (16, 7.29895401000976562500e+01) (17, -3.50121594965457916260e-02) (18, 5.35747385025024414062e+00) (19, 5.78250229358673095703e-01) (20, 4.73246455192565917969e-01) (21, 1.11012816429138183594e+00) (22, -7.55998992919921875000e+01) (23, -7.55392303466796875000e+01) (24, 1.50000000000000000000e+03) (25, 1.50000000000000000000e+03) (26, 1.50000000000000000000e+03) (27, 1.50000000000000000000e+03) (28, -7.40633106231689453125e+00) (29, 1.50000000000000000000e+03) (30, 1.50000000000000000000e+03) (31, -4.24378544092178344727e-01) (32, 1.50000000000000000000e+03) (33, -2.93113347142934799194e-02) (34, 1.50000000000000000000e+03) (35, 5.15747785568237304688e-01) (36, 1.40343960374593734741e-02) (37, 1.50000000000000000000e+03) (38, -7.92957022786140441895e-02) (39, 2.62277293205261230469e+00) (40, 6.77245178222656250000e+01) (41, -1.09596872329711914062e+01) (42, 1.50000000000000000000e+03) (43, 5.22934019565582275391e-01) (44, 3.12757268548011779785e-02) (45, 1.50000000000000000000e+03) (46, 2.66026477813720703125e+01) (47, -1.63996383547782897949e-01) (48, -9.07594680786132812500e+00) (49, 2.25985809326171875000e+02) (50, -5.94182200729846954346e-02) (51, -3.85222107172012329102e-01) (52, 5.48250794410705566406e-01) (53, -6.37797832489013671875e+00) (54, -9.11691933870315551758e-02) (55, -5.15416145324707031250e-01) (56, 1.50000000000000000000e+03) (57, -4.72686290740966796875e+00) (58, 1.50000000000000000000e+03) (59, 1.26755966186523437500e+02) (60, -3.09065365791320800781e+00) (61, 4.93762791156768798828e-01) (62, 8.58065891265869140625e+00) (63, -1.12410657107830047607e-01) (64, -2.01187458038330078125e+01) (65, 4.37345534563064575195e-01) (66, 4.96597480773925781250e+00) (67, -1.58390253782272338867e-01) (68, 1.66433918476104736328e+00) (69, 1.50000000000000000000e+03) (70, 1.50000000000000000000e+03) (71, 7.26054382324218750000e+01) (72, 2.66234970092773437500e+01) (73, 8.74815464019775390625e-01) (74, 2.26007049560546875000e+02) (75, -3.91778983175754547119e-02) (76, 1.50000000000000000000e+03) (77, -1.47526895999908447266e+00) (78, 1.50000000000000000000e+03) (79, 1.50000000000000000000e+03) (80, 7.25244903564453125000e+01) (81, 2.67208652496337890625e+01) (82, 2.60618865489959716797e-01) (83, 2.27553253173828125000e+02) (84, -3.33853214979171752930e-02) (85, 1.50000000000000000000e+03) (86, 5.91107755899429321289e-02) (87, 1.50000000000000000000e+03) (88, 2.66765556335449218750e+01) (89, 2.66665935516357421875e+01) (90, -5.46340197324752807617e-02) (91, 1.50000000000000000000e+03) (92, 1.50000000000000000000e+03) (93, 6.78756296634674072266e-01) (94, -1.02172369384765625000e+03) (95, 1.50000000000000000000e+03) (96, -1.82332181930541992188e+00) (97, -1.31182937622070312500e+02) (98, 1.50000000000000000000e+03) (99, 1.50000000000000000000e+03) (100, -8.49414229393005371094e-01) (101, 1.50000000000000000000e+03) (102, 1.50000000000000000000e+03) (103, -5.20658874511718750000e+01) (104, -5.20600509643554687500e+01) (105, 2.65918827056884765625e+01) (106, 1.77682296752929687500e+02) (107, 1.50000000000000000000e+03) (108, 2.65717220306396484375e+01) (109, 1.27763610839843750000e+02) (110, 8.92644524574279785156e-01) (111, 2.66329956054687500000e+01) (112, 8.00842895507812500000e+01) (113, 1.47806370258331298828e+00) (114, 1.73541244506835937500e+02) (115, -1.36888548731803894043e-01) (116, 8.13821554183959960938e-01) (117, -1.15660989284515380859e+00) (118, -2.51156002283096313477e-01) (119, 7.07935318350791931152e-02) (120, 1.00952920913696289062e+01) (121, 6.38514876365661621094e-01) (122, -1.37356638908386230469e+00) (123, 2.24235229492187500000e+02) (124, 2.24413260817527770996e-01) (125, -7.27046132087707519531e-02) (0, 3.08845019340515136719e+00) (1, 2.64934005737304687500e+01) (2, 1.62666827440261840820e-01) (3, -4.92380857467651367188e-01) (4, -4.11286950111389160156e-01) (5, 1.50000000000000000000e+03) (6, 4.66275602579116821289e-01) (7, 2.16143875122070312500e+01) (8, -3.42308223247528076172e-01) (9, 2.07143113017082214355e-01) (10, 3.71990174055099487305e-01) (11, -2.26529359817504882812e+00) (12, 1.51549339294433593750e+00) (13, 2.10365474224090576172e-01) (14, 1.50000000000000000000e+03) (15, -1.95622253417968750000e+00) (16, 1.50000000000000000000e+03) (17, -3.81444126367568969727e-01) (18, -2.66468197107315063477e-01) (19, -5.73286175727844238281e-01) (20, 4.37253265380859375000e+01) (21, -1.14669823646545410156e+00) (22, 1.50000000000000000000e+03) (23, 1.50000000000000000000e+03) (24, 2.15593185424804687500e+01) (25, 1.25719596862792968750e+02) (26, -3.10999279022216796875e+01) (27, 7.26141510009765625000e+01) (28, 1.31060686111450195312e+01) (29, -3.11983795166015625000e+01) (30, 1.25667175292968750000e+02) (31, 9.99689459800720214844e-01) (32, 1.50000000000000000000e+03) (33, 1.26256301999092102051e-01) (34, 1.50000000000000000000e+03) (35, -4.90511327981948852539e-01) (36, 2.51041769981384277344e+00) (37, 1.50000000000000000000e+03) (38, 3.55454921722412109375e-01) (39, -2.75789737701416015625e+00) (40, 9.38234252929687500000e+01) (41, 3.25813746452331542969e+00) (42, 2.57107715606689453125e+01) (43, 8.01442191004753112793e-02) (44, 2.60198682546615600586e-01) (45, 2.82202453613281250000e+01) (46, 1.50000000000000000000e+03) (47, 3.18589895963668823242e-01) (48, 2.31554889678955078125e+00) (49, 1.50000000000000000000e+03) (50, 1.76430344581604003906e+00) (51, 6.68795764446258544922e-01) (52, -1.48822560906410217285e-01) (53, 7.82454609870910644531e-01) (54, -1.72909256070852279663e-02) (55, 5.31831681728363037109e-01) (56, 1.50000000000000000000e+03) (57, 4.01464748382568359375e+00) (58, 1.50000000000000000000e+03) (59, 1.50000000000000000000e+03) (60, 1.98758659362792968750e+01) (61, 1.69012534618377685547e+00) (62, -2.15626316070556640625e+01) (63, 4.30611133575439453125e-01) (64, 8.37822055816650390625e+00) (65, -7.03942298889160156250e-01) (66, -6.13676452636718750000e+00) (67, 4.55673426389694213867e-01) (68, 1.16468019783496856689e-01) (69, -2.66205806732177734375e+01) (70, 7.26609191894531250000e+01) (71, 1.50000000000000000000e+03) (72, 1.50000000000000000000e+03) (73, 5.01126194000244140625e+00) (74, 1.50000000000000000000e+03) (75, 5.37222564220428466797e-01) (76, 7.23051910400390625000e+01) (77, 8.03121864795684814453e-01) (78, -2.66553153991699218750e+01) (79, 7.26581726074218750000e+01) (80, 1.50000000000000000000e+03) (81, 1.50000000000000000000e+03) (82, 3.07452702522277832031e+00) (83, 1.50000000000000000000e+03) (84, 1.16119253635406494141e+00) (85, 6.95671844482421875000e+01) (86, 2.84472554922103881836e-01) (87, 1.50000000000000000000e+03) (88, 1.50000000000000000000e+03) (89, 1.50000000000000000000e+03) (90, 1.72768414020538330078e-01) (91, 7.22523956298828125000e+01) (92, 7.27334213256835937500e+01) (93, -9.22523498535156250000e-01) (94, 6.77903503417968750000e+02) (95, 1.50000000000000000000e+03) (96, -2.46492639183998107910e-01) (97, 1.50000000000000000000e+03) (98, -2.72364177703857421875e+01) (99, 7.26277542114257812500e+01) (100, 1.16841101646423339844e+00) (101, 1.50000000000000000000e+03) (102, 1.50000000000000000000e+03) (103, 7.00394964218139648438e+00) (104, 3.33086943626403808594e+00) (105, 1.50000000000000000000e+03) (106, -7.26449966430664062500e+00) (107, -5.78346618652343750000e+02) (108, 1.50000000000000000000e+03) (109, 1.50000000000000000000e+03) (110, -4.15987682342529296875e+00) (111, 1.50000000000000000000e+03) (112, 1.50000000000000000000e+03) (113, -6.93572878837585449219e-01) (114, 1.50000000000000000000e+03) (115, 2.73992061614990234375e-01) (116, -2.99694418907165527344e-01) (117, 1.25360965728759765625e+00) (118, 7.90855139493942260742e-02) (119, 4.45095747709274291992e-01) (120, 6.17516845703125000000e+02) (121, -2.62255501747131347656e+00) (122, 6.52841150760650634766e-01) (123, 1.50000000000000000000e+03) (124, -4.20883923768997192383e-01) (125, 2.77831763029098510742e-01) (0, -6.65982894897460937500e+01) (1, 1.16320996093750000000e+03) (2, -1.19593544006347656250e+01) (3, 2.97934188842773437500e+01) (4, -6.84926452636718750000e+01) (5, 1.50000000000000000000e+03) (6, -6.03967552185058593750e+01) (7, 1.27112646484375000000e+03) (8, -1.08144748210906982422e+00) (9, -1.23738250732421875000e+01) (10, -1.41097855567932128906e+00) (11, 2.74648559570312500000e+02) (12, 2.54354983568191528320e-01) (13, -7.19160919189453125000e+01) (14, 8.34836791992187500000e+02) (15, 9.73762321472167968750e+00) (16, 7.38487121582031250000e+02) (17, -5.49833393096923828125e+00) (18, 2.37636375427246093750e+00) (19, -7.48485469818115234375e+00) (20, -3.68491917848587036133e-01) (21, 2.25348114013671875000e+02) (22, 6.63137512207031250000e+02) (23, 2.63032226562500000000e+02) (24, 1.50000000000000000000e+03) (25, 1.50000000000000000000e+03) (26, 1.45000000000000000000e+03) (27, 1.50000000000000000000e+03) (28, -1.70353565216064453125e+01) (29, 1.50000000000000000000e+03) (30, 1.50000000000000000000e+03) (31, -6.36338055133819580078e-01) (32, 1.50000000000000000000e+03) (33, -1.56497220993041992188e+01) (34, 1.50000000000000000000e+03) (35, -1.85507392883300781250e+01) (36, -2.23883795738220214844e+00) (37, 1.50000000000000000000e+03) (38, -6.84108657836914062500e+01) (39, 1.20145050048828125000e+02) (40, 1.50000000000000000000e+03) (41, -2.53287744522094726562e+00) (42, 1.50000000000000000000e+03) (43, -3.55185127258300781250e+01) (44, -3.95356678962707519531e+00) (45, 1.23656665039062500000e+03) (46, 2.74983703613281250000e+02) (47, -2.77848358154296875000e+01) (48, -5.06037025451660156250e+01) (49, 4.85483886718750000000e+02) (50, -9.58481597900390625000e+00) (51, -5.39174199104309082031e-01) (52, -2.89483356475830078125e+01) (53, -5.87171792984008789062e-01) (54, -6.60278856754302978516e-01) (55, -1.12704029083251953125e+01) (56, 1.50000000000000000000e+03) (57, 1.29551110839843750000e+03) (58, 1.50000000000000000000e+03) (59, 6.30783935546875000000e+02) (60, 4.41007232666015625000e+00) (61, 7.77674560546875000000e+02) (62, 8.26854614257812500000e+02) (63, -3.38057637214660644531e+00) (64, -4.78350937366485595703e-01) (65, 1.30230283737182617188e+01) (66, -2.79811596870422363281e+00) (67, -1.84419465065002441406e+00) (68, 2.37905609130859375000e+02) (69, 1.45000000000000000000e+03) (70, 1.50000000000000000000e+03) (71, 3.00823669433593750000e+02) (72, 2.74936706542968750000e+02) (73, 7.99091247558593750000e+02) (74, 4.65032470703125000000e+02) (75, -2.91644620895385742188e+00) (76, 1.50000000000000000000e+03) (77, -1.04818077087402343750e+02) (78, 1.45000000000000000000e+03) (79, 1.50000000000000000000e+03) (80, 2.92403259277343750000e+02) (81, 2.75043945312500000000e+02) (82, 2.32129249572753906250e+01) (83, 5.32579895019531250000e+02) (84, -1.22653067111968994141e+00) (85, 1.50000000000000000000e+03) (86, -3.38194427490234375000e+01) (87, 1.50000000000000000000e+03) (88, 2.75046997070312500000e+02) (89, 2.74959716796875000000e+02) (90, -9.58627033233642578125e+00) (91, 1.50000000000000000000e+03) (92, 1.50000000000000000000e+03) (93, -4.71959342956542968750e+01) (94, -2.36667144775390625000e+02) (95, 1.50000000000000000000e+03) (96, -6.47947549819946289062e-01) (97, 7.06765869140625000000e+02) (98, 1.45000000000000000000e+03) (99, 1.50000000000000000000e+03) (100, -1.16971719264984130859e+00) (101, 1.50000000000000000000e+03) (102, 1.50000000000000000000e+03) (103, -4.14688396453857421875e+00) (104, -6.21356964111328125000e+00) (105, 2.75010925292968750000e+02) (106, 7.12396469116210937500e+01) (107, 1.50000000000000000000e+03) (108, 2.75012695312500000000e+02) (109, 4.68206634521484375000e+02) (110, 1.06898856163024902344e+00) (111, 2.75042633056640625000e+02) (112, 1.50000000000000000000e+03) (113, -2.20991153717041015625e+01) (114, 6.00761962890625000000e+02) (115, 3.78188690185546875000e+02) (116, -3.53671760559082031250e+01) (117, -2.03422164916992187500e+00) (118, -6.25852346420288085938e-01) (119, -2.74607372283935546875e+00) (120, -9.62345764160156250000e+02) (121, -1.06410989761352539062e+01) (122, 1.35011320114135742188e+01) (123, 2.88356262207031250000e+02) (124, -2.22993354797363281250e+01) (125, -3.37368545532226562500e+01) (0, 2.11087012290954589844e+00) (1, 1.24580444335937500000e+02) (2, -5.49105703830718994141e-01) (3, -9.82621833682060241699e-02) (4, -4.23944091796875000000e+00) (5, 1.50000000000000000000e+03) (6, -1.66150778532028198242e-01) (7, 1.25617538452148437500e+02) (8, -1.70447528362274169922e+00) (9, -2.58813858032226562500e-01) (10, -2.51529884338378906250e+00) (11, -3.67628479003906250000e+02) (12, -2.11469873785972595215e-01) (13, -3.30905377864837646484e-01) (14, 1.50000000000000000000e+03) (15, -1.46344459056854248047e+00) (16, 1.50000000000000000000e+03) (17, -9.02592182159423828125e+00) (18, -4.94159460067749023438e-01) (19, -1.64037510752677917480e-01) (20, 9.70466673374176025391e-01) (21, -7.65188932418823242188e+00) (22, 1.50000000000000000000e+03) (23, 1.50000000000000000000e+03) (24, 1.84551315307617187500e+01) (25, 1.26302482604980468750e+02) (26, -2.40123424530029296875e+01) (27, 7.45894699096679687500e+01) (28, 1.21829628944396972656e+00) (29, 4.49681701660156250000e+01) (30, 1.26307258605957031250e+02) (31, -3.41886013746261596680e-01) (32, 1.50000000000000000000e+03) (33, -9.23330605030059814453e-01) (34, 1.50000000000000000000e+03) (35, -3.67663931846618652344e+00) (36, 7.94813036918640136719e-01) (37, 1.50000000000000000000e+03) (38, -3.04598193615674972534e-02) (39, -7.86887109279632568359e-01) (40, 4.93021309375762939453e-01) (41, 3.54054880142211914062e+00) (42, 2.62980003356933593750e+01) (43, 1.74712568521499633789e-01) (44, 2.86497533321380615234e-01) (45, 5.28283081054687500000e+01) (46, 1.50000000000000000000e+03) (47, -2.16790869832038879395e-01) (48, 1.30527213215827941895e-01) (49, 1.50000000000000000000e+03) (50, -2.03771188855171203613e-01) (51, -4.46481853723526000977e-01) (52, 1.48876845836639404297e-01) (53, 2.07218915224075317383e-01) (54, -1.20246315002441406250e+00) (55, -1.35822862386703491211e-01) (56, 1.50000000000000000000e+03) (57, 4.93810272216796875000e+00) (58, 1.50000000000000000000e+03) (59, 1.50000000000000000000e+03) (60, -1.20249174535274505615e-01) (61, -3.93696933984756469727e-01) (62, -3.87138862609863281250e+01) (63, 5.77893517911434173584e-02) (64, 4.80910450220108032227e-01) (65, -3.89568209648132324219e-01) (66, -3.32516074180603027344e+00) (67, 2.99250371754169464111e-02) (68, -1.68131992220878601074e-01) (69, -2.28101501464843750000e+01) (70, 7.45532836914062500000e+01) (71, 1.50000000000000000000e+03) (72, 1.50000000000000000000e+03) (73, 7.26919889450073242188e+00) (74, 1.50000000000000000000e+03) (75, -1.74474135041236877441e-01) (76, 7.43425827026367187500e+01) (77, 4.15835499763488769531e-01) (78, -2.28785934448242187500e+01) (79, 7.46885299682617187500e+01) (80, 1.50000000000000000000e+03) (81, 1.50000000000000000000e+03) (82, 3.81566405296325683594e+00) (83, 1.50000000000000000000e+03) (84, -2.24982410669326782227e-01) (85, 7.38886032104492187500e+01) (86, -8.59234273433685302734e-01) (87, 1.50000000000000000000e+03) (88, 1.50000000000000000000e+03) (89, 1.50000000000000000000e+03) (90, -8.66686642169952392578e-01) (91, 7.44050445556640625000e+01) (92, 7.45855255126953125000e+01) (93, 6.37362077832221984863e-02) (94, 2.20664143562316894531e+00) (95, 1.50000000000000000000e+03) (96, -9.21086978912353515625e+00) (97, 1.50000000000000000000e+03) (98, -2.54368782043457031250e+01) (99, 7.46563796997070312500e+01) (100, 5.17028510570526123047e-01) (101, 1.50000000000000000000e+03) (102, 1.50000000000000000000e+03) (103, 1.19389843940734863281e+00) (104, 3.49256968498229980469e+00) (105, 1.50000000000000000000e+03) (106, -6.67061567306518554688e+00) (107, -4.00971923828125000000e+02) (108, 1.50000000000000000000e+03) (109, 1.50000000000000000000e+03) (110, -1.76490219116210937500e+02) (111, 1.50000000000000000000e+03) (112, 1.50000000000000000000e+03) (113, -7.95115113258361816406e-01) (114, 1.50000000000000000000e+03) (115, -4.58836555480957031250e-02) (116, -4.39520168304443359375e+00) (117, -5.11686623096466064453e-01) (118, -3.22347074747085571289e-01) (119, -1.66764659881591796875e+01) (120, 9.83812438964843750000e+02) (121, -8.99041056632995605469e-01) (122, 1.76168307662010192871e-01) (123, 1.50000000000000000000e+03) (124, -1.17034184932708740234e+00) (125, -9.15294587612152099609e-01) (0, -6.28285765647888183594e-01) (1, 1.50000000000000000000e+03) (2, -1.62271503359079360962e-02) (3, 4.26995187997817993164e-01) (4, 1.73951178789138793945e-01) (5, 2.79928665161132812500e+01) (6, -2.43057295680046081543e-01) (7, 1.50000000000000000000e+03) (8, 4.39731925725936889648e-01) (9, -2.29671463370323181152e-01) (10, -4.98496472835540771484e-01) (11, 2.10446810722351074219e+00) (12, -1.24867498874664306641e+00) (13, -7.30958133935928344727e-02) (14, 7.30396118164062500000e+01) (15, 5.51360416412353515625e+00) (16, 7.31056594848632812500e+01) (17, -9.38885584473609924316e-02) (18, 5.45801830291748046875e+00) (19, 5.03521978855133056641e-01) (20, 4.20865684747695922852e-01) (21, 1.11238706111907958984e+00) (22, -7.54878540039062500000e+01) (23, -7.56208572387695312500e+01) (24, 1.50000000000000000000e+03) (25, 1.50000000000000000000e+03) (26, 1.50000000000000000000e+03) (27, 1.50000000000000000000e+03) (28, -6.48570632934570312500e+00) (29, 1.50000000000000000000e+03) (30, 1.50000000000000000000e+03) (31, -3.03947359323501586914e-01) (32, 1.50000000000000000000e+03) (33, -1.36781288310885429382e-02) (34, 1.50000000000000000000e+03) (35, 5.31193852424621582031e-01) (36, -2.88619965314865112305e-01) (37, 1.50000000000000000000e+03) (38, -1.43322885036468505859e-01) (39, 1.78335416316986083984e+00) (40, 3.05628509521484375000e+01) (41, -1.09749021530151367188e+01) (42, 1.50000000000000000000e+03) (43, 4.41464126110076904297e-01) (44, 3.99791030213236808777e-03) (45, 1.50000000000000000000e+03) (46, 2.66918411254882812500e+01) (47, -7.47842341661453247070e-02) (48, -9.05631351470947265625e+00) (49, 2.25973358154296875000e+02) (50, -1.39898121356964111328e-01) (51, -3.42560738325119018555e-01) (52, 5.37007749080657958984e-01) (53, -6.45182037353515625000e+00) (54, 4.83090095221996307373e-02) (55, -5.47441124916076660156e-01) (56, 1.50000000000000000000e+03) (57, -4.88890123367309570312e+00) (58, 1.50000000000000000000e+03) (59, 1.26707351684570312500e+02) (60, -3.15782952308654785156e+00) (61, 6.81568503379821777344e-01) (62, 8.45247936248779296875e+00) (63, -9.55723375082015991211e-02) (64, -2.01107559204101562500e+01) (65, 5.35188317298889160156e-01) (66, 7.79052782058715820312e+00) (67, -1.20966963469982147217e-01) (68, 1.76230609416961669922e+00) (69, 1.50000000000000000000e+03) (70, 1.50000000000000000000e+03) (71, 7.25781860351562500000e+01) (72, 2.65633029937744140625e+01) (73, 7.89201021194458007812e-01) (74, 2.26098327636718750000e+02) (75, -1.61427184939384460449e-01) (76, 1.50000000000000000000e+03) (77, -1.78609728813171386719e+00) (78, 1.50000000000000000000e+03) (79, 1.50000000000000000000e+03) (80, 7.24925231933593750000e+01) (81, 2.65363426208496093750e+01) (82, 5.97761034965515136719e-01) (83, 2.27511108398437500000e+02) (84, -8.70727449655532836914e-02) (85, 1.50000000000000000000e+03) (86, -1.50781888514757156372e-02) (87, 1.50000000000000000000e+03) (88, 2.67053070068359375000e+01) (89, 2.66448688507080078125e+01) (90, -8.64328145980834960938e-02) (91, 1.50000000000000000000e+03) (92, 1.50000000000000000000e+03) (93, 5.13624608516693115234e-01) (94, -1.02173431396484375000e+03) (95, 1.50000000000000000000e+03) (96, -5.37790536880493164062e-01) (97, -1.31174499511718750000e+02) (98, 1.50000000000000000000e+03) (99, 1.50000000000000000000e+03) (100, -8.85964274406433105469e-01) (101, 1.50000000000000000000e+03) (102, 1.50000000000000000000e+03) (103, -5.21626319885253906250e+01) (104, -5.21975364685058593750e+01) (105, 2.66927700042724609375e+01) (106, 1.77698074340820312500e+02) (107, 1.50000000000000000000e+03) (108, 2.66530838012695312500e+01) (109, 1.27780761718750000000e+02) (110, 3.69771093130111694336e-01) (111, 2.66823844909667968750e+01) (112, 8.01169281005859375000e+01) (113, 1.38630282878875732422e+00) (114, 1.73548461914062500000e+02) (115, -1.62624925374984741211e-01) (116, 7.31483221054077148438e-01) (117, -1.22357428073883056641e+00) (118, -2.59055078029632568359e-01) (119, 5.96476309001445770264e-02) (120, 3.10133266448974609375e+00) (121, 5.99843502044677734375e-01) (122, -1.49276328086853027344e+00) (123, 2.24312622070312500000e+02) (124, 2.26789176464080810547e-01) (125, -8.49625375121831893921e-03) (0, -2.68569707870483398438e+00) (1, 1.50000000000000000000e+03) (2, 1.10003715381026268005e-02) (3, -1.97677180171012878418e-01) (4, 9.39106196165084838867e-02) (5, 2.81422882080078125000e+01) (6, -1.17989227175712585449e-01) (7, 1.50000000000000000000e+03) (8, 4.74328726530075073242e-01) (9, -2.50815331935882568359e-01) (10, -4.46280241012573242188e-01) (11, 2.05961990356445312500e+00) (12, -1.30127620697021484375e+00) (13, -1.54917528852820396423e-02) (14, 7.30680084228515625000e+01) (15, 5.48813009262084960938e+00) (16, 7.30585784912109375000e+01) (17, -2.02816665172576904297e-01) (18, -4.62215185165405273438e-01) (19, 5.93496918678283691406e-01) (20, -6.94345140457153320312e+00) (21, 8.41170728206634521484e-01) (22, -7.55600204467773437500e+01) (23, -7.55086746215820312500e+01) (24, 1.50000000000000000000e+03) (25, 1.50000000000000000000e+03) (26, 1.50000000000000000000e+03) (27, 1.50000000000000000000e+03) (28, -3.28636054992675781250e+01) (29, 1.50000000000000000000e+03) (30, 1.50000000000000000000e+03) (31, -4.21623378992080688477e-01) (32, 1.50000000000000000000e+03) (33, -4.37067970633506774902e-02) (34, 1.50000000000000000000e+03) (35, 6.27797067165374755859e-01) (36, -1.14653801918029785156e+00) (37, 1.50000000000000000000e+03) (38, -1.50079488754272460938e-01) (39, 1.45426583290100097656e+00) (40, 3.07222480773925781250e+01) (41, -1.09486131668090820312e+01) (42, 1.50000000000000000000e+03) (43, 5.44392645359039306641e-01) (44, -1.10719271004199981689e-01) (45, 1.50000000000000000000e+03) (46, 2.65692958831787109375e+01) (47, -4.04283441603183746338e-02) (48, -9.02577209472656250000e+00) (49, 2.26032714843750000000e+02) (50, -5.38759455084800720215e-02) (51, -1.57838463783264160156e-01) (52, 6.49345993995666503906e-01) (53, -6.39581012725830078125e+00) (54, 5.95399141311645507812e-02) (55, -3.77816289663314819336e-01) (56, 1.50000000000000000000e+03) (57, -5.73016023635864257812e+00) (58, 1.50000000000000000000e+03) (59, 1.26842681884765625000e+02) (60, -3.09368157386779785156e+00) (61, 4.96696740388870239258e-01) (62, 7.73552274703979492188e+00) (63, -1.23233154416084289551e-01) (64, -1.99981994628906250000e+01) (65, 4.07579749822616577148e-01) (66, 4.91078233718872070312e+00) (67, -2.42591410875320434570e-01) (68, 1.81523633003234863281e+00) (69, 1.50000000000000000000e+03) (70, 1.50000000000000000000e+03) (71, 7.25905075073242187500e+01) (72, 2.67090415954589843750e+01) (73, 8.72792482376098632812e-01) (74, 2.26013580322265625000e+02) (75, -1.31841525435447692871e-01) (76, 1.50000000000000000000e+03) (77, -1.68507546186447143555e-01) (78, 1.50000000000000000000e+03) (79, 1.50000000000000000000e+03) (80, 7.25445861816406250000e+01) (81, 2.65337409973144531250e+01) (82, 2.38214224576950073242e-01) (83, 2.27486999511718750000e+02) (84, -6.79293870925903320312e-02) (85, 1.50000000000000000000e+03) (86, -7.00941011309623718262e-02) (87, 1.50000000000000000000e+03) (88, 2.66454372406005859375e+01) (89, 2.65651645660400390625e+01) (90, 2.04781275242567062378e-02) (91, 1.50000000000000000000e+03) (92, 1.50000000000000000000e+03) (93, 1.10591184347867965698e-02) (94, -1.02172113037109375000e+03) (95, 1.50000000000000000000e+03) (96, -6.41872286796569824219e-01) (97, -1.31035568237304687500e+02) (98, 1.50000000000000000000e+03) (99, 1.50000000000000000000e+03) (100, -3.54385471343994140625e+00) (101, 1.50000000000000000000e+03) (102, 1.50000000000000000000e+03) (103, -5.21585044860839843750e+01) (104, -5.21298217773437500000e+01) (105, 2.66694126129150390625e+01) (106, 1.77733230590820312500e+02) (107, 1.50000000000000000000e+03) (108, 2.66224346160888671875e+01) (109, 1.27885139465332031250e+02) (110, 4.66296911239624023438e-01) (111, 2.67037963867187500000e+01) (112, 8.02187042236328125000e+01) (113, 1.41344225406646728516e+00) (114, 1.73545761108398437500e+02) (115, -2.17223286628723144531e-01) (116, 6.21376991271972656250e-01) (117, -1.28101456165313720703e+00) (118, -1.33290439844131469727e-01) (119, -4.15980741381645202637e-02) (120, -1.26558601856231689453e+00) (121, 6.31913065910339355469e-01) (122, -1.33162307739257812500e+00) (123, 2.24239410400390625000e+02) (124, 2.69480943679809570312e-01) (125, -3.47002930939197540283e-02) (0, 6.09151542186737060547e-01) (1, 1.50000000000000000000e+03) (2, -6.80350139737129211426e-02) (3, 3.08762848377227783203e-01) (4, 1.70623958110809326172e-01) (5, 2.81139373779296875000e+01) (6, -2.20686838030815124512e-01) (7, 1.50000000000000000000e+03) (8, 5.19479215145111083984e-01) (9, -8.65224674344062805176e-02) (10, -3.40491861104965209961e-01) (11, 2.07055330276489257812e+00) (12, -1.26040887832641601562e+00) (13, -5.70610864087939262390e-03) (14, 7.29833145141601562500e+01) (15, 5.45657157897949218750e+00) (16, 7.30883865356445312500e+01) (17, -1.65954530239105224609e-01) (18, 2.42596411705017089844e+00) (19, 4.20600503683090209961e-01) (20, 6.54844045639038085938e-01) (21, 9.73538815975189208984e-01) (22, -7.55901107788085937500e+01) (23, -7.56104431152343750000e+01) (24, 1.50000000000000000000e+03) (25, 1.50000000000000000000e+03) (26, 1.50000000000000000000e+03) (27, 1.50000000000000000000e+03) (28, -6.02571535110473632812e+00) (29, 1.50000000000000000000e+03) (30, 1.50000000000000000000e+03) (31, -3.58786553144454956055e-01) (32, 1.50000000000000000000e+03) (33, 1.29243023693561553955e-02) (34, 1.50000000000000000000e+03) (35, 6.71477138996124267578e-01) (36, -7.32146382331848144531e-01) (37, 1.50000000000000000000e+03) (38, -4.76375073194503784180e-02) (39, 1.84356200695037841797e+00) (40, 7.34412918090820312500e+01) (41, -1.10080890655517578125e+01) (42, 1.50000000000000000000e+03) (43, 4.23261433839797973633e-01) (44, -1.57964184880256652832e-01) (45, 1.50000000000000000000e+03) (46, 2.66166057586669921875e+01) (47, -5.76238669455051422119e-02) (48, -9.07917881011962890625e+00) (49, 2.25913543701171875000e+02) (50, -5.88955730199813842773e-03) (51, -3.46603184938430786133e-01) (52, 5.91914057731628417969e-01) (53, -6.42006969451904296875e+00) (54, 6.26233935356140136719e-01) (55, -4.39618378877639770508e-01) (56, 1.50000000000000000000e+03) (57, -5.20753717422485351562e+00) (58, 1.50000000000000000000e+03) (59, 1.26811218261718750000e+02) (60, -2.82005882263183593750e+00) (61, 2.32245504856109619141e-01) (62, 8.50150394439697265625e+00) (63, -1.93236887454986572266e-01) (64, -2.01091308593750000000e+01) (65, 4.18168932199478149414e-01) (66, 7.62678146362304687500e+00) (67, -1.80665269494056701660e-01) (68, 1.68972527980804443359e+00) (69, 1.50000000000000000000e+03) (70, 1.50000000000000000000e+03) (71, 7.24991378784179687500e+01) (72, 2.66617031097412109375e+01) (73, 8.20569276809692382812e-01) (74, 2.26001098632812500000e+02) (75, -2.33837272971868515015e-02) (76, 1.50000000000000000000e+03) (77, -3.20674443244934082031e+00) (78, 1.50000000000000000000e+03) (79, 1.50000000000000000000e+03) (80, 7.26602172851562500000e+01) (81, 2.66198844909667968750e+01) (82, 4.87115502357482910156e-01) (83, 2.27533691406250000000e+02) (84, 4.58698906004428863525e-02) (85, 1.50000000000000000000e+03) (86, -8.30456614494323730469e-02) (87, 1.50000000000000000000e+03) (88, 2.65547046661376953125e+01) (89, 2.66565361022949218750e+01) (90, 6.04534670710563659668e-02) (91, 1.50000000000000000000e+03) (92, 1.50000000000000000000e+03) (93, 5.07758677005767822266e-01) (94, -1.03640026855468750000e+03) (95, 1.50000000000000000000e+03) (96, -6.66447520256042480469e-01) (97, -1.31110549926757812500e+02) (98, 1.50000000000000000000e+03) (99, 1.50000000000000000000e+03) (100, -9.62188124656677246094e-01) (101, 1.50000000000000000000e+03) (102, 1.50000000000000000000e+03) (103, -5.20686912536621093750e+01) (104, -5.20667915344238281250e+01) (105, 2.67152309417724609375e+01) (106, 1.77724624633789062500e+02) (107, 1.50000000000000000000e+03) (108, 2.67030563354492187500e+01) (109, 1.27756843566894531250e+02) (110, 4.36980009078979492188e-01) (111, 2.67000560760498046875e+01) (112, 8.01765441894531250000e+01) (113, 1.46899473667144775391e+00) (114, 1.73588745117187500000e+02) (115, -1.86308309435844421387e-01) (116, 7.12551593780517578125e-01) (117, -1.24439752101898193359e+00) (118, -2.42722347378730773926e-01) (119, 4.68835718929767608643e-02) (120, 3.08370113372802734375e+00) (121, 5.61456382274627685547e-01) (122, -8.23255181312561035156e-01) (123, 2.24299072265625000000e+02) (124, 1.84496343135833740234e-01) (125, -9.12429988384246826172e-02) (0, 3.33466219902038574219e+00) (1, 2.64619293212890625000e+01) (2, 1.97246968746185302734e-01) (3, 2.61027574539184570312e-01) (4, 4.87589463591575622559e-03) (5, 1.50000000000000000000e+03) (6, 4.00352090597152709961e-01) (7, 2.15478515625000000000e+01) (8, -1.97067844867706298828e+00) (9, -1.25615894794464111328e-01) (10, 2.32978150248527526855e-01) (11, -4.38293313980102539062e+00) (12, 2.07388448715209960938e+00) (13, 1.89119383692741394043e-01) (14, 1.50000000000000000000e+03) (15, -1.77525305747985839844e+00) (16, 1.50000000000000000000e+03) (17, -3.61837059259414672852e-01) (18, 4.28158664703369140625e+00) (19, -6.70577585697174072266e-01) (20, 1.21998184204101562500e+02) (21, -7.94140756130218505859e-01) (22, 1.50000000000000000000e+03) (23, 1.50000000000000000000e+03) (24, 2.16570968627929687500e+01) (25, 1.25819717407226562500e+02) (26, -3.10831279754638671875e+01) (27, 7.26748657226562500000e+01) (28, 1.71044158935546875000e+01) (29, -3.10232849121093750000e+01) (30, 1.25707733154296875000e+02) (31, 1.01957106590270996094e+00) (32, 1.50000000000000000000e+03) (33, 3.04121613502502441406e-01) (34, 1.50000000000000000000e+03) (35, -5.16615748405456542969e-01) (36, 1.52907168865203857422e+00) (37, 1.50000000000000000000e+03) (38, 2.94642537832260131836e-01) (39, -1.54846262931823730469e+00) (40, 3.93723716735839843750e+01) (41, 3.51133847236633300781e+00) (42, 2.56740226745605468750e+01) (43, 9.52126383781433105469e-02) (44, 1.86400234699249267578e-01) (45, 2.82274932861328125000e+01) (46, 1.50000000000000000000e+03) (47, 2.99674212932586669922e-01) (48, 2.45904326438903808594e+00) (49, 1.50000000000000000000e+03) (50, 6.09043836593627929688e-01) (51, 1.35103988647460937500e+00) (52, -2.42131739854812622070e-01) (53, 1.53958082199096679688e+00) (54, 9.57673415541648864746e-02) (55, 9.40816283226013183594e-01) (56, 1.50000000000000000000e+03) (57, 3.91029596328735351562e+00) (58, 1.50000000000000000000e+03) (59, 1.50000000000000000000e+03) (60, 3.86765289306640625000e+00) (61, 1.79603016376495361328e+00) (62, -1.11044178009033203125e+01) (63, 4.16706144809722900391e-01) (64, 2.22762107849121093750e+00) (65, -8.42151284217834472656e-01) (66, -1.84976053237915039062e+00) (67, 3.97354215383529663086e-01) (68, 2.51335818320512771606e-02) (69, -2.65332736968994140625e+01) (70, 7.26761627197265625000e+01) (71, 1.50000000000000000000e+03) (72, 1.50000000000000000000e+03) (73, 1.93976736068725585938e+00) (74, 1.50000000000000000000e+03) (75, 5.13039052486419677734e-01) (76, 7.22909393310546875000e+01) (77, 2.32394051551818847656e+00) (78, -2.65223445892333984375e+01) (79, 7.27874145507812500000e+01) (80, 1.50000000000000000000e+03) (81, 1.50000000000000000000e+03) (82, 1.73606798052787780762e-01) (83, 1.50000000000000000000e+03) (84, 4.02076035737991333008e-01) (85, 6.94481277465820312500e+01) (86, 2.57772564888000488281e-01) (87, 1.50000000000000000000e+03) (88, 1.50000000000000000000e+03) (89, 1.50000000000000000000e+03) (90, 1.10843576490879058838e-01) (91, 7.21875915527343750000e+01) (92, 7.26425247192382812500e+01) (93, -3.17698776721954345703e-01) (94, 3.97764038085937500000e+02) (95, 1.50000000000000000000e+03) (96, -1.33198931813240051270e-01) (97, 1.50000000000000000000e+03) (98, -2.72258358001708984375e+01) (99, 7.27015686035156250000e+01) (100, 1.25411307811737060547e+00) (101, 1.50000000000000000000e+03) (102, 1.50000000000000000000e+03) (103, 6.91617393493652343750e+00) (104, 3.33519768714904785156e+00) (105, 1.50000000000000000000e+03) (106, -7.20071554183959960938e+00) (107, -5.78356506347656250000e+02) (108, 1.50000000000000000000e+03) (109, 1.50000000000000000000e+03) (110, -8.35834121704101562500e+00) (111, 1.50000000000000000000e+03) (112, 1.50000000000000000000e+03) (113, -5.92311561107635498047e-01) (114, 1.50000000000000000000e+03) (115, 9.61979150772094726562e-01) (116, -5.22202253341674804688e-01) (117, 1.10526013374328613281e+00) (118, 1.13940566778182983398e-01) (119, 4.57624673843383789062e-01) (120, 6.17573181152343750000e+02) (121, -4.89545011520385742188e+00) (122, 5.66973507404327392578e-01) (123, 1.50000000000000000000e+03) (124, -1.65469086170196533203e+00) (125, 2.20897078514099121094e-01) (0, 4.62042427062988281250e+00) (1, 2.64984436035156250000e+01) (2, 2.84715443849563598633e-01) (3, 2.48958483338356018066e-01) (4, -1.13988846540451049805e-01) (5, 1.50000000000000000000e+03) (6, 4.86564457416534423828e-01) (7, 2.16601333618164062500e+01) (8, -1.97600448131561279297e+00) (9, -1.87119096517562866211e-01) (10, 3.25617969036102294922e-01) (11, -7.40657615661621093750e+00) (12, 1.46153962612152099609e+00) (13, 3.74014794826507568359e-01) (14, 1.50000000000000000000e+03) (15, -1.64433872699737548828e+00) (16, 1.50000000000000000000e+03) (17, -1.85960575938224792480e-01) (18, 1.25640416145324707031e+00) (19, -6.29006624221801757812e-01) (20, 1.61825744628906250000e+02) (21, -5.97801089286804199219e-01) (22, 1.50000000000000000000e+03) (23, 1.50000000000000000000e+03) (24, 2.17064132690429687500e+01) (25, 1.25721252441406250000e+02) (26, -3.12045001983642578125e+01) (27, 7.27073898315429687500e+01) (28, 1.13681144714355468750e+01) (29, -3.10416183471679687500e+01) (30, 1.25788948059082031250e+02) (31, 9.51901018619537353516e-01) (32, 1.50000000000000000000e+03) (33, 1.50348976254463195801e-01) (34, 1.50000000000000000000e+03) (35, -4.24778133630752563477e-01) (36, 4.00465869903564453125e+00) (37, 1.50000000000000000000e+03) (38, 2.40647926926612854004e-01) (39, -2.29746150970458984375e+00) (40, 9.38476028442382812500e+01) (41, 3.56676387786865234375e+00) (42, 2.56910743713378906250e+01) (43, 7.62839242815971374512e-02) (44, 7.70442411303520202637e-02) (45, 2.82850112915039062500e+01) (46, 1.50000000000000000000e+03) (47, 3.00707906484603881836e-01) (48, 1.32881832122802734375e+00) (49, 1.50000000000000000000e+03) (50, 2.68312871456146240234e-01) (51, 6.71002864837646484375e-01) (52, -2.14918330311775207520e-01) (53, 1.65724050998687744141e+00) (54, -1.23029100894927978516e+00) (55, 8.15669953823089599609e-01) (56, 1.50000000000000000000e+03) (57, 3.99482488632202148438e+00) (58, 1.50000000000000000000e+03) (59, 1.50000000000000000000e+03) (60, 1.08334851264953613281e+00) (61, 1.78462255001068115234e+00) (62, -1.03286428451538085938e+01) (63, 4.93730872869491577148e-01) (64, 2.28771328926086425781e+00) (65, -1.79867520928382873535e-01) (66, -1.20326936244964599609e+00) (67, 4.11262035369873046875e-01) (68, -6.56515508890151977539e-02) (69, -2.65411205291748046875e+01) (70, 7.27847061157226562500e+01) (71, 1.50000000000000000000e+03) (72, 1.50000000000000000000e+03) (73, 5.66296577453613281250e-01) (74, 1.50000000000000000000e+03) (75, 7.71370351314544677734e-01) (76, 7.22740478515625000000e+01) (77, 2.64897178858518600464e-02) (78, -2.66593933105468750000e+01) (79, 7.26860504150390625000e+01) (80, 1.50000000000000000000e+03) (81, 1.50000000000000000000e+03) (82, 2.13840559124946594238e-01) (83, 1.50000000000000000000e+03) (84, 3.30819696187973022461e-01) (85, 6.95377731323242187500e+01) (86, 2.91278600692749023438e-01) (87, 1.50000000000000000000e+03) (88, 1.50000000000000000000e+03) (89, 1.50000000000000000000e+03) (90, 1.91974133253097534180e-01) (91, 7.22516174316406250000e+01) (92, 7.27783966064453125000e+01) (93, 4.15971279144287109375e-01) (94, 7.02468490600585937500e+01) (95, 1.50000000000000000000e+03) (96, -1.13510228693485260010e-01) (97, 1.50000000000000000000e+03) (98, -2.73396720886230468750e+01) (99, 7.26484222412109375000e+01) (100, 1.21060657501220703125e+00) (101, 1.50000000000000000000e+03) (102, 1.50000000000000000000e+03) (103, 7.10415983200073242188e+00) (104, 3.10355734825134277344e+00) (105, 1.50000000000000000000e+03) (106, -7.15065002441406250000e+00) (107, -5.78453125000000000000e+02) (108, 1.50000000000000000000e+03) (109, 1.50000000000000000000e+03) (110, -6.55624675750732421875e+00) (111, 1.50000000000000000000e+03) (112, 1.50000000000000000000e+03) (113, -5.18358290195465087891e-01) (114, 1.50000000000000000000e+03) (115, 5.20225524902343750000e-01) (116, -5.71932137012481689453e-01) (117, 1.26976239681243896484e+00) (118, -4.43481743335723876953e-01) (119, 7.99562990665435791016e-01) (120, 4.55282836914062500000e+02) (121, -9.62366819381713867188e-01) (122, 5.75771570205688476562e-01) (123, 1.50000000000000000000e+03) (124, -1.32035398855805397034e-02) (125, 1.88356980681419372559e-01) (0, 1.18395490646362304688e+01) (1, 2.65339584350585937500e+01) (2, -2.23842549324035644531e+00) (3, -3.94904446601867675781e+00) (4, -5.89460253715515136719e-01) (5, 1.50000000000000000000e+03) (6, 4.99901205301284790039e-01) (7, 2.15246505737304687500e+01) (8, -3.52165174484252929688e+00) (9, -1.15258252620697021484e+00) (10, 2.39808425307273864746e-01) (11, -7.30601978302001953125e+00) (12, 2.17919373512268066406e+00) (13, 2.30394825339317321777e-01) (14, 1.50000000000000000000e+03) (15, -1.57932925224304199219e+00) (16, 1.50000000000000000000e+03) (17, -1.03852701187133789062e+00) (18, -3.19090008735656738281e-01) (19, -5.20039916038513183594e-01) (20, 1.96681499481201171875e+00) (21, -1.34169697761535644531e+00) (22, 1.50000000000000000000e+03) (23, 1.50000000000000000000e+03) (24, 2.16459197998046875000e+01) (25, 1.25764816284179687500e+02) (26, -3.11696681976318359375e+01) (27, 7.26605300903320312500e+01) (28, 2.04086990356445312500e+01) (29, -3.12089080810546875000e+01) (30, 1.25715927124023437500e+02) (31, 1.08886885643005371094e+00) (32, 1.50000000000000000000e+03) (33, -4.85333299636840820312e+00) (34, 1.50000000000000000000e+03) (35, -2.11583256721496582031e+00) (36, 6.68182075023651123047e-01) (37, 1.50000000000000000000e+03) (38, 6.54548883438110351562e-01) (39, -1.01445217132568359375e+01) (40, 3.98514366149902343750e+01) (41, 1.99022459983825683594e+00) (42, 2.57537097930908203125e+01) (43, 6.90253302454948425293e-02) (44, 2.33619913458824157715e-01) (45, 2.81612167358398437500e+01) (46, 1.50000000000000000000e+03) (47, 4.24639135599136352539e-01) (48, 5.28766393661499023438e-01) (49, 1.50000000000000000000e+03) (50, 2.87659049034118652344e-01) (51, 1.20319342613220214844e+00) (52, -4.04995560646057128906e-01) (53, 7.73853969573974609375e+00) (54, -3.09770643711090087891e-01) (55, 9.16482031345367431641e-01) (56, 1.50000000000000000000e+03) (57, 7.08473563194274902344e-01) (58, 1.50000000000000000000e+03) (59, 1.50000000000000000000e+03) (60, 9.23306345939636230469e-01) (61, 1.76555860042572021484e+00) (62, -2.15106048583984375000e+01) (63, 3.89383703470230102539e-01) (64, 1.21137332916259765625e+00) (65, -1.66669595241546630859e+00) (66, -9.80022048950195312500e+00) (67, 1.59240722656250000000e-01) (68, 7.34856128692626953125e-02) (69, -2.66123065948486328125e+01) (70, 7.26883926391601562500e+01) (71, 1.50000000000000000000e+03) (72, 1.50000000000000000000e+03) (73, -9.71599578857421875000e+00) (74, 1.50000000000000000000e+03) (75, -1.34103983640670776367e-01) (76, 7.21165847778320312500e+01) (77, 5.99701225757598876953e-01) (78, -2.65872688293457031250e+01) (79, 7.26365356445312500000e+01) (80, 1.50000000000000000000e+03) (81, 1.50000000000000000000e+03) (82, 1.63836145401000976562e+00) (83, 1.50000000000000000000e+03) (84, -8.97685647010803222656e-01) (85, 6.93944702148437500000e+01) (86, -4.86025905609130859375e+00) (87, 1.50000000000000000000e+03) (88, 1.50000000000000000000e+03) (89, 1.50000000000000000000e+03) (90, -4.93648099899291992188e+00) (91, 7.22653732299804687500e+01) (92, 7.27661819458007812500e+01) (93, -1.93457472324371337891e+00) (94, 2.96711635589599609375e+01) (95, 1.50000000000000000000e+03) (96, 2.95572251081466674805e-01) (97, 1.50000000000000000000e+03) (98, -2.73802528381347656250e+01) (99, 7.27366027832031250000e+01) (100, 1.28678607940673828125e+00) (101, 1.50000000000000000000e+03) (102, 1.50000000000000000000e+03) (103, 1.98446905612945556641e+00) (104, 1.85925769805908203125e+00) (105, 1.50000000000000000000e+03) (106, -7.15610361099243164062e+00) (107, -5.78381164550781250000e+02) (108, 1.50000000000000000000e+03) (109, 1.50000000000000000000e+03) (110, -1.34648246765136718750e+01) (111, 1.50000000000000000000e+03) (112, 1.50000000000000000000e+03) (113, -6.66554510593414306641e-01) (114, 1.50000000000000000000e+03) (115, 5.57310938835144042969e-01) (116, -1.22568976879119873047e+00) (117, 2.56833314895629882812e+00) (118, -8.77127572894096374512e-02) (119, 5.46462297439575195312e-01) (120, 4.55622497558593750000e+02) (121, -2.71600742340087890625e+01) (122, 4.28856164216995239258e-01) (123, 1.50000000000000000000e+03) (124, -2.68359642028808593750e+01) (125, -4.89808082580566406250e+00) (0, -3.69633793830871582031e-01) (1, 1.50000000000000000000e+03) (2, -9.40381959080696105957e-02) (3, -2.58356481790542602539e-01) (4, 1.50650486350059509277e-01) (5, 2.80600738525390625000e+01) (6, -2.05888569355010986328e-01) (7, 1.50000000000000000000e+03) (8, 5.37349224090576171875e-01) (9, 1.93750083446502685547e+00) (10, -6.92481696605682373047e-01) (11, 2.00123739242553710938e+00) (12, -1.15836548805236816406e+00) (13, -1.53989270329475402832e-01) (14, 7.30092926025390625000e+01) (15, 5.52050209045410156250e+00) (16, 7.29774551391601562500e+01) (17, -1.47888064384460449219e-01) (18, 3.19497513771057128906e+00) (19, 6.02159619331359863281e-01) (20, 3.96382987499237060547e-01) (21, 1.06033754348754882812e+00) (22, -7.55882263183593750000e+01) (23, -7.56620635986328125000e+01) (24, 1.50000000000000000000e+03) (25, 1.50000000000000000000e+03) (26, 1.50000000000000000000e+03) (27, 1.50000000000000000000e+03) (28, -4.28010511398315429688e+00) (29, 1.50000000000000000000e+03) (30, 1.50000000000000000000e+03) (31, -3.17566543817520141602e-01) (32, 1.50000000000000000000e+03) (33, 8.36881920695304870605e-02) (34, 1.50000000000000000000e+03) (35, 5.37121593952178955078e-01) (36, -3.38453710079193115234e-01) (37, 1.50000000000000000000e+03) (38, -1.45746439695358276367e-01) (39, 1.76015985012054443359e+00) (40, 3.05827903747558593750e+01) (41, -1.08258676528930664062e+01) (42, 1.50000000000000000000e+03) (43, 5.51712214946746826172e-01) (44, -1.27860501408576965332e-01) (45, 1.50000000000000000000e+03) (46, 2.66089878082275390625e+01) (47, -1.35220855474472045898e-01) (48, -8.98167896270751953125e+00) (49, 2.26097290039062500000e+02) (50, 2.41087656468152999878e-02) (51, 3.06288362480700016022e-03) (52, 6.09937012195587158203e-01) (53, -6.47724151611328125000e+00) (54, 6.56135603785514831543e-02) (55, -4.86541807651519775391e-01) (56, 1.50000000000000000000e+03) (57, -4.87545108795166015625e+00) (58, 1.50000000000000000000e+03) (59, 1.26820495605468750000e+02) (60, -6.16767406463623046875e+00) (61, 1.69279590249061584473e-01) (62, 8.55199050903320312500e+00) (63, -2.44605541229248046875e-01) (64, -2.00839347839355468750e+01) (65, 5.40529191493988037109e-01) (66, 4.85134267807006835938e+00) (67, -1.27406194806098937988e-01) (68, 1.77212607860565185547e+00) (69, 1.50000000000000000000e+03) (70, 1.50000000000000000000e+03) (71, 7.26079406738281250000e+01) (72, 2.65762348175048828125e+01) (73, 1.00377464294433593750e+00) (74, 2.26038330078125000000e+02) (75, -2.46169082820415496826e-02) (76, 1.50000000000000000000e+03) (77, -3.37710428237915039062e+00) (78, 1.50000000000000000000e+03) (79, 1.50000000000000000000e+03) (80, 7.24736022949218750000e+01) (81, 2.66323051452636718750e+01) (82, 1.71651065349578857422e-01) (83, 2.27564056396484375000e+02) (84, -1.65316723287105560303e-02) (85, 1.50000000000000000000e+03) (86, -1.01223640143871307373e-01) (87, 1.50000000000000000000e+03) (88, 2.66025867462158203125e+01) (89, 2.66940898895263671875e+01) (90, -6.92161964252591133118e-03) (91, 1.50000000000000000000e+03) (92, 1.50000000000000000000e+03) (93, -1.14399753510951995850e-01) (94, -1.02174542236328125000e+03) (95, 1.50000000000000000000e+03) (96, -5.53426861763000488281e-01) (97, -1.31119354248046875000e+02) (98, 1.50000000000000000000e+03) (99, 1.50000000000000000000e+03) (100, -7.22918748855590820312e-01) (101, 1.50000000000000000000e+03) (102, 1.50000000000000000000e+03) (103, -5.22306480407714843750e+01) (104, -5.21345329284667968750e+01) (105, 2.66567192077636718750e+01) (106, 1.77711135864257812500e+02) (107, 1.50000000000000000000e+03) (108, 2.66741847991943359375e+01) (109, 1.27814826965332031250e+02) (110, 3.95926952362060546875e-01) (111, 2.66845645904541015625e+01) (112, 8.02469482421875000000e+01) (113, 1.46589612960815429688e+00) (114, 1.73603607177734375000e+02) (115, -1.62054762244224548340e-01) (116, 2.01699212193489074707e-01) (117, -1.25458443164825439453e+00) (118, -2.92104661464691162109e-01) (119, -3.76884303987026214600e-02) (120, 3.11954212188720703125e+00) (121, 6.46305024623870849609e-01) (122, -1.47927391529083251953e+00) (123, 2.24309509277343750000e+02) (124, 2.54280984401702880859e-01) (125, -6.54300861060619354248e-03) (0, -8.50352272391319274902e-02) (1, 1.08776879882812500000e+03) (2, -1.32305696606636047363e-01) (3, 2.54365298897027969360e-02) (4, -7.59528017044067382812e+00) (5, 1.50000000000000000000e+03) (6, -1.71600237488746643066e-01) (7, 1.08665576171875000000e+03) (8, -1.32367283105850219727e-01) (9, 7.67722785472869873047e-01) (10, -2.20261350274085998535e-01) (11, 1.43234882354736328125e+01) (12, 6.51918172836303710938e-01) (13, -1.31987079977989196777e-01) (14, 1.50000000000000000000e+03) (15, 8.25236916542053222656e-01) (16, 1.50000000000000000000e+03) (17, -5.14787006378173828125e+00) (18, 2.89483010768890380859e-01) (19, 8.70000422000885009766e-02) (20, 3.56412200927734375000e+01) (21, -1.21972370147705078125e+01) (22, 1.45000000000000000000e+03) (23, 1.45000000000000000000e+03) (24, 1.50000000000000000000e+03) (25, 5.26584838867187500000e+02) (26, 5.70990753173828125000e+00) (27, 2.74932342529296875000e+02) (28, 1.44252523779869079590e-01) (29, 1.45000000000000000000e+03) (30, 6.26610839843750000000e+02) (31, 6.38106912374496459961e-02) (32, 1.50000000000000000000e+03) (33, -2.07160308957099914551e-01) (34, 1.50000000000000000000e+03) (35, 5.63479550182819366455e-02) (36, 1.17025518417358398438e+01) (37, 1.50000000000000000000e+03) (38, -1.31537750363349914551e-01) (39, 3.15122634172439575195e-01) (40, 3.95381408691406250000e+02) (41, 7.96875178813934326172e-01) (42, 4.26720275878906250000e+02) (43, 1.10927438735961914062e+00) (44, 1.02050280570983886719e+00) (45, 9.30708190917968750000e+02) (46, 1.50000000000000000000e+03) (47, 8.12597811222076416016e-01) (48, 3.86835396289825439453e-01) (49, 1.45000000000000000000e+03) (50, 1.84826090931892395020e-01) (51, 6.18362128734588623047e-01) (52, 2.09746256470680236816e-01) (53, 1.44692850112915039062e+00) (54, -1.02764344215393066406e+00) (55, -3.85705307126045227051e-02) (56, 1.50000000000000000000e+03) (57, 3.62322921752929687500e+01) (58, 1.50000000000000000000e+03) (59, 1.45000000000000000000e+03) (60, 6.32595024108886718750e+01) (61, 9.52269554138183593750e-01) (62, -5.19144582748413085938e+00) (63, -1.18995815515518188477e-01) (64, 8.04359436035156250000e+02) (65, -1.41050136089324951172e+00) (66, -7.47331678867340087891e-01) (67, -4.01432765647768974304e-03) (68, 7.77123644948005676270e-02) (69, -2.50759849548339843750e+01) (70, 2.74911712646484375000e+02) (71, 1.50000000000000000000e+03) (72, 1.50000000000000000000e+03) (73, 6.13627314567565917969e-01) (74, 1.45000000000000000000e+03) (75, 2.63777554035186767578e-01) (76, 2.74719360351562500000e+02) (77, 1.48380684852600097656e+00) (78, -2.50423851013183593750e+01) (79, 2.74872558593750000000e+02) (80, 1.50000000000000000000e+03) (81, 1.50000000000000000000e+03) (82, 9.67597484588623046875e-01) (83, 1.45000000000000000000e+03) (84, 2.60661482810974121094e-01) (85, 2.73974792480468750000e+02) (86, -9.71371755003929138184e-02) (87, 1.50000000000000000000e+03) (88, 1.50000000000000000000e+03) (89, 1.50000000000000000000e+03) (90, -6.45574703812599182129e-02) (91, 2.74775085449218750000e+02) (92, 2.74869323730468750000e+02) (93, 2.76283085346221923828e-01) (94, -1.21670532226562500000e+01) (95, 1.50000000000000000000e+03) (96, 1.40761721134185791016e+00) (97, 1.50000000000000000000e+03) (98, 4.83931121826171875000e+01) (99, 2.74963226318359375000e+02) (100, 8.09631347656250000000e-01) (101, 1.50000000000000000000e+03) (102, 1.50000000000000000000e+03) (103, 1.36429168701171875000e+02) (104, 2.43573627471923828125e+01) (105, 1.50000000000000000000e+03) (106, 4.92672115564346313477e-01) (107, 8.69532409667968750000e+02) (108, 1.50000000000000000000e+03) (109, 1.50000000000000000000e+03) (110, 9.07638520002365112305e-02) (111, 1.50000000000000000000e+03) (112, 1.50000000000000000000e+03) (113, -1.54823446273803710938e+00) (114, 1.50000000000000000000e+03) (115, 6.68705261230468750000e+02) (116, -3.67115759849548339844e+00) (117, 8.05917322635650634766e-01) (118, 4.92357194423675537109e-01) (119, 3.23451347649097442627e-02) (120, 1.30775048828125000000e+03) (121, 6.00657403469085693359e-01) (122, 5.83573389053344726562e+00) (123, 1.45000000000000000000e+03) (124, -1.17146503925323486328e+00) (125, -1.79678410291671752930e-01) (0, -3.43347024917602539062e+00) (1, 1.08911425781250000000e+03) (2, -5.25568351745605468750e+01) (3, -1.83695907592773437500e+01) (4, -7.62223243713378906250e+00) (5, 1.50000000000000000000e+03) (6, -3.38326543569564819336e-01) (7, 1.08662353515625000000e+03) (8, -1.74274826049804687500e+01) (9, -1.44351935386657714844e+00) (10, -1.12770032882690429688e+01) (11, 1.28123611450195312500e+02) (12, -1.02328419685363769531e+00) (13, -8.90538334846496582031e-01) (14, 1.31506250000000000000e+03) (15, -1.84375077486038208008e-01) (16, 1.31497009277343750000e+03) (17, -1.13301038742065429688e+01) (18, -1.25829190015792846680e-01) (19, -1.98906087875366210938e+00) (20, -1.71877279877662658691e-01) (21, -5.35520324707031250000e+02) (22, 9.48236083984375000000e+02) (23, 9.72719238281250000000e+02) (24, 1.50000000000000000000e+03) (25, 1.50000000000000000000e+03) (26, 1.45000000000000000000e+03) (27, 1.50000000000000000000e+03) (28, -7.91215562820434570312e+00) (29, 1.50000000000000000000e+03) (30, 1.50000000000000000000e+03) (31, -2.25590586662292480469e+00) (32, 1.50000000000000000000e+03) (33, -6.49615325927734375000e+01) (34, 1.50000000000000000000e+03) (35, -4.65644439697265625000e+02) (36, -3.97186666727066040039e-01) (37, 1.50000000000000000000e+03) (38, -6.11431455612182617188e+00) (39, -4.31603252887725830078e-01) (40, 2.63225067138671875000e+02) (41, -2.62398767471313476562e+00) (42, 1.50000000000000000000e+03) (43, -3.20336043834686279297e-01) (44, -3.85302871465682983398e-01) (45, 1.10991784667968750000e+03) (46, 8.52864562988281250000e+02) (47, 7.13125057518482208252e-03) (48, -1.68394145965576171875e+01) (49, 7.52835693359375000000e+02) (50, -8.02113950252532958984e-01) (51, -6.79230570793151855469e-01) (52, -3.06139404296875000000e+02) (53, 2.88502120971679687500e+00) (54, -3.84670867919921875000e+02) (55, 6.20593607425689697266e-01) (56, 1.50000000000000000000e+03) (57, 3.07253692626953125000e+02) (58, 1.50000000000000000000e+03) (59, 1.45000000000000000000e+03) (60, 6.82035923004150390625e-01) (61, 8.70441627502441406250e+00) (62, -6.04864540100097656250e+01) (63, 1.46152392029762268066e-01) (64, 2.59564423561096191406e+00) (65, 1.33014249801635742188e+00) (66, -1.34585021972656250000e+02) (67, -2.87990689277648925781e-01) (68, -2.47874331474304199219e+00) (69, 8.77931030273437500000e+02) (70, 1.50000000000000000000e+03) (71, 1.28978564453125000000e+03) (72, 8.52927124023437500000e+02) (73, -3.28698921203613281250e+01) (74, 7.52900146484375000000e+02) (75, -3.18250417709350585938e-01) (76, 1.50000000000000000000e+03) (77, -1.16862201690673828125e+00) (78, 8.77997070312500000000e+02) (79, 1.50000000000000000000e+03) (80, 1.28961621093750000000e+03) (81, 8.52940551757812500000e+02) (82, -1.66547908782958984375e+01) (83, 7.53485107421875000000e+02) (84, -9.70099329948425292969e-01) (85, 1.50000000000000000000e+03) (86, -4.50465362548828125000e+02) (87, 1.50000000000000000000e+03) (88, 8.52881774902343750000e+02) (89, 8.52838562011718750000e+02) (90, -1.49006484985351562500e+02) (91, 1.50000000000000000000e+03) (92, 1.50000000000000000000e+03) (93, -8.86196708679199218750e+00) (94, -2.47191963195800781250e+01) (95, 1.50000000000000000000e+03) (96, -8.22923812866210937500e+01) (97, 1.50000000000000000000e+03) (98, 1.17780822753906250000e+03) (99, 1.50000000000000000000e+03) (100, -1.71968924999237060547e+00) (101, 1.50000000000000000000e+03) (102, 1.50000000000000000000e+03) (103, -1.47659664154052734375e+01) (104, -1.43079299926757812500e+01) (105, 8.52812255859375000000e+02) (106, -9.22033767700195312500e+01) (107, 1.50000000000000000000e+03) (108, 8.52801879882812500000e+02) (109, 1.50000000000000000000e+03) (110, -1.25149154663085937500e+01) (111, 8.52829956054687500000e+02) (112, 1.50000000000000000000e+03) (113, -1.48069405555725097656e+00) (114, 1.35269409179687500000e+03) (115, 2.89502410888671875000e+01) (116, -8.32061614990234375000e+01) (117, -1.22354042530059814453e+00) (118, -1.13460969924926757812e+01) (119, -3.34054336547851562500e+01) (120, -3.30717132568359375000e+02) (121, -3.91522491455078125000e+02) (122, 1.58953056335449218750e+01) (123, 6.48421997070312500000e+02) (124, -6.34030342102050781250e+00) (125, -4.50520233154296875000e+02) (0, 3.76914024353027343750e+00) (1, 2.64408264160156250000e+01) (2, 2.02570423483848571777e-01) (3, 2.73710101842880249023e-01) (4, 5.95835410058498382568e-02) (5, 1.50000000000000000000e+03) (6, 3.99167329072952270508e-01) (7, 2.16416931152343750000e+01) (8, -1.13729333877563476562e+00) (9, -2.82016366720199584961e-01) (10, 3.68776530027389526367e-01) (11, -2.29953002929687500000e+00) (12, 1.47542548179626464844e+00) (13, 3.98739784955978393555e-01) (14, 1.50000000000000000000e+03) (15, -1.68619680404663085938e+00) (16, 1.50000000000000000000e+03) (17, -5.60976088047027587891e-01) (18, 4.40119504928588867188e+00) (19, -6.93855822086334228516e-01) (20, 1.62796966552734375000e+02) (21, -1.18091666698455810547e+00) (22, 1.50000000000000000000e+03) (23, 1.50000000000000000000e+03) (24, 2.16623687744140625000e+01) (25, 1.25716751098632812500e+02) (26, -3.10578899383544921875e+01) (27, 7.27247543334960937500e+01) (28, 2.35029888153076171875e+01) (29, -3.10127716064453125000e+01) (30, 1.25792076110839843750e+02) (31, 9.87781047821044921875e-01) (32, 1.50000000000000000000e+03) (33, 8.76995399594306945801e-02) (34, 1.50000000000000000000e+03) (35, -3.68708431720733642578e-01) (36, 2.57802248001098632812e+00) (37, 1.50000000000000000000e+03) (38, 3.75355303287506103516e-01) (39, -2.25804090499877929688e+00) (40, 9.39024887084960937500e+01) (41, 4.50362110137939453125e+00) (42, 2.56489257812500000000e+01) (43, -5.49439527094364166260e-02) (44, 2.48291745781898498535e-01) (45, 2.82754974365234375000e+01) (46, 1.50000000000000000000e+03) (47, 4.59444135427474975586e-01) (48, 1.36065220832824707031e+00) (49, 1.50000000000000000000e+03) (50, 1.26587182283401489258e-01) (51, 5.31227290630340576172e-01) (52, -6.09376244246959686279e-02) (53, 3.64668107032775878906e+00) (54, -1.77225574851036071777e-01) (55, 5.21252751350402832031e-01) (56, 1.50000000000000000000e+03) (57, 4.15891456604003906250e+00) (58, 1.50000000000000000000e+03) (59, 1.50000000000000000000e+03) (60, 4.02554988861083984375e+00) (61, 1.71505391597747802734e+00) (62, -1.41670885086059570312e+01) (63, 4.57447052001953125000e-01) (64, 4.09565591812133789062e+00) (65, -7.42523550987243652344e-01) (66, -2.23135042190551757812e+00) (67, 4.53077405691146850586e-01) (68, -2.66652535647153854370e-02) (69, -2.66341819763183593750e+01) (70, 7.26886291503906250000e+01) (71, 1.50000000000000000000e+03) (72, 1.50000000000000000000e+03) (73, 2.49842000007629394531e+00) (74, 1.50000000000000000000e+03) (75, 3.29770058393478393555e-01) (76, 7.21263122558593750000e+01) (77, -5.11575400829315185547e-01) (78, -2.65601577758789062500e+01) (79, 7.27701492309570312500e+01) (80, 1.50000000000000000000e+03) (81, 1.50000000000000000000e+03) (82, 1.51916801929473876953e+00) (83, 1.50000000000000000000e+03) (84, 2.72109061479568481445e-01) (85, 6.95544815063476562500e+01) (86, 2.93864190578460693359e-01) (87, 1.50000000000000000000e+03) (88, 1.50000000000000000000e+03) (89, 1.50000000000000000000e+03) (90, 7.22807720303535461426e-02) (91, 7.21351547241210937500e+01) (92, 7.26244888305664062500e+01) (93, 2.61461853981018066406e-01) (94, 4.03450683593750000000e+02) (95, 1.50000000000000000000e+03) (96, -9.81556832790374755859e-01) (97, 1.50000000000000000000e+03) (98, -2.72826290130615234375e+01) (99, 7.27485198974609375000e+01) (100, 1.20295727252960205078e+00) (101, 1.50000000000000000000e+03) (102, 1.50000000000000000000e+03) (103, 7.01467323303222656250e+00) (104, 3.12629914283752441406e+00) (105, 1.50000000000000000000e+03) (106, -7.26402187347412109375e+00) (107, -5.78378112792968750000e+02) (108, 1.50000000000000000000e+03) (109, 1.50000000000000000000e+03) (110, -1.63551902770996093750e+01) (111, 1.50000000000000000000e+03) (112, 1.50000000000000000000e+03) (113, -6.14926040172576904297e-01) (114, 1.50000000000000000000e+03) (115, 4.42855656147003173828e-01) (116, -6.85938537120819091797e-01) (117, 1.20666861534118652344e+00) (118, 8.66861715912818908691e-02) (119, 7.57890045642852783203e-01) (120, 4.55335388183593750000e+02) (121, -4.82639837265014648438e+00) (122, 6.15148246288299560547e-01) (123, 1.50000000000000000000e+03) (124, -5.48830842971801757812e+00) (125, 3.44573438167572021484e-01) (0, 1.22721505165100097656e+00) (1, 2.67673110961914062500e+01) (2, -2.25232315063476562500e+00) (3, -2.41707515716552734375e+00) (4, -3.32222604751586914062e+00) (5, 1.50000000000000000000e+03) (6, 5.04687368869781494141e-01) (7, 2.58718032836914062500e+01) (8, -4.52260303497314453125e+00) (9, -2.74566859006881713867e-01) (10, -1.11500859260559082031e+00) (11, -6.64080798625946044922e-01) (12, -3.28104883432388305664e-01) (13, 5.63492894172668457031e-01) (14, 1.50000000000000000000e+03) (15, -1.64568066596984863281e+00) (16, 1.50000000000000000000e+03) (17, -3.19538569450378417969e+00) (18, 8.33955332636833190918e-02) (19, -6.82597160339355468750e-01) (20, 2.66740322113037109375e-01) (21, -5.84345579147338867188e+00) (22, 1.50000000000000000000e+03) (23, 1.50000000000000000000e+03) (24, -1.68513336181640625000e+01) (25, 1.26430534362792968750e+02) (26, -2.47831573486328125000e+01) (27, 7.46159210205078125000e+01) (28, 8.36394488811492919922e-01) (29, -6.52147750854492187500e+01) (30, 1.26372634887695312500e+02) (31, 2.44118669070303440094e-03) (32, 1.50000000000000000000e+03) (33, -1.42931375503540039062e+01) (34, 1.50000000000000000000e+03) (35, -3.46682286262512207031e+00) (36, 9.61471319198608398438e-01) (37, 1.50000000000000000000e+03) (38, 3.20597946643829345703e-01) (39, -8.21530342102050781250e-01) (40, 2.78098239898681640625e+01) (41, 2.45968699455261230469e+00) (42, 2.65308246612548828125e+01) (43, -1.45941823720932006836e-01) (44, -2.01749652624130249023e-01) (45, 1.01594467163085937500e+01) (46, 1.50000000000000000000e+03) (47, 3.55937838554382324219e-01) (48, 3.33916872739791870117e-01) (49, 1.50000000000000000000e+03) (50, -1.24818634986877441406e+00) (51, -9.54592823982238769531e-02) (52, -5.65351068973541259766e-01) (53, 6.16957998275756835938e+00) (54, -7.32242727279663085938e+00) (55, -2.24562004208564758301e-01) (56, 1.50000000000000000000e+03) (57, 4.10518026351928710938e+00) (58, 1.50000000000000000000e+03) (59, 1.50000000000000000000e+03) (60, 1.22950434684753417969e+00) (61, 1.36586499214172363281e+00) (62, -8.06231212615966796875e+00) (63, 2.14710339903831481934e-01) (64, 4.51394386291503906250e+01) (65, 1.04712769389152526855e-01) (66, -3.48250699043273925781e+00) (67, 3.50205808877944946289e-01) (68, -1.45102655887603759766e+00) (69, -2.28019447326660156250e+01) (70, 7.46009368896484375000e+01) (71, 1.50000000000000000000e+03) (72, 1.50000000000000000000e+03) (73, -4.45645666122436523438e+00) (74, 1.50000000000000000000e+03) (75, -1.02612804621458053589e-02) (76, 7.53078384399414062500e+01) (77, -5.44886767864227294922e-01) (78, -2.27347888946533203125e+01) (79, 7.45791625976562500000e+01) (80, 1.50000000000000000000e+03) (81, 1.50000000000000000000e+03) (82, -7.83291292190551757812e+00) (83, 1.50000000000000000000e+03) (84, 2.52400547266006469727e-01) (85, 7.52460479736328125000e+01) (86, -7.24554347991943359375e+00) (87, 1.50000000000000000000e+03) (88, 1.50000000000000000000e+03) (89, 1.50000000000000000000e+03) (90, -1.41647167205810546875e+01) (91, 7.54121170043945312500e+01) (92, 7.45802001953125000000e+01) (93, -1.88734388351440429688e+00) (94, 5.36564826965332031250e+00) (95, 1.50000000000000000000e+03) (96, 1.00478176027536392212e-02) (97, 1.50000000000000000000e+03) (98, -2.53275146484375000000e+01) (99, 7.47366943359375000000e+01) (100, 1.02530515193939208984e+00) (101, 1.50000000000000000000e+03) (102, 1.50000000000000000000e+03) (103, 1.27564764022827148438e+00) (104, 2.32164573669433593750e+00) (105, 1.50000000000000000000e+03) (106, -6.60201120376586914062e+00) (107, -5.74027832031250000000e+02) (108, 1.50000000000000000000e+03) (109, 1.50000000000000000000e+03) (110, -2.31681930541992187500e+02) (111, 1.50000000000000000000e+03) (112, 1.50000000000000000000e+03) (113, -1.50288105010986328125e-01) (114, 1.50000000000000000000e+03) (115, 1.08960092067718505859e+00) (116, -9.24784946441650390625e+00) (117, -2.40527018904685974121e-01) (118, -1.84647873044013977051e-01) (119, -6.65298044681549072266e-01) (120, 1.73623626708984375000e+02) (121, -2.25228118896484375000e+00) (122, 1.58764235675334930420e-02) (123, 1.50000000000000000000e+03) (124, -3.89690732955932617188e+00) (125, -7.26963758468627929688e+00) (0, 8.63622546195983886719e-01) (1, 2.80558624267578125000e+01) (2, -1.29576492309570312500e+00) (3, -4.72250175476074218750e+00) (4, -1.49316227436065673828e+00) (5, 1.50000000000000000000e+03) (6, 6.08913786709308624268e-02) (7, 2.72365875244140625000e+01) (8, -1.53336155414581298828e+00) (9, -2.36942100524902343750e+00) (10, -1.49115645885467529297e+00) (11, -3.98559665679931640625e+00) (12, -1.08793151378631591797e+00) (13, -8.34170356392860412598e-02) (14, 1.50000000000000000000e+03) (15, -2.77348995208740234375e+00) (16, 1.50000000000000000000e+03) (17, -1.57589340209960937500e+01) (18, -6.93898737430572509766e-01) (19, -5.34107446670532226562e-01) (20, 4.04223108291625976562e+00) (21, -3.70600485801696777344e+00) (22, 1.50000000000000000000e+03) (23, 1.50000000000000000000e+03) (24, -1.68668975830078125000e+01) (25, 1.26491645812988281250e+02) (26, -2.48142929077148437500e+01) (27, 7.47220458984375000000e+01) (28, 1.96364879608154296875e+01) (29, -6.53420715332031250000e+01) (30, 1.26529823303222656250e+02) (31, -4.36235666275024414062e-01) (32, 1.50000000000000000000e+03) (33, -2.12737751007080078125e+00) (34, 1.50000000000000000000e+03) (35, -7.95455741882324218750e+00) (36, 9.64258422851562500000e+01) (37, 1.50000000000000000000e+03) (38, -1.02955973148345947266e+00) (39, -6.01977157592773437500e+00) (40, 6.29636704921722412109e-01) (41, 1.23127508163452148438e+00) (42, 2.63816471099853515625e+01) (43, -3.80036115646362304688e-01) (44, -1.61438748240470886230e-01) (45, 1.02288742065429687500e+01) (46, 1.50000000000000000000e+03) (47, 6.71917647123336791992e-02) (48, -1.86322838068008422852e-01) (49, 1.50000000000000000000e+03) (50, -3.39015394449234008789e-01) (51, -3.03967148065567016602e-01) (52, -6.69330060482025146484e-01) (53, 1.39811658859252929688e+01) (54, -2.49447536468505859375e+00) (55, -4.20013397932052612305e-01) (56, 1.50000000000000000000e+03) (57, 4.03369665145874023438e+00) (58, 1.50000000000000000000e+03) (59, 1.50000000000000000000e+03) (60, 2.55576372146606445312e+00) (61, -8.10349404811859130859e-01) (62, -1.27120695114135742188e+01) (63, 4.09939736127853393555e-02) (64, 1.95369720458984375000e+01) (65, -3.87923717498779296875e-02) (66, -5.37114791870117187500e+01) (67, -2.49923318624496459961e-02) (68, -1.34533572196960449219e+00) (69, -2.26434650421142578125e+01) (70, 7.47522430419921875000e+01) (71, 1.50000000000000000000e+03) (72, 1.50000000000000000000e+03) (73, 2.41186923980712890625e+01) (74, 1.50000000000000000000e+03) (75, -1.54706925153732299805e-01) (76, 7.53793945312500000000e+01) (77, 5.59132136404514312744e-02) (78, -2.27516899108886718750e+01) (79, 7.46220932006835937500e+01) (80, 1.50000000000000000000e+03) (81, 1.50000000000000000000e+03) (82, 1.44050579071044921875e+01) (83, 1.50000000000000000000e+03) (84, -4.77807343006134033203e-01) (85, 7.51454010009765625000e+01) (86, -1.44810950756072998047e+00) (87, 1.50000000000000000000e+03) (88, 1.50000000000000000000e+03) (89, 1.50000000000000000000e+03) (90, -1.97757518291473388672e+00) (91, 7.52976913452148437500e+01) (92, 7.46451950073242187500e+01) (93, -1.84356522560119628906e+00) (94, 4.50820236206054687500e+01) (95, 1.50000000000000000000e+03) (96, -1.77588355541229248047e+00) (97, 1.50000000000000000000e+03) (98, -2.53853492736816406250e+01) (99, 7.46416473388671875000e+01) (100, 1.42439150810241699219e+00) (101, 1.50000000000000000000e+03) (102, 1.50000000000000000000e+03) (103, 4.96000230312347412109e-01) (104, 1.98381626605987548828e+00) (105, 1.50000000000000000000e+03) (106, -3.90195655822753906250e+01) (107, -5.74060668945312500000e+02) (108, 1.50000000000000000000e+03) (109, 1.50000000000000000000e+03) (110, -3.18513092041015625000e+02) (111, 1.50000000000000000000e+03) (112, 1.50000000000000000000e+03) (113, -1.23399384319782257080e-01) (114, 1.50000000000000000000e+03) (115, 7.27057039737701416016e-01) (116, -8.02638530731201171875e+00) (117, -9.52705204486846923828e-01) (118, -6.39056265354156494141e-02) (119, -4.95605325698852539062e+00) (120, 5.69596496582031250000e+02) (121, -3.42222857475280761719e+00) (122, 8.18814560770988464355e-02) (123, 1.50000000000000000000e+03) (124, -1.79027366638183593750e+00) (125, -1.50459742546081542969e+00) (0, 6.41043090820312500000e+00) (1, 2.65550689697265625000e+01) (2, -2.23609000444412231445e-01) (3, -3.52441310882568359375e+00) (4, -7.57463097572326660156e-01) (5, 1.50000000000000000000e+03) (6, 5.08980393409729003906e-01) (7, 2.16393127441406250000e+01) (8, -8.37927532196044921875e+00) (9, -1.35651659965515136719e+00) (10, 2.62876659631729125977e-01) (11, -4.34362640380859375000e+01) (12, 1.50297904014587402344e+00) (13, 2.69105583429336547852e-01) (14, 1.50000000000000000000e+03) (15, -1.94859778881072998047e+00) (16, 1.50000000000000000000e+03) (17, -1.01776003837585449219e+00) (18, -4.56847399473190307617e-01) (19, -6.77358984947204589844e-01) (20, 4.34913873672485351562e+00) (21, -2.44559288024902343750e+00) (22, 1.50000000000000000000e+03) (23, 1.50000000000000000000e+03) (24, 2.17030181884765625000e+01) (25, 1.25691230773925781250e+02) (26, -3.11744098663330078125e+01) (27, 7.26412963867187500000e+01) (28, 4.47154235839843750000e+01) (29, -3.11322937011718750000e+01) (30, 1.25723327636718750000e+02) (31, 1.11548101902008056641e+00) (32, 1.50000000000000000000e+03) (33, -1.29261660575866699219e+00) (34, 1.50000000000000000000e+03) (35, -4.07344961166381835938e+00) (36, 3.01525044441223144531e+00) (37, 1.50000000000000000000e+03) (38, 1.73312753438949584961e-01) (39, -1.00915918350219726562e+01) (40, 2.25066329956054687500e+02) (41, 7.95422124862670898438e+00) (42, 2.56772289276123046875e+01) (43, -8.06758366525173187256e-03) (44, 2.73638784885406494141e-01) (45, 2.82322769165039062500e+01) (46, 1.50000000000000000000e+03) (47, 3.29747825860977172852e-01) (48, 2.59392428398132324219e+00) (49, 1.50000000000000000000e+03) (50, 6.63258850574493408203e-01) (51, 1.17537617683410644531e+00) (52, -2.95375853776931762695e-01) (53, 2.34278535842895507812e+00) (54, 1.79363593459129333496e-01) (55, 8.45832049846649169922e-01) (56, 1.50000000000000000000e+03) (57, 2.88202342987060546875e+01) (58, 1.50000000000000000000e+03) (59, 1.50000000000000000000e+03) (60, 1.02036881446838378906e+00) (61, 1.53773176670074462891e+00) (62, -2.14967994689941406250e+01) (63, 2.49673664569854736328e-01) (64, 2.23021030426025390625e+00) (65, -8.30463409423828125000e-01) (66, -8.88245582580566406250e+00) (67, 4.10622835159301757812e-01) (68, 2.58802045136690139771e-02) (69, -2.66742229461669921875e+01) (70, 7.26321716308593750000e+01) (71, 1.50000000000000000000e+03) (72, 1.50000000000000000000e+03) (73, 7.32430756092071533203e-01) (74, 1.50000000000000000000e+03) (75, 1.08685389161109924316e-01) (76, 7.22549438476562500000e+01) (77, -6.43056869506835937500e-01) (78, -2.65132369995117187500e+01) (79, 7.26617355346679687500e+01) (80, 1.50000000000000000000e+03) (81, 1.50000000000000000000e+03) (82, 7.78347730636596679688e+00) (83, 1.50000000000000000000e+03) (84, -5.42365789413452148438e-01) (85, 6.95626373291015625000e+01) (86, -1.29858791828155517578e-01) (87, 1.50000000000000000000e+03) (88, 1.50000000000000000000e+03) (89, 1.50000000000000000000e+03) (90, -1.36251986026763916016e+00) (91, 7.22422332763671875000e+01) (92, 7.26112365722656250000e+01) (93, -1.66005098819732666016e+00) (94, 6.93735427856445312500e+01) (95, 1.50000000000000000000e+03) (96, -9.65892434120178222656e-01) (97, 1.50000000000000000000e+03) (98, -2.73237075805664062500e+01) (99, 7.26478881835937500000e+01) (100, 1.22168207168579101562e+00) (101, 1.50000000000000000000e+03) (102, 1.50000000000000000000e+03) (103, 1.29982547760009765625e+01) (104, 9.14486598968505859375e+00) (105, 1.50000000000000000000e+03) (106, -7.13221073150634765625e+00) (107, -5.78375183105468750000e+02) (108, 1.50000000000000000000e+03) (109, 1.50000000000000000000e+03) (110, -2.89905643463134765625e+01) (111, 1.50000000000000000000e+03) (112, 1.50000000000000000000e+03) (113, -6.37974500656127929688e-01) (114, 1.50000000000000000000e+03) (115, 9.66168344020843505859e-01) (116, -3.44242715835571289062e+00) (117, 1.01636254787445068359e+00) (118, -4.65191096067428588867e-01) (119, 5.75185894966125488281e-01) (120, 6.17573730468750000000e+02) (121, -2.85738239288330078125e+01) (122, 2.75531387329101562500e+00) (123, 1.50000000000000000000e+03) (124, -2.64749202728271484375e+01) (125, -1.63015291094779968262e-01) (0, -1.09110973775386810303e-01) (1, 1.08770874023437500000e+03) (2, -2.87763595581054687500e-01) (3, -1.78797036409378051758e-01) (4, -1.38769972324371337891e+00) (5, 1.50000000000000000000e+03) (6, -3.01484286785125732422e-01) (7, 1.08859692382812500000e+03) (8, -1.74875032901763916016e+00) (9, 4.66634929180145263672e-01) (10, 1.45249972119927406311e-02) (11, 2.51709699630737304688e+00) (12, 2.28480711579322814941e-01) (13, -5.70420205593109130859e-01) (14, 1.50000000000000000000e+03) (15, 2.44004935026168823242e-01) (16, 1.50000000000000000000e+03) (17, -1.23365557193756103516e+00) (18, 1.20080006122589111328e+00) (19, 9.54423844814300537109e-02) (20, 7.03657989501953125000e+01) (21, 1.53132140636444091797e-01) (22, 1.45000000000000000000e+03) (23, 1.45000000000000000000e+03) (24, 1.50000000000000000000e+03) (25, 8.26740356445312500000e+02) (26, 4.05936096191406250000e+02) (27, 4.74935882568359375000e+02) (28, 1.60560995340347290039e-01) (29, 1.50000000000000000000e+03) (30, 1.12659362792968750000e+03) (31, -9.36911031603813171387e-02) (32, 1.50000000000000000000e+03) (33, 1.53323626145720481873e-02) (34, 1.50000000000000000000e+03) (35, -4.78496521711349487305e-01) (36, 1.21222734451293945312e+00) (37, 1.50000000000000000000e+03) (38, -2.83865064382553100586e-01) (39, 3.07569298893213272095e-02) (40, 4.97751464843750000000e+01) (41, 2.41461783647537231445e-01) (42, 6.26753173828125000000e+02) (43, -1.46647679805755615234e+00) (44, 6.02077603340148925781e-01) (45, 1.03068518066406250000e+03) (46, 1.50000000000000000000e+03) (47, 2.88979679346084594727e-01) (48, 6.24919719994068145752e-02) (49, 1.45000000000000000000e+03) (50, 2.40637317299842834473e-01) (51, 2.13850036263465881348e-01) (52, 7.70784974098205566406e-01) (53, 3.93984031677246093750e+00) (54, -2.76300758123397827148e-01) (55, 3.27884312719106674194e-03) (56, 1.50000000000000000000e+03) (57, 1.95283477783203125000e+02) (58, 1.50000000000000000000e+03) (59, 1.45000000000000000000e+03) (60, 5.53920650482177734375e+00) (61, 2.92422533035278320312e-01) (62, -7.39844739437103271484e-01) (63, -1.25513121485710144043e-01) (64, 3.73133575439453125000e+02) (65, -1.34597432613372802734e+00) (66, 7.04228132963180541992e-02) (67, 9.84074249863624572754e-02) (68, -1.49602031707763671875e+00) (69, 3.48311523437500000000e+02) (70, 4.74797180175781250000e+02) (71, 1.50000000000000000000e+03) (72, 1.50000000000000000000e+03) (73, 1.71708071231842041016e+00) (74, 1.45000000000000000000e+03) (75, -7.16492161154747009277e-02) (76, 5.74614746093750000000e+02) (77, 3.30373257398605346680e-01) (78, 3.48328796386718750000e+02) (79, 4.74947998046875000000e+02) (80, 1.50000000000000000000e+03) (81, 1.50000000000000000000e+03) (82, 4.59444582462310791016e-01) (83, 1.45000000000000000000e+03) (84, -8.01809728145599365234e-02) (85, 5.73892150878906250000e+02) (86, 9.90189984440803527832e-02) (87, 1.50000000000000000000e+03) (88, 1.50000000000000000000e+03) (89, 1.50000000000000000000e+03) (90, 1.04122787714004516602e-01) (91, 5.74752197265625000000e+02) (92, 4.74959716796875000000e+02) (93, 1.38610154390335083008e-01) (94, -4.79352712631225585938e+00) (95, 1.50000000000000000000e+03) (96, 1.47608578205108642578e+00) (97, 1.50000000000000000000e+03) (98, 3.48394073486328125000e+02) (99, 4.74947753906250000000e+02) (100, 3.95319908857345581055e-01) (101, 1.50000000000000000000e+03) (102, 1.50000000000000000000e+03) (103, 3.30436301231384277344e+00) (104, 8.79212915897369384766e-01) (105, 1.50000000000000000000e+03) (106, -4.24787254333496093750e+01) (107, 1.50000000000000000000e+03) (108, 1.50000000000000000000e+03) (109, 1.50000000000000000000e+03) (110, 1.79211363196372985840e-01) (111, 1.50000000000000000000e+03) (112, 1.50000000000000000000e+03) (113, -2.01212334632873535156e+00) (114, 1.50000000000000000000e+03) (115, 3.96057678222656250000e+02) (116, -2.54563331604003906250e-01) (117, 6.26122474670410156250e-01) (118, 4.54303830862045288086e-01) (119, 1.59471452236175537109e-01) (120, 1.37566137695312500000e+03) (121, 1.79947352409362792969e+00) (122, 5.75692701339721679688e+00) (123, 1.45000000000000000000e+03) (124, -1.13197171688079833984e+00) (125, 1.30522742867469787598e-01) (0, -1.29918789863586425781e+00) (1, 1.50000000000000000000e+03) (2, 2.08945516496896743774e-02) (3, -1.64347097277641296387e-01) (4, 1.62846386432647705078e-01) (5, 2.80882263183593750000e+01) (6, -2.15681895613670349121e-01) (7, 1.50000000000000000000e+03) (8, 4.48667377233505249023e-01) (9, 1.90034472942352294922e+00) (10, -7.88449108600616455078e-01) (11, 2.07148885726928710938e+00) (12, -1.13165318965911865234e+00) (13, -6.66594058275222778320e-02) (14, 7.31154327392578125000e+01) (15, 5.54551458358764648438e+00) (16, 7.30735244750976562500e+01) (17, -1.71980977058410644531e-01) (18, 5.37877941131591796875e+00) (19, 4.15454715490341186523e-01) (20, 4.92403566837310791016e-01) (21, 1.10925316810607910156e+00) (22, -7.56505584716796875000e+01) (23, -7.55366287231445312500e+01) (24, 1.50000000000000000000e+03) (25, 1.50000000000000000000e+03) (26, 1.50000000000000000000e+03) (27, 1.50000000000000000000e+03) (28, -4.55251884460449218750e+00) (29, 1.50000000000000000000e+03) (30, 1.50000000000000000000e+03) (31, -3.14497619867324829102e-01) (32, 1.50000000000000000000e+03) (33, 7.13309347629547119141e-02) (34, 1.50000000000000000000e+03) (35, 5.86617231369018554688e-01) (36, -3.26014578342437744141e-01) (37, 1.50000000000000000000e+03) (38, -2.35522203147411346436e-02) (39, 1.15594053268432617188e+00) (40, 3.05661773681640625000e+01) (41, -1.10041484832763671875e+01) (42, 1.50000000000000000000e+03) (43, 5.61809718608856201172e-01) (44, -1.88117586076259613037e-02) (45, 1.50000000000000000000e+03) (46, 2.66440982818603515625e+01) (47, -1.29496738314628601074e-01) (48, -9.01423835754394531250e+00) (49, 2.26038208007812500000e+02) (50, -9.41591709852218627930e-02) (51, -1.41381368041038513184e-01) (52, 5.98737239837646484375e-01) (53, -6.35549354553222656250e+00) (54, 5.77463433146476745605e-02) (55, -5.11082351207733154297e-01) (56, 1.50000000000000000000e+03) (57, -4.83215284347534179688e+00) (58, 1.50000000000000000000e+03) (59, 1.26836273193359375000e+02) (60, -6.26965332031250000000e+00) (61, 1.72720089554786682129e-01) (62, 8.57084465026855468750e+00) (63, -1.39361038804054260254e-01) (64, -2.00935363769531250000e+01) (65, 4.57508027553558349609e-01) (66, 4.81992769241333007812e+00) (67, -1.56156197190284729004e-01) (68, 1.70406770706176757812e+00) (69, 1.50000000000000000000e+03) (70, 1.50000000000000000000e+03) (71, 7.25232696533203125000e+01) (72, 2.66882171630859375000e+01) (73, 9.53447043895721435547e-01) (74, 2.25963745117187500000e+02) (75, -5.40432557463645935059e-02) (76, 1.50000000000000000000e+03) (77, -2.34307718276977539062e+00) (78, 1.50000000000000000000e+03) (79, 1.50000000000000000000e+03) (80, 7.25750732421875000000e+01) (81, 2.66425323486328125000e+01) (82, 6.00114941596984863281e-01) (83, 2.27455383300781250000e+02) (84, -8.92320200800895690918e-02) (85, 1.50000000000000000000e+03) (86, -3.28341051936149597168e-02) (87, 1.50000000000000000000e+03) (88, 2.65877971649169921875e+01) (89, 2.66777439117431640625e+01) (90, -6.39461427927017211914e-02) (91, 1.50000000000000000000e+03) (92, 1.50000000000000000000e+03) (93, 4.62243668735027313232e-02) (94, -1.02174432373046875000e+03) (95, 1.50000000000000000000e+03) (96, -6.81936740875244140625e-01) (97, -1.31149719238281250000e+02) (98, 1.50000000000000000000e+03) (99, 1.50000000000000000000e+03) (100, -8.63014340400695800781e-01) (101, 1.50000000000000000000e+03) (102, 1.50000000000000000000e+03) (103, -5.20587615966796875000e+01) (104, -3.36554145812988281250e+01) (105, 2.67006721496582031250e+01) (106, 1.77704055786132812500e+02) (107, 1.50000000000000000000e+03) (108, 2.66786727905273437500e+01) (109, 1.27833892822265625000e+02) (110, 4.49760496616363525391e-01) (111, 2.65905246734619140625e+01) (112, 8.00762634277343750000e+01) (113, 1.45562124252319335938e+00) (114, 1.73600891113281250000e+02) (115, -1.96564495563507080078e-01) (116, 6.05604648590087890625e-01) (117, -1.18227159976959228516e+00) (118, -2.05245614051818847656e-01) (119, 2.71958168596029281616e-02) (120, 3.16726684570312500000e+00) (121, 6.74533486366271972656e-01) (122, -1.50175857543945312500e+00) (123, 2.24344299316406250000e+02) (124, 2.40726560354232788086e-01) (125, -2.96338927000761032104e-02) (0, -5.50130665302276611328e-01) (1, 1.50000000000000000000e+03) (2, -1.36171104386448860168e-02) (3, -2.14472278952598571777e-01) (4, 2.36557319760322570801e-01) (5, 2.81232910156250000000e+01) (6, -3.39710056781768798828e-01) (7, 1.50000000000000000000e+03) (8, 4.64872956275939941406e-01) (9, -2.44119152426719665527e-01) (10, -7.96081721782684326172e-01) (11, 1.95047819614410400391e+00) (12, -1.29527211189270019531e+00) (13, -1.71194836497306823730e-01) (14, 7.30120010375976562500e+01) (15, 5.58015346527099609375e+00) (16, 7.30096282958984375000e+01) (17, -9.12006869912147521973e-02) (18, 2.40941691398620605469e+00) (19, 5.96963346004486083984e-01) (20, 2.39458203315734863281e-01) (21, 1.04785287380218505859e+00) (22, -7.55234909057617187500e+01) (23, -7.55897064208984375000e+01) (24, 1.50000000000000000000e+03) (25, 1.50000000000000000000e+03) (26, 1.50000000000000000000e+03) (27, 1.50000000000000000000e+03) (28, -6.53360080718994140625e+00) (29, 1.50000000000000000000e+03) (30, 1.50000000000000000000e+03) (31, -4.73683714866638183594e-01) (32, 1.50000000000000000000e+03) (33, -2.88650281727313995361e-02) (34, 1.50000000000000000000e+03) (35, 5.77838242053985595703e-01) (36, 4.32506233453750610352e-01) (37, 1.50000000000000000000e+03) (38, 3.89018957503139972687e-03) (39, 2.59490847587585449219e+00) (40, 3.07082176208496093750e+01) (41, -1.09777727127075195312e+01) (42, 1.50000000000000000000e+03) (43, 5.40231764316558837891e-01) (44, -9.69711616635322570801e-02) (45, 1.50000000000000000000e+03) (46, 2.66571598052978515625e+01) (47, -7.50302970409393310547e-02) (48, -9.00707817077636718750e+00) (49, 2.26097106933593750000e+02) (50, -4.06494736671447753906e-03) (51, -8.27949717640876770020e-02) (52, 5.96225917339324951172e-01) (53, -6.39102363586425781250e+00) (54, 6.18217214941978454590e-02) (55, -3.94471317529678344727e-01) (56, 1.50000000000000000000e+03) (57, -4.91971874237060546875e+00) (58, 1.50000000000000000000e+03) (59, 1.26684082031250000000e+02) (60, -3.08959031105041503906e+00) (61, 5.27924835681915283203e-01) (62, 8.45946407318115234375e+00) (63, -1.92885503172874450684e-01) (64, -2.01514263153076171875e+01) (65, 5.41710495948791503906e-01) (66, 4.93614101409912109375e+00) (67, -2.45649188756942749023e-01) (68, 1.72269690036773681641e+00) (69, 1.50000000000000000000e+03) (70, 1.50000000000000000000e+03) (71, 7.24839401245117187500e+01) (72, 2.66587638854980468750e+01) (73, 9.66183185577392578125e-01) (74, 2.26102844238281250000e+02) (75, -1.94403111934661865234e-01) (76, 1.50000000000000000000e+03) (77, -3.26441550254821777344e+00) (78, 1.50000000000000000000e+03) (79, 1.50000000000000000000e+03) (80, 7.25861129760742187500e+01) (81, 2.66302680969238281250e+01) (82, 1.49529308080673217773e-01) (83, 2.27463928222656250000e+02) (84, 6.76492303609848022461e-02) (85, 1.50000000000000000000e+03) (86, 9.17299836874008178711e-02) (87, 1.50000000000000000000e+03) (88, 2.65560741424560546875e+01) (89, 2.65440979003906250000e+01) (90, 7.06603750586509704590e-02) (91, 1.50000000000000000000e+03) (92, 1.50000000000000000000e+03) (93, 6.96303620934486389160e-02) (94, -1.02172515869140625000e+03) (95, 1.50000000000000000000e+03) (96, -5.75875163078308105469e-01) (97, -1.31014221191406250000e+02) (98, 1.50000000000000000000e+03) (99, 1.50000000000000000000e+03) (100, -7.02818155288696289062e-01) (101, 1.50000000000000000000e+03) (102, 1.50000000000000000000e+03) (103, -5.22085609436035156250e+01) (104, -3.36410636901855468750e+01) (105, 2.65270709991455078125e+01) (106, 1.77646652221679687500e+02) (107, 1.50000000000000000000e+03) (108, 2.66572265625000000000e+01) (109, 1.27926818847656250000e+02) (110, 6.63818240165710449219e-01) (111, 2.65801219940185546875e+01) (112, 8.01569061279296875000e+01) (113, 1.61638975143432617188e+00) (114, 1.73599014282226562500e+02) (115, 2.32370109558105468750e+01) (116, 7.00755476951599121094e-01) (117, -1.26724350452423095703e+00) (118, -2.85012096166610717773e-01) (119, 2.08367511630058288574e-01) (120, 3.15689086914062500000e+00) (121, 5.29953718185424804688e-01) (122, -1.33129966259002685547e+00) (123, 2.24242004394531250000e+02) (124, 3.21959912776947021484e-01) (125, -3.72191108763217926025e-02) (0, 2.67155814170837402344e+00) (1, 2.65570297241210937500e+01) (2, 2.96145081520080566406e-01) (3, 5.27670323848724365234e-01) (4, -5.79441726207733154297e-01) (5, 1.50000000000000000000e+03) (6, 2.09198355674743652344e-01) (7, 2.56980285644531250000e+01) (8, -2.19708308577537536621e-01) (9, -1.10132336616516113281e-01) (10, 4.81128126382827758789e-01) (11, 1.50115072727203369141e-01) (12, -8.46923962235450744629e-02) (13, 6.27590239048004150391e-01) (14, 1.50000000000000000000e+03) (15, -1.12256443500518798828e+00) (16, 1.50000000000000000000e+03) (17, -2.25789237022399902344e+00) (18, 3.15828514099121093750e+00) (19, -1.19139754772186279297e+00) (20, 1.05696083068847656250e+02) (21, -1.65554165840148925781e+00) (22, 1.50000000000000000000e+03) (23, 1.50000000000000000000e+03) (24, -1.69460754394531250000e+01) (25, 1.23168220520019531250e+02) (26, -2.49915904998779296875e+01) (27, 7.69631652832031250000e+01) (28, 1.90629367828369140625e+01) (29, -6.54571685791015625000e+01) (30, 1.23141853332519531250e+02) (31, -7.79480263590812683105e-02) (32, 1.50000000000000000000e+03) (33, -1.96421109139919281006e-02) (34, 1.50000000000000000000e+03) (35, -4.66780304908752441406e-01) (36, 7.45449781417846679688e+00) (37, 1.50000000000000000000e+03) (38, 5.14614760875701904297e-01) (39, -1.48430812358856201172e+00) (40, 5.38912536621093750000e+02) (41, 3.73215627670288085938e+00) (42, 2.31433067321777343750e+01) (43, 1.09863504767417907715e-02) (44, 6.66732713580131530762e-02) (45, 1.01652450561523437500e+01) (46, 1.50000000000000000000e+03) (47, 6.24048233032226562500e-01) (48, 2.12705421447753906250e+00) (49, 1.50000000000000000000e+03) (50, -3.97380053997039794922e-01) (51, 5.13873770833015441895e-02) (52, -6.80480897426605224609e-02) (53, 6.47793173789978027344e-01) (54, 7.96448469161987304688e-01) (55, -3.15940439701080322266e-01) (56, 1.50000000000000000000e+03) (57, 4.77023410797119140625e+00) (58, 1.50000000000000000000e+03) (59, 1.50000000000000000000e+03) (60, 9.98448276519775390625e+00) (61, 4.66768890619277954102e-02) (62, -2.07524795532226562500e+01) (63, 2.28688955307006835938e+00) (64, 1.08432807922363281250e+02) (65, -1.26040303707122802734e+00) (66, -4.28220653533935546875e+00) (67, 2.00141859054565429688e+00) (68, -9.05513465404510498047e-01) (69, -2.26961269378662109375e+01) (70, 7.70533447265625000000e+01) (71, 1.50000000000000000000e+03) (72, 1.50000000000000000000e+03) (73, 1.34923696517944335938e+01) (74, 1.50000000000000000000e+03) (75, 3.81785780191421508789e-01) (76, 7.41329193115234375000e+01) (77, -1.64496392011642456055e-01) (78, -2.26457843780517578125e+01) (79, 7.69457092285156250000e+01) (80, 1.50000000000000000000e+03) (81, 1.50000000000000000000e+03) (82, 1.80847892761230468750e+01) (83, 1.50000000000000000000e+03) (84, 2.38417088985443115234e-01) (85, 7.36381149291992187500e+01) (86, 3.32721829414367675781e-01) (87, 1.50000000000000000000e+03) (88, 1.50000000000000000000e+03) (89, 1.50000000000000000000e+03) (90, 6.57202154397964477539e-02) (91, 7.41480255126953125000e+01) (92, 7.69252319335937500000e+01) (93, 4.30588722229003906250e-01) (94, 1.22004040527343750000e+03) (95, 1.50000000000000000000e+03) (96, -2.79553031921386718750e+00) (97, 1.50000000000000000000e+03) (98, -2.29832115173339843750e+01) (99, 7.70201568603515625000e+01) (100, 3.40216088294982910156e+00) (101, 1.50000000000000000000e+03) (102, 1.50000000000000000000e+03) (103, 6.47683191299438476562e+00) (104, 1.00411367416381835938e+01) (105, 1.50000000000000000000e+03) (106, -2.68533039093017578125e+00) (107, -5.74337585449218750000e+02) (108, 1.50000000000000000000e+03) (109, 1.50000000000000000000e+03) (110, -5.81922054290771484375e+00) (111, 1.50000000000000000000e+03) (112, 1.50000000000000000000e+03) (113, 7.47757181525230407715e-02) (114, 1.50000000000000000000e+03) (115, 2.62522435188293457031e+00) (116, -1.58494293689727783203e+00) (117, 3.47437024116516113281e-01) (118, 3.46489816904067993164e-01) (119, -5.17570853233337402344e-01) (120, 2.57364135742187500000e+02) (121, -9.77544975280761718750e+00) (122, 3.12620818614959716797e-01) (123, 1.50000000000000000000e+03) (124, -1.84691548347473144531e-01) (125, 3.78114432096481323242e-01) (0, -2.20122647285461425781e+00) (1, 1.50000000000000000000e+03) (2, 4.55559581518173217773e-01) (3, 3.36073219776153564453e-01) (4, -1.18062472343444824219e+00) (5, 2.39671020507812500000e+01) (6, 4.94328200817108154297e-01) (7, 1.50000000000000000000e+03) (8, 1.43667370080947875977e-01) (9, -3.30037117004394531250e+00) (10, -4.17946800589561462402e-02) (11, 8.13004016876220703125e-01) (12, -9.98782157897949218750e-01) (13, 2.13594302535057067871e-01) (14, 7.70770492553710937500e+01) (15, 7.95605564117431640625e+00) (16, 7.69848480224609375000e+01) (17, -7.88184702396392822266e-01) (18, -3.00744223594665527344e+00) (19, 4.31829512119293212891e-01) (20, -3.64026451110839843750e+00) (21, 3.39434087276458740234e-01) (22, -7.44191894531250000000e+01) (23, -7.43470230102539062500e+01) (24, 1.50000000000000000000e+03) (25, 1.50000000000000000000e+03) (26, 1.50000000000000000000e+03) (27, 1.50000000000000000000e+03) (28, -3.12157325744628906250e+01) (29, 1.50000000000000000000e+03) (30, 1.50000000000000000000e+03) (31, 2.53468185663223266602e-01) (32, 1.50000000000000000000e+03) (33, 3.49670708179473876953e-01) (34, 1.50000000000000000000e+03) (35, -2.74001397192478179932e-02) (36, -2.34410095214843750000e+01) (37, 1.50000000000000000000e+03) (38, 3.35922062397003173828e-01) (39, -6.77070319652557373047e-02) (40, -2.98028289794921875000e+02) (41, -3.40117907524108886719e+00) (42, 1.50000000000000000000e+03) (43, 2.29225703515112400055e-03) (44, -6.55015289783477783203e-01) (45, 1.50000000000000000000e+03) (46, 2.33892173767089843750e+01) (47, 1.07653565704822540283e-01) (48, -8.03983449935913085938e-01) (49, 2.23120330810546875000e+02) (50, -4.08738642930984497070e-01) (51, 5.35860836505889892578e-01) (52, 2.75294780731201171875e-01) (53, -1.63913986206054687500e+02) (54, 3.67914080619812011719e-01) (55, 1.69145613908767700195e-01) (56, 1.50000000000000000000e+03) (57, -1.29654785156250000000e+03) (58, 1.50000000000000000000e+03) (59, 1.23422454833984375000e+02) (60, -1.98246836662292480469e+00) (61, -5.52953071892261505127e-02) (62, 6.94089889526367187500e+00) (63, -5.31477975845336914062e+00) (64, -1.94304828643798828125e+01) (65, 1.51789081096649169922e+00) (66, 3.02563047409057617188e+00) (67, -2.95120596885681152344e+00) (68, 3.19878792762756347656e+00) (69, 1.50000000000000000000e+03) (70, 1.50000000000000000000e+03) (71, 7.68324737548828125000e+01) (72, 2.33235931396484375000e+01) (73, -9.51324701309204101562e-01) (74, 2.23189941406250000000e+02) (75, -2.76562714576721191406e+00) (76, 1.50000000000000000000e+03) (77, -9.41144704818725585938e-01) (78, 1.50000000000000000000e+03) (79, 1.50000000000000000000e+03) (80, 7.68821792602539062500e+01) (81, 2.33191967010498046875e+01) (82, -1.01917326450347900391e+00) (83, 2.23670959472656250000e+02) (84, -1.12522590160369873047e+00) (85, 1.50000000000000000000e+03) (86, 2.74600088596343994141e-01) (87, 1.50000000000000000000e+03) (88, 2.34165019989013671875e+01) (89, 2.33509845733642578125e+01) (90, 2.92344927787780761719e-01) (91, 1.50000000000000000000e+03) (92, 1.50000000000000000000e+03) (93, 3.07297408580780029297e-01) (94, -1.07893786621093750000e+03) (95, 1.50000000000000000000e+03) (96, -2.32749891281127929688e+00) (97, -1.24704681396484375000e+02) (98, 1.50000000000000000000e+03) (99, 1.50000000000000000000e+03) (100, -2.49832606315612792969e+00) (101, 1.50000000000000000000e+03) (102, 1.50000000000000000000e+03) (103, -2.71502876281738281250e+00) (104, -6.67614316940307617188e+00) (105, 2.33637104034423828125e+01) (106, 7.36864395141601562500e+01) (107, 1.50000000000000000000e+03) (108, 2.34132366180419921875e+01) (109, 1.23857582092285156250e+02) (110, -5.42732119560241699219e-01) (111, 2.33476753234863281250e+01) (112, 7.99975585937500000000e+01) (113, 8.78574907779693603516e-01) (114, 1.77237396240234375000e+02) (115, 9.83840179443359375000e+00) (116, -6.50040388107299804688e-01) (117, -1.22054576873779296875e-01) (118, 4.02358204126358032227e-01) (119, -1.63710737228393554688e+00) (120, 7.48618698120117187500e+01) (121, 5.11259436607360839844e-02) (122, -2.56367176771163940430e-01) (123, 2.22350952148437500000e+02) (124, 8.78173291683197021484e-01) (125, 3.45219403505325317383e-01) (0, 2.95980143547058105469e+00) (1, 2.81473007202148437500e+01) (2, -2.32363510131835937500e+00) (3, -1.00073442459106445312e+01) (4, -2.26352334022521972656e+00) (5, 1.50000000000000000000e+03) (6, 6.11014245077967643738e-03) (7, 2.72479858398437500000e+01) (8, -1.20338401794433593750e+01) (9, -2.90573048591613769531e+00) (10, -5.02789974212646484375e+00) (11, 