FANN_FLO_2.1
num_layers=3
learning_rate=0.700000
connection_rate=1.000000
network_type=0
learning_momentum=0.400000
training_algorithm=0
train_error_function=1
train_stop_function=0
cascade_output_change_fraction=0.010000
quickprop_decay=-0.000100
quickprop_mu=1.750000
rprop_increase_factor=1.200000
rprop_decrease_factor=0.500000
rprop_delta_min=0.000000
rprop_delta_max=50.000000
rprop_delta_zero=0.100000
cascade_output_stagnation_epochs=12
cascade_candidate_change_fraction=0.010000
cascade_candidate_stagnation_epochs=12
cascade_max_out_epochs=150
cascade_max_cand_epochs=150
cascade_num_candidate_groups=2
bit_fail_limit=3.49999994039535522461e-01
cascade_candidate_limit=1.00000000000000000000e+03
cascade_weight_multiplier=4.00000005960464477539e-01
cascade_activation_functions_count=10
cascade_activation_functions=3 5 7 8 10 11 14 15 16 17 
cascade_activation_steepnesses_count=4
cascade_activation_steepnesses=2.50000000000000000000e-01 5.00000000000000000000e-01 7.50000000000000000000e-01 1.00000000000000000000e+00 
layer_sizes=49 97 4 
scale_included=0
neurons (num_inputs, activation_function, activation_steepness)=(0, 0, 0.00000000000000000000e+00) (0, 0, 0.00000000000000000000e+00) (0, 0, 0.00000000000000000000e+00) (0, 0, 0.00000000000000000000e+00) (0, 0, 0.00000000000000000000e+00) (0, 0, 0.00000000000000000000e+00) (0, 0, 0.00000000000000000000e+00) (0, 0, 0.00000000000000000000e+00) (0, 0, 0.00000000000000000000e+00) (0, 0, 0.00000000000000000000e+00) (0, 0, 0.00000000000000000000e+00) (0, 0, 0.00000000000000000000e+00) (0, 0, 0.00000000000000000000e+00) (0, 0, 0.00000000000000000000e+00) (0, 0, 0.00000000000000000000e+00) (0, 0, 0.00000000000000000000e+00) (0, 0, 0.00000000000000000000e+00) (0, 0, 0.00000000000000000000e+00) (0, 0, 0.00000000000000000000e+00) (0, 0, 0.00000000000000000000e+00) (0, 0, 0.00000000000000000000e+00) (0, 0, 0.00000000000000000000e+00) (0, 0, 0.00000000000000000000e+00) (0, 0, 0.00000000000000000000e+00) (0, 0, 0.00000000000000000000e+00) (0, 0, 0.00000000000000000000e+00) (0, 0, 0.00000000000000000000e+00) (0, 0, 0.00000000000000000000e+00) (0, 0, 0.00000000000000000000e+00) (0, 0, 0.00000000000000000000e+00) (0, 0, 0.00000000000000000000e+00) (0, 0, 0.00000000000000000000e+00) (0, 0, 0.00000000000000000000e+00) (0, 0, 0.00000000000000000000e+00) (0, 0, 0.00000000000000000000e+00) (0, 0, 0.00000000000000000000e+00) (0, 0, 0.00000000000000000000e+00) (0, 0, 0.00000000000000000000e+00) (0, 0, 0.00000000000000000000e+00) (0, 0, 0.00000000000000000000e+00) (0, 0, 0.00000000000000000000e+00) (0, 0, 0.00000000000000000000e+00) (0, 0, 0.00000000000000000000e+00) (0, 0, 0.00000000000000000000e+00) (0, 0, 0.00000000000000000000e+00) (0, 0, 0.00000000000000000000e+00) (0, 0, 0.00000000000000000000e+00) (0, 0, 0.00000000000000000000e+00) (0, 0, 0.00000000000000000000e+00) (49, 4, 5.00000000000000000000e-01) (49, 4, 5.00000000000000000000e-01) (49, 4, 5.00000000000000000000e-01) (49, 4, 5.00000000000000000000e-01) (49, 4, 5.00000000000000000000e-01) (49, 4, 5.00000000000000000000e-01) (49, 4, 5.00000000000000000000e-01) (49, 4, 5.00000000000000000000e-01) (49, 4, 5.00000000000000000000e-01) (49, 4, 5.00000000000000000000e-01) (49, 4, 5.00000000000000000000e-01) (49, 4, 5.00000000000000000000e-01) (49, 4, 5.00000000000000000000e-01) (49, 4, 5.00000000000000000000e-01) (49, 4, 5.00000000000000000000e-01) (49, 4, 5.00000000000000000000e-01) (49, 4, 5.00000000000000000000e-01) (49, 4, 5.00000000000000000000e-01) (49, 4, 5.00000000000000000000e-01) (49, 4, 5.00000000000000000000e-01) (49, 4, 5.00000000000000000000e-01) (49, 4, 5.00000000000000000000e-01) (49, 4, 5.00000000000000000000e-01) (49, 4, 5.00000000000000000000e-01) (49, 4, 5.00000000000000000000e-01) (49, 4, 5.00000000000000000000e-01) (49, 4, 5.00000000000000000000e-01) (49, 4, 5.00000000000000000000e-01) (49, 4, 5.00000000000000000000e-01) (49, 4, 5.00000000000000000000e-01) (49, 4, 5.00000000000000000000e-01) (49, 4, 5.00000000000000000000e-01) (49, 4, 5.00000000000000000000e-01) (49, 4, 5.00000000000000000000e-01) (49, 4, 5.00000000000000000000e-01) (49, 4, 5.00000000000000000000e-01) (49, 4, 5.00000000000000000000e-01) (49, 4, 5.00000000000000000000e-01) (49, 4, 5.00000000000000000000e-01) (49, 4, 5.00000000000000000000e-01) (49, 4, 5.00000000000000000000e-01) (49, 4, 5.00000000000000000000e-01) (49, 4, 5.00000000000000000000e-01) (49, 4, 5.00000000000000000000e-01) (49, 4, 5.00000000000000000000e-01) (49, 4, 5.00000000000000000000e-01) (49, 4, 5.00000000000000000000e-01) (49, 4, 5.00000000000000000000e-01) (49, 4, 5.00000000000000000000e-01) (49, 4, 5.00000000000000000000e-01) (49, 4, 5.00000000000000000000e-01) (49, 4, 5.00000000000000000000e-01) (49, 4, 5.00000000000000000000e-01) (49, 4, 5.00000000000000000000e-01) (49, 4, 5.00000000000000000000e-01) (49, 4, 5.00000000000000000000e-01) (49, 4, 5.00000000000000000000e-01) (49, 4, 5.00000000000000000000e-01) (49, 4, 5.00000000000000000000e-01) (49, 4, 5.00000000000000000000e-01) (49, 4, 5.00000000000000000000e-01) (49, 4, 5.00000000000000000000e-01) (49, 4, 5.00000000000000000000e-01) (49, 4, 5.00000000000000000000e-01) (49, 4, 5.00000000000000000000e-01) (49, 4, 5.00000000000000000000e-01) (49, 4, 5.00000000000000000000e-01) (49, 4, 5.00000000000000000000e-01) (49, 4, 5.00000000000000000000e-01) (49, 4, 5.00000000000000000000e-01) (49, 4, 5.00000000000000000000e-01) (49, 4, 5.00000000000000000000e-01) (49, 4, 5.00000000000000000000e-01) (49, 4, 5.00000000000000000000e-01) (49, 4, 5.00000000000000000000e-01) (49, 4, 5.00000000000000000000e-01) (49, 4, 5.00000000000000000000e-01) (49, 4, 5.00000000000000000000e-01) (49, 4, 5.00000000000000000000e-01) (49, 4, 5.00000000000000000000e-01) (49, 4, 5.00000000000000000000e-01) (49, 4, 5.00000000000000000000e-01) (49, 4, 5.00000000000000000000e-01) (49, 4, 5.00000000000000000000e-01) (49, 4, 5.00000000000000000000e-01) (49, 4, 5.00000000000000000000e-01) (49, 4, 5.00000000000000000000e-01) (49, 4, 5.00000000000000000000e-01) (49, 4, 5.00000000000000000000e-01) (49, 4, 5.00000000000000000000e-01) (49, 4, 5.00000000000000000000e-01) (49, 4, 5.00000000000000000000e-01) (49, 4, 5.00000000000000000000e-01) (49, 4, 5.00000000000000000000e-01) (49, 4, 5.00000000000000000000e-01) (49, 4, 5.00000000000000000000e-01) (0, 0, 0.00000000000000000000e+00) (97, 4, 5.00000000000000000000e-01) (97, 4, 5.00000000000000000000e-01) (97, 4, 5.00000000000000000000e-01) (0, 0, 0.00000000000000000000e+00) 
connections (connected_to_neuron, weight)=(0, -6.19398988783359527588e-02) (1, 1.39355333521962165833e-02) (2, 1.77294965833425521851e-02) (3, -1.59638673067092895508e-01) (4, -1.28529176115989685059e-01) (5, 5.57958595454692840576e-02) (6, -1.34114876389503479004e-01) (7, -6.45997747778892517090e-02) (8, -1.54895931482315063477e-01) (9, -6.58030956983566284180e-02) (10, -8.59931036829948425293e-02) (11, -5.17080686986446380615e-02) (12, -2.15531602501869201660e-01) (13, -2.14829295873641967773e-01) (14, -1.16753756999969482422e-01) (15, -1.31329134106636047363e-01) (16, -1.31179420277476310730e-02) (17, 8.18112492561340332031e-02) (18, -1.56348094344139099121e-01) (19, -3.88195030391216278076e-02) (20, -1.83027178049087524414e-01) (21, -1.80758684873580932617e-01) (22, -2.04164497554302215576e-02) (23, 1.72398611903190612793e-02) (24, 6.49916082620620727539e-02) (25, 4.20592240989208221436e-02) (26, 1.73027180135250091553e-02) (27, 6.63913367316126823425e-03) (28, -9.40651074051856994629e-02) (29, 5.47225540503859519958e-03) (30, -9.12795308977365493774e-03) (31, -7.39888241514563560486e-03) (32, -1.35867511853575706482e-02) (33, -4.60861064493656158447e-03) (34, 1.17782898247241973877e-01) (35, -1.51361867785453796387e-01) (36, -1.98740944266319274902e-01) (37, -9.23039242625236511230e-02) (38, 5.31149096786975860596e-02) (39, -8.28815028071403503418e-02) (40, -8.56571644544601440430e-02) (41, -9.39822793006896972656e-02) (42, -1.53129518032073974609e-01) (43, 5.60309663414955139160e-02) (44, -1.01213172078132629395e-01) (45, -2.32682786881923675537e-02) (46, -1.24688774347305297852e-01) (47, -1.88164804130792617798e-02) (48, -1.60670101642608642578e+00) (0, -2.23260559141635894775e-02) (1, 1.36894201859831809998e-02) (2, 3.29362861812114715576e-02) (3, -1.47681161761283874512e-01) (4, -1.31685450673103332520e-01) (5, -8.76445844769477844238e-02) (6, -1.93715453147888183594e-01) (7, -1.58905476331710815430e-01) (8, -1.13181814551353454590e-01) (9, -3.63925546407699584961e-02) (10, 6.13657049834728240967e-02) (11, 6.99378317221999168396e-03) (12, -1.49540156126022338867e-01) (13, -2.29294091463088989258e-01) (14, -6.88419044017791748047e-02) (15, -2.34873667359352111816e-01) (16, 2.23964191973209381104e-02) (17, 1.42373904585838317871e-01) (18, -8.33871364593505859375e-02) (19, -4.42034453153610229492e-02) (20, -9.29799154400825500488e-02) (21, -1.56327206641435623169e-02) (22, -1.01517759263515472412e-01) (23, 1.40633076429367065430e-01) (24, 4.38189646229147911072e-03) (25, -8.15004855394363403320e-02) (26, 5.10483346879482269287e-02) (27, 4.00630123913288116455e-02) (28, -1.49859294295310974121e-01) (29, -1.08403511345386505127e-01) (30, 6.25247284770011901855e-02) (31, -3.48716527223587036133e-02) (32, 1.53868610505014657974e-03) (33, 2.85050850361585617065e-02) (34, 1.13485231995582580566e-01) (35, -5.81864155828952789307e-02) (36, -1.28576844930648803711e-01) (37, 5.30610904097557067871e-02) (38, 1.55215961858630180359e-02) (39, -5.97279295325279235840e-02) (40, -2.04336509108543395996e-01) (41, -1.84607096016407012939e-02) (42, -9.95969399809837341309e-02) (43, 8.64046886563301086426e-02) (44, -1.39714563265442848206e-02) (45, -8.11643972992897033691e-02) (46, -1.91109962761402130127e-02) (47, -1.56624287366867065430e-01) (48, -1.62980806827545166016e+00) (0, -1.85311749577522277832e-01) (1, -1.38281211256980895996e-01) (2, -2.79843304306268692017e-02) (3, -2.17646375298500061035e-01) (4, -3.48342329263687133789e-01) (5, -1.41144692897796630859e-01) (6, -1.69608876109123229980e-01) (7, 3.17543260753154754639e-02) (8, -1.10087290406227111816e-01) (9, -3.01390230655670166016e-01) (10, -1.67203590273857116699e-01) (11, -1.22620970010757446289e-01) (12, -3.61866146326065063477e-01) (13, -2.23884999752044677734e-01) (14, -1.12231574952602386475e-01) (15, 1.61796495318412780762e-01) (16, -1.47726655006408691406e-01) (17, -1.11681438982486724854e-01) (18, -1.85460448265075683594e-01) (19, -2.05296203494071960449e-01) (20, -3.09269636869430541992e-01) (21, -4.12425041198730468750e-01) (22, -1.19490928947925567627e-01) (23, -3.17602574825286865234e-01) (24, -1.28478690981864929199e-01) (25, -1.55413299798965454102e-01) (26, -3.31564933061599731445e-01) (27, -2.67407327890396118164e-01) (28, -4.28477704524993896484e-01) (29, -2.39328041672706604004e-01) (30, -3.48607242107391357422e-01) (31, -3.03767651319503784180e-01) (32, 7.79887242242693901062e-03) (33, -2.23836302757263183594e-01) (34, -3.53736162185668945312e-01) (35, -4.35984015464782714844e-01) (36, -3.57917338609695434570e-01) (37, -2.65616238117218017578e-01) (38, -1.83544605970382690430e-01) (39, -1.51310407090932130814e-03) (40, 1.65584206581115722656e-01) (41, -9.07671675086021423340e-02) (42, -1.05548657476902008057e-01) (43, -7.15910673141479492188e-01) (44, -5.65184712409973144531e-01) (45, -3.60366910696029663086e-01) (46, -1.31647288799285888672e-01) (47, -3.85533608496189117432e-02) (48, -1.26442253589630126953e+00) (0, -1.03020124137401580811e-01) (1, -7.13467746973037719727e-02) (2, -1.06069758534431457520e-01) (3, -1.24555006623268127441e-01) (4, -2.59166397154331207275e-02) (5, -1.19622565805912017822e-01) (6, -1.21064737439155578613e-01) (7, -1.27977237105369567871e-01) (8, -1.24965868890285491943e-01) (9, -6.87282392755150794983e-03) (10, 7.66456127166748046875e-02) (11, -1.30916936323046684265e-02) (12, -3.31454396247863769531e-01) (13, -3.63862603902816772461e-01) (14, -2.13739290833473205566e-01) (15, 5.94463609158992767334e-02) (16, 5.01330308616161346436e-02) (17, 1.29825592041015625000e-01) (18, -6.44297897815704345703e-02) (19, -6.83812201023101806641e-02) (20, -1.03489018976688385010e-01) (21, -3.29817309975624084473e-02) (22, 2.87653636187314987183e-02) (23, 3.49933765828609466553e-02) (24, 1.40224322676658630371e-01) (25, 1.15816637873649597168e-01) (26, 4.33501601219177246094e-02) (27, -3.32322493195533752441e-02) (28, -2.86209046840667724609e-01) (29, -7.04756285995244979858e-03) (30, 1.52291459962725639343e-02) (31, 7.38186687231063842773e-02) (32, -5.62373511493206024170e-02) (33, 5.39519004523754119873e-02) (34, 9.58492085337638854980e-02) (35, -2.34000431373715400696e-03) (36, -1.97995573282241821289e-01) (37, -3.76124866306781768799e-02) (38, -1.15887239575386047363e-01) (39, -2.60439991950988769531e-01) (40, 3.19754183292388916016e-02) (41, 5.59011586010456085205e-02) (42, -1.21902763843536376953e-01) (43, 5.40603771805763244629e-02) (44, -7.56967812776565551758e-02) (45, -1.88053876161575317383e-01) (46, -1.09592892229557037354e-01) (47, -2.07284390926361083984e-01) (48, -1.60622298717498779297e+00) (0, -1.60114139318466186523e-01) (1, -2.65294909477233886719e-01) (2, -1.85689494013786315918e-01) (3, -1.51036456227302551270e-01) (4, -3.49565178155899047852e-01) (5, -1.94913297891616821289e-01) (6, -5.91775542125105857849e-03) (7, -1.18535198271274566650e-02) (8, -1.89867019653320312500e-01) (9, -3.69484186172485351562e-01) (10, -2.15444520115852355957e-01) (11, -1.20255134999752044678e-01) (12, -3.70835721492767333984e-01) (13, -2.04491332173347473145e-01) (14, -3.88153903186321258545e-02) (15, 8.51577892899513244629e-02) (16, -3.08891057968139648438e-01) (17, -4.14580404758453369141e-01) (18, -2.19238474965095520020e-01) (19, -3.79864245653152465820e-01) (20, -3.05774986743927001953e-01) (21, -3.22858065366744995117e-01) (22, -2.11660817265510559082e-01) (23, -2.34642654657363891602e-01) (24, -1.95595741271972656250e-01) (25, -2.71289288997650146484e-01) (26, -3.99295181035995483398e-01) (27, -2.90239781141281127930e-01) (28, -4.46104794740676879883e-01) (29, -3.77660840749740600586e-01) (30, -3.69850724935531616211e-01) (31, -3.25634211301803588867e-01) (32, -1.18184080347418785095e-02) (33, -4.62554037570953369141e-01) (34, -5.24107635021209716797e-01) (35, -5.51518797874450683594e-01) (36, -3.65619719028472900391e-01) (37, -3.17164778709411621094e-01) (38, -2.12584719061851501465e-01) (39, -9.61918383836746215820e-02) (40, 2.17632606625556945801e-01) (41, -2.28271871805191040039e-01) (42, -3.48145663738250732422e-02) (43, -8.22949111461639404297e-01) (44, -5.29110193252563476562e-01) (45, -2.24718853831291198730e-01) (46, -1.74659028649330139160e-01) (47, -1.15090481936931610107e-01) (48, -1.12203681468963623047e+00) (0, 5.74932387098670005798e-03) (1, 8.13956707715988159180e-02) (2, -1.79159730672836303711e-01) (3, -3.40584099292755126953e-01) (4, -7.06772878766059875488e-02) (5, 4.55565564334392547607e-02) (6, -1.59175127744674682617e-01) (7, -7.47991725802421569824e-02) (8, 7.40481447428464889526e-03) (9, 2.38394916057586669922e-01) (10, 2.66121685504913330078e-01) (11, -3.44953946769237518311e-02) (12, -4.30285423994064331055e-01) (13, -4.02318328619003295898e-01) (14, -1.33011341094970703125e-01) (15, -2.89514988660812377930e-01) (16, 3.11826735734939575195e-01) (17, 3.94995540380477905273e-01) (18, -6.13254494965076446533e-02) (19, 6.10987246036529541016e-02) (20, -2.01144382357597351074e-01) (21, -3.10354214161634445190e-02) (22, -1.45727604627609252930e-01) (23, 1.67613655328750610352e-01) (24, 3.00707578659057617188e-01) (25, 3.56096506118774414062e-01) (26, 2.54269540309906005859e-01) (27, 1.97428047657012939453e-01) (28, 1.88290908932685852051e-01) (29, 1.96476638317108154297e-01) (30, 2.91033416986465454102e-01) (31, 3.36635112762451171875e-01) (32, -1.28144681453704833984e-01) (33, 3.89304161071777343750e-01) (34, 4.67861503362655639648e-01) (35, 2.28612080216407775879e-01) (36, 2.96678971499204635620e-02) (37, 3.27233731746673583984e-01) (38, 2.03588679432868957520e-01) (39, 2.62371804565191268921e-02) (40, -2.67088353633880615234e-01) (41, 1.93660184741020202637e-02) (42, -8.11281129717826843262e-02) (43, 3.07816743850708007812e-01) (44, 2.59265929460525512695e-01) (45, 3.43665689229965209961e-01) (46, -2.14379420503973960876e-03) (47, 6.67321756482124328613e-02) (48, -1.68147647380828857422e+00) (0, -3.47010307013988494873e-02) (1, -5.98640851676464080811e-02) (2, -3.95256616175174713135e-02) (3, 6.54947906732559204102e-02) (4, -8.64678025245666503906e-01) (5, -4.28094178438186645508e-01) (6, -2.76224613189697265625e-01) (7, 2.15081665664911270142e-02) (8, 3.27894568443298339844e-01) (9, -4.63037461042404174805e-01) (10, -2.21384868025779724121e-01) (11, -3.37797313928604125977e-01) (12, -4.12497818470001220703e-01) (13, -1.05050466954708099365e-01) (14, 1.53655871748924255371e-01) (15, 2.60742127895355224609e-01) (16, -4.38542038202285766602e-01) (17, -3.62795710563659667969e-01) (18, -3.11365365982055664062e-01) (19, -4.93704825639724731445e-01) (20, -6.40416920185089111328e-01) (21, -5.91055154800415039062e-01) (22, -4.67184364795684814453e-01) (23, -7.76230394840240478516e-01) (24, -2.89055943489074707031e-01) (25, -3.26508283615112304688e-01) (26, -7.04915702342987060547e-01) (27, -6.48415744304656982422e-01) (28, -4.59813714027404785156e-01) (29, -6.21880292892456054688e-01) (30, -8.67725551128387451172e-01) (31, -8.31624329090118408203e-01) (32, -4.66687083244323730469e-02) (33, -6.47048950195312500000e-01) (34, -9.16242003440856933594e-01) (35, -1.07960474491119384766e+00) (36, -7.12692081928253173828e-01) (37, -6.00617706775665283203e-01) (38, -4.40537989139556884766e-01) (39, 6.05164840817451477051e-02) (40, 2.08295006304979324341e-02) (41, -5.19442260265350341797e-01) (42, -1.38119950890541076660e-01) (43, -1.66578686237335205078e+00) (44, -7.73068368434906005859e-01) (45, -5.45619189739227294922e-01) (46, 1.25379413366317749023e-01) (47, 4.58088442683219909668e-02) (48, -1.68909579515457153320e-01) (0, -1.64139978587627410889e-02) (1, -1.62385687232017517090e-01) (2, -1.19252093136310577393e-01) (3, -4.22275066375732421875e-02) (4, -2.73357689380645751953e-01) (5, -2.49284833669662475586e-01) (6, -6.64516836404800415039e-02) (7, -3.63252609968185424805e-02) (8, -2.85982489585876464844e-02) (9, -4.90615457296371459961e-01) (10, -9.91027057170867919922e-02) (11, -2.55202889442443847656e-01) (12, -3.60043644905090332031e-01) (13, -1.19274638593196868896e-01) (14, 1.72022789716720581055e-01) (15, -1.95057928562164306641e-01) (16, -2.99722343683242797852e-01) (17, -4.81700837612152099609e-01) (18, -1.43269628286361694336e-01) (19, -2.56344974040985107422e-01) (20, -2.59830951690673828125e-01) (21, -1.58931046724319458008e-01) (22, -1.92302808165550231934e-01) (23, 1.86533890664577484131e-02) (24, -4.95877057313919067383e-01) (25, -4.37158524990081787109e-01) (26, -3.68502199649810791016e-01) (27, -4.12255436182022094727e-01) (28, -3.62964272499084472656e-01) (29, -1.99647948145866394043e-01) (30, -1.75995349884033203125e-01) (31, 2.24992230534553527832e-01) (32, -1.67093962430953979492e-01) (33, -5.04065513610839843750e-01) (34, -3.28711062669754028320e-01) (35, -2.71870702505111694336e-01) (36, -2.08313778042793273926e-01) (37, -1.46016716957092285156e-01) (38, -2.70887780934572219849e-02) (39, 5.63221052289009094238e-03) (40, 4.92706485092639923096e-02) (41, -2.47755303978919982910e-01) (42, 6.26734569668769836426e-02) (43, -5.03956377506256103516e-01) (44, -3.47688704729080200195e-01) (45, -1.59180805087089538574e-01) (46, 2.18770699575543403625e-03) (47, 9.91616100072860717773e-02) (48, -1.51070833206176757812e+00) (0, -3.64378452301025390625e-01) (1, -3.08838784694671630859e-01) (2, -5.35251677036285400391e-01) (3, -1.84521581977605819702e-02) (4, -2.56074845790863037109e-01) (5, -5.31298294663429260254e-02) (6, -5.50731420516967773438e-02) (7, -3.77430617809295654297e-02) (8, -9.16543602943420410156e-01) (9, -5.76247870922088623047e-01) (10, -1.76428392529487609863e-01) (11, 6.54744915664196014404e-03) (12, 1.19045823812484741211e-02) (13, 3.93445223569869995117e-01) (14, -8.64567309617996215820e-02) (15, -3.18778604269027709961e-01) (16, -5.27541518211364746094e-01) (17, -4.60456371307373046875e-01) (18, 4.03591603040695190430e-01) (19, 6.49133205413818359375e-01) (20, 4.10327732563018798828e-01) (21, 8.25879573822021484375e-01) (22, 5.69352984428405761719e-01) (23, 2.29831844568252563477e-01) (24, -5.70463001728057861328e-01) (25, 5.54580204188823699951e-02) (26, 4.31352704763412475586e-01) (27, 5.87986782193183898926e-03) (28, 4.74125564098358154297e-01) (29, 6.35686635971069335938e-01) (30, 5.25435030460357666016e-01) (31, 2.19414159655570983887e-01) (32, 1.05219475924968719482e-01) (33, 3.11318099498748779297e-01) (34, 6.91626965999603271484e-01) (35, 8.97742867469787597656e-01) (36, 4.97931033372879028320e-01) (37, 5.95128059387207031250e-01) (38, 2.85403877496719360352e-01) (39, -4.66206699609756469727e-01) (40, 1.47221818566322326660e-01) (41, 3.25457364320755004883e-01) (42, 6.85092568397521972656e-01) (43, 4.65277314186096191406e-01) (44, 9.53935980796813964844e-02) (45, -3.41601893305778503418e-02) (46, -4.56999331712722778320e-01) (47, -4.49722468852996826172e-01) (48, -2.20776486396789550781e+00) (0, -2.78854668140411376953e-02) (1, -1.30224481225013732910e-01) (2, -9.78586971759796142578e-02) (3, -1.52509972453117370605e-01) (4, -1.40420243144035339355e-01) (5, -1.50861501693725585938e-01) (6, -1.71686455607414245605e-01) (7, 2.84844916313886642456e-03) (8, -1.91714078187942504883e-01) (9, -1.71737030148506164551e-01) (10, -1.71582903712987899780e-02) (11, -7.45472982525825500488e-02) (12, -1.96456030011177062988e-01) (13, -1.35221362113952636719e-01) (14, -1.64001107215881347656e-01) (15, -1.91634576767683029175e-02) (16, -1.38880833983421325684e-01) (17, -1.54899582266807556152e-01) (18, -6.21102144941687583923e-03) (19, -1.97541862726211547852e-01) (20, -1.65319621562957763672e-01) (21, -8.89958962798118591309e-02) (22, -1.39198929071426391602e-01) (23, -1.36559586971998214722e-02) (24, -9.55081805586814880371e-02) (25, -1.49906396865844726562e-01) (26, -2.03404545783996582031e-01) (27, -2.27098897099494934082e-01) (28, -1.97298392653465270996e-01) (29, -8.62296968698501586914e-02) (30, -1.06877148151397705078e-01) (31, 1.22931075748056173325e-03) (32, -1.13878577947616577148e-01) (33, -3.30951847136020660400e-02) (34, -1.57883435487747192383e-01) (35, -1.01289488375186920166e-01) (36, -9.68923047184944152832e-02) (37, -1.26386895775794982910e-01) (38, -3.87677066028118133545e-02) (39, 1.06717990711331367493e-02) (40, 3.11613194644451141357e-02) (41, 5.73026239871978759766e-02) (42, -1.07188625261187553406e-02) (43, -1.94218277931213378906e-01) (44, -1.92618191242218017578e-01) (45, -8.46550911664962768555e-02) (46, -1.42751157283782958984e-01) (47, -9.47861373424530029297e-03) (48, -1.56075477600097656250e+00) (0, 4.70463961362838745117e-01) (1, 4.10949259996414184570e-01) (2, 7.40886747837066650391e-01) (3, 7.40050375461578369141e-01) (4, -4.59333837032318115234e-01) (5, -1.56413838267326354980e-01) (6, -6.48641526699066162109e-01) (7, 9.65888351202011108398e-02) (8, 3.09495806694030761719e-01) (9, 6.05175614356994628906e-01) (10, 4.21385407447814941406e-01) (11, 4.23927336931228637695e-01) (12, 5.11912047863006591797e-01) (13, 1.81706145405769348145e-01) (14, -6.54798209667205810547e-01) (15, -2.81822323799133300781e-01) (16, 5.47548271715641021729e-02) (17, 1.89657166600227355957e-01) (18, 1.85000851750373840332e-01) (19, 8.51980745792388916016e-01) (20, 2.26465508341789245605e-01) (21, 3.62567216157913208008e-01) (22, 3.15606206655502319336e-01) (23, 8.79597216844558715820e-02) (24, -6.83299183845520019531e-01) (25, -1.16574384272098541260e-01) (26, -1.55132099986076354980e-01) (27, 5.12203276157379150391e-01) (28, 1.05336928367614746094e+00) (29, 5.03240346908569335938e-01) (30, 3.63526523113250732422e-01) (31, 4.86771404743194580078e-01) (32, -3.83488804101943969727e-01) (33, -4.07629013061523437500e-01) (34, -4.92066055536270141602e-01) (35, -4.22416418790817260742e-01) (36, -2.42675751447677612305e-01) (37, 6.33648931980133056641e-01) (38, 7.49018609523773193359e-01) (39, 2.41875290870666503906e-01) (40, -5.18902599811553955078e-01) (41, -3.85431647300720214844e-02) (42, -5.62045633792877197266e-01) (43, -6.40099644660949707031e-01) (44, -1.74785107374191284180e-01) (45, -7.27333575487136840820e-02) (46, 5.54419457912445068359e-01) (47, 4.17589545249938964844e-01) (48, -3.05461668968200683594e+00) (0, -8.63160938024520874023e-02) (1, -1.32098838686943054199e-01) (2, -1.29588812589645385742e-01) (3, -1.57554689794778823853e-02) (4, -3.66865217685699462891e-01) (5, -3.62173080444335937500e-01) (6, -2.37147375941276550293e-01) (7, -4.15294617414474487305e-02) (8, -6.15875795483589172363e-02) (9, -5.10259449481964111328e-01) (10, -1.87068179249763488770e-01) (11, -1.85849055647850036621e-01) (12, -4.98151093721389770508e-01) (13, -2.52960026264190673828e-01) (14, -2.97755170613527297974e-02) (15, -9.13101620972156524658e-03) (16, -3.77727776765823364258e-01) (17, -4.79458570480346679688e-01) (18, -3.33095490932464599609e-01) (19, -3.20913463830947875977e-01) (20, -3.39340895414352416992e-01) (21, -3.69120836257934570312e-01) (22, -1.94101780652999877930e-01) (23, -1.82698309421539306641e-01) (24, -4.90797698497772216797e-01) (25, -4.87703084945678710938e-01) (26, -6.31084620952606201172e-01) (27, -5.59200167655944824219e-01) (28, -3.95191937685012817383e-01) (29, -3.95278066396713256836e-01) (30, -2.64195084571838378906e-01) (31, -8.96770432591438293457e-02) (32, -3.46375674009323120117e-01) (33, -5.71742296218872070312e-01) (34, -5.55151164531707763672e-01) (35, -6.41191899776458740234e-01) (36, -3.69678974151611328125e-01) (37, -1.87886029481887817383e-01) (38, -5.36512099206447601318e-02) (39, -1.05816379189491271973e-01) (40, 1.20837502181529998779e-01) (41, -3.19598793983459472656e-01) (42, -6.71996101737022399902e-02) (43, -1.08695507049560546875e+00) (44, -2.97171980142593383789e-01) (45, -1.95526018738746643066e-01) (46, 3.24926450848579406738e-02) (47, 3.49981896579265594482e-02) (48, -1.12778866291046142578e+00) (0, -1.09927922487258911133e-01) (1, -1.75076544284820556641e-01) (2, -1.27206087112426757812e-01) (3, -1.52647510170936584473e-01) (4, -3.53901505470275878906e-01) (5, -2.75378525257110595703e-01) (6, 2.26398389786481857300e-02) (7, 2.24602185189723968506e-02) (8, -1.42754077911376953125e-01) (9, -4.43822205066680908203e-01) (10, -1.19569949805736541748e-01) (11, -7.45447427034378051758e-02) (12, -4.07411813735961914062e-01) (13, -5.55339008569717407227e-02) (14, 7.61336758732795715332e-02) (15, 8.49752202630043029785e-02) (16, -3.82745414972305297852e-01) (17, -2.82980173826217651367e-01) (18, -8.46082344651222229004e-02) (19, -3.11452358961105346680e-01) (20, -2.82706797122955322266e-01) (21, -3.50117027759552001953e-01) (22, -1.69966802000999450684e-01) (23, -3.23838263750076293945e-01) (24, -3.90236169099807739258e-01) (25, -2.22811028361320495605e-01) (26, -4.67883229255676269531e-01) (27, -3.97256612777709960938e-01) (28, -4.89736199378967285156e-01) (29, -1.75961717963218688965e-01) (30, -3.39984238147735595703e-01) (31, -9.92780253291130065918e-02) (32, 9.35736577957868576050e-03) (33, -4.19508874416351318359e-01) (34, -4.29244339466094970703e-01) (35, -5.82651138305664062500e-01) (36, -2.75709927082061767578e-01) (37, -2.68765479326248168945e-01) (38, -8.68203788995742797852e-02) (39, -1.51005029678344726562e-01) (40, 1.89582034945487976074e-01) (41, -1.26741990447044372559e-01) (42, -1.72235053032636642456e-02) (43, -7.78232634067535400391e-01) (44, -4.15319502353668212891e-01) (45, -3.14621180295944213867e-01) (46, 4.40746694803237915039e-02) (47, -1.97126716375350952148e-01) (48, -1.23597109317779541016e+00) (0, 1.36335566639900207520e-01) (1, 8.23887810111045837402e-02) (2, 7.84184262156486511230e-02) (3, 2.42100894451141357422e-01) (4, -2.76090830564498901367e-01) (5, -1.55634120106697082520e-01) (6, -2.44285970926284790039e-01) (7, -1.40164181590080261230e-01) (8, 2.71280080080032348633e-01) (9, 7.62268602848052978516e-02) (10, 4.16512005031108856201e-02) (11, -6.11912570893764495850e-02) (12, 2.30558335781097412109e-01) (13, -2.10763424634933471680e-01) (14, -1.61924719810485839844e-01) (15, -2.03592836856842041016e-01) (16, 2.43954658508300781250e-01) (17, 1.16119392216205596924e-01) (18, -7.16654956340789794922e-02) (19, -8.58001634478569030762e-02) (20, -9.52310040593147277832e-02) (21, 2.05844044685363769531e-01) (22, 1.98600292205810546875e-01) (23, 9.69136282801628112793e-02) (24, 1.09618499875068664551e-01) (25, 4.90263616666197776794e-03) (26, 2.71752357482910156250e-01) (27, -1.02544456720352172852e-01) (28, 6.25911876559257507324e-02) (29, 7.41099119186401367188e-02) (30, 1.39477297663688659668e-01) (31, 4.04465079307556152344e-01) (32, -3.22898656129837036133e-01) (33, -3.68593893945217132568e-02) (34, 6.16842657327651977539e-02) (35, -3.49075347185134887695e-02) (36, -1.83881744742393493652e-01) (37, -1.68580492027103900909e-03) (38, 2.02889502048492431641e-01) (39, 2.89356578141450881958e-02) (40, -3.12952369451522827148e-01) (41, -1.16462469100952148438e-01) (42, -2.82717555761337280273e-01) (43, -8.74314084649085998535e-03) (44, -1.06619829311966896057e-02) (45, -3.76307331025600433350e-02) (46, 1.41195684671401977539e-01) (47, 6.94196373224258422852e-02) (48, -1.82718002796173095703e+00) (0, -3.95828150212764739990e-02) (1, -6.75881281495094299316e-02) (2, -2.26510345935821533203e-01) (3, -2.70903438329696655273e-01) (4, -4.26925271749496459961e-01) (5, -1.91314309835433959961e-01) (6, -3.36501508951187133789e-01) (7, -2.25592374801635742188e-01) (8, 2.08320692181587219238e-01) (9, -1.20811834931373596191e-02) (10, 4.70311865210533142090e-02) (11, -1.28644883632659912109e-01) (12, -4.20814245939254760742e-01) (13, -2.32545897364616394043e-01) (14, -3.39052498340606689453e-01) (15, -2.64827370643615722656e-01) (16, 1.96562796831130981445e-01) (17, 8.12830552458763122559e-02) (18, -1.60513177514076232910e-01) (19, 6.88828481361269950867e-03) (20, -3.07440906763076782227e-01) (21, -1.70743361115455627441e-01) (22, -1.17741718888282775879e-01) (23, -3.29394340515136718750e-01) (24, 1.19024887681007385254e-01) (25, -1.10151633620262145996e-01) (26, 1.47454336285591125488e-01) (27, -1.41965880990028381348e-01) (28, 5.47301024198532104492e-02) (29, -3.13840121030807495117e-01) (30, -9.26597267389297485352e-02) (31, -3.57357054948806762695e-01) (32, -2.37010583281517028809e-01) (33, 8.07350850664079189301e-04) (34, -5.05446009337902069092e-02) (35, -7.25047066807746887207e-02) (36, -2.97203302383422851562e-01) (37, -3.15588861703872680664e-02) (38, -2.02931299805641174316e-01) (39, -1.27920091152191162109e-01) (40, -2.74562656879425048828e-01) (41, -2.70689338445663452148e-01) (42, -1.68430030345916748047e-01) (43, -3.83460298180580139160e-02) (44, -4.29726958274841308594e-01) (45, -1.18301810289267450571e-04) (46, -9.10621508955955505371e-03) (47, 6.16820640861988067627e-02) (48, -1.65755927562713623047e+00) (0, 1.04025714099407196045e-02) (1, 1.68538242578506469727e-02) (2, 1.48176578804850578308e-02) (3, -1.33426249027252197266e-01) (4, 2.92837619781494140625e-03) (5, 3.22728864848613739014e-02) (6, -8.67160782217979431152e-02) (7, -3.53592447936534881592e-02) (8, -8.25942680239677429199e-02) (9, -2.78862994164228439331e-02) (10, 1.19060717523097991943e-01) (11, -1.54864788055419921875e-02) (12, -1.05274759232997894287e-01) (13, -2.95781433582305908203e-01) (14, -1.56221166253089904785e-01) (15, -1.22938632965087890625e-01) (16, 8.54991823434829711914e-02) (17, 6.55590370297431945801e-02) (18, 2.04067733138799667358e-02) (19, -9.32724922895431518555e-02) (20, 1.67492125183343887329e-02) (21, -1.85275766998529434204e-02) (22, 1.34848147630691528320e-01) (23, 1.05964064598083496094e-01) (24, 9.88645181059837341309e-02) (25, 8.40293914079666137695e-02) (26, 4.32876460254192352295e-02) (27, -7.78281167149543762207e-02) (28, -1.84066966176033020020e-01) (29, -4.64869216084480285645e-02) (30, 1.16184271872043609619e-01) (31, 1.41810625791549682617e-01) (32, -3.99878174066543579102e-02) (33, 2.05206945538520812988e-01) (34, 2.11719647049903869629e-01) (35, 4.39124507829546928406e-03) (36, -6.58142194151878356934e-02) (37, 6.84646740555763244629e-02) (38, 5.69148249924182891846e-02) (39, 4.29211668670177459717e-02) (40, -1.31806701421737670898e-01) (41, 1.46416887640953063965e-01) (42, -1.21376760303974151611e-01) (43, 1.21757335960865020752e-01) (44, 1.26675918698310852051e-01) (45, 5.90669661760330200195e-02) (46, 1.19233969599008560181e-02) (47, -8.72165039181709289551e-02) (48, -1.67644524574279785156e+00) (0, -3.06846201419830322266e-01) (1, -2.33711078763008117676e-01) (2, 8.58015641570091247559e-02) (3, -4.03653457760810852051e-02) (4, 1.42048612236976623535e-01) (5, -6.40664696693420410156e-02) (6, -2.13698446750640869141e-01) (7, -1.33391544222831726074e-01) (8, -6.63144052028656005859e-01) (9, -2.39759273827075958252e-02) (10, 2.36831814050674438477e-01) (11, -9.75531060248613357544e-03) (12, 9.74036678671836853027e-02) (13, -1.00394248962402343750e-01) (14, -4.94580686092376708984e-01) (15, 2.13855449110269546509e-02) (16, -3.10101896524429321289e-01) (17, 2.62765232473611831665e-02) (18, 3.93435716629028320312e-01) (19, 3.44979673624038696289e-01) (20, 2.05803111195564270020e-01) (21, 1.61989629268646240234e-01) (22, 2.38686785101890563965e-01) (23, 8.36795866489410400391e-02) (24, 2.05224342644214630127e-02) (25, 7.45744071900844573975e-03) (26, 1.63040101528167724609e-01) (27, 1.42038419842720031738e-01) (28, -2.08287507295608520508e-01) (29, 3.32800745964050292969e-01) (30, 2.99559384584426879883e-01) (31, 2.21037939190864562988e-01) (32, 9.70796197652816772461e-02) (33, 2.80293315649032592773e-01) (34, 3.21445912122726440430e-01) (35, 5.10776102542877197266e-01) (36, 1.16708196699619293213e-01) (37, 1.21715649962425231934e-01) (38, 2.35575571656227111816e-01) (39, -4.34662967920303344727e-01) (40, 1.55206888914108276367e-01) (41, 1.94116175174713134766e-01) (42, 1.29499226808547973633e-01) (43, 3.01185190677642822266e-01) (44, -2.40330979228019714355e-01) (45, -1.57357111573219299316e-01) (46, -3.10839980840682983398e-01) (47, -4.95346188545227050781e-01) (48, -1.83180296421051025391e+00) (0, -1.45359694957733154297e-01) (1, -2.70096622407436370850e-02) (2, -1.19568936526775360107e-01) (3, -1.45033225417137145996e-01) (4, -6.11570216715335845947e-02) (5, -4.72221300005912780762e-02) (6, -9.68868434429168701172e-02) (7, -9.80306789278984069824e-03) (8, -6.44852966070175170898e-03) (9, -2.07392826676368713379e-01) (10, 9.36404615640640258789e-03) (11, -4.04287725687026977539e-02) (12, -2.91328251361846923828e-01) (13, -3.38007733225822448730e-02) (14, -6.60083740949630737305e-02) (15, 8.61383858136832714081e-04) (16, -1.39747709035873413086e-01) (17, -1.78432777523994445801e-01) (18, 4.00673272088170051575e-03) (19, -1.27422153949737548828e-01) (20, -1.24143429100513458252e-01) (21, -9.41543802618980407715e-02) (22, -3.52914072573184967041e-02) (23, -9.09858122467994689941e-02) (24, -4.48538810014724731445e-02) (25, -1.19313850998878479004e-01) (26, -1.60742580890655517578e-01) (27, -1.32182613015174865723e-01) (28, -2.77607947587966918945e-01) (29, -9.04109925031661987305e-02) (30, -5.15472702682018280029e-02) (31, 1.66182294487953186035e-02) (32, -1.06325708329677581787e-01) (33, -1.42102986574172973633e-01) (34, -1.22932670637965202332e-02) (35, -1.55284956097602844238e-01) (36, -4.25616353750228881836e-02) (37, -9.93983224034309387207e-02) (38, 5.70519343018531799316e-02) (39, 9.77364555001258850098e-03) (40, -7.40819051861763000488e-02) (41, -5.04067465662956237793e-02) (42, -5.34134032204747200012e-03) (43, -1.57045632600784301758e-01) (44, -1.75572931766510009766e-01) (45, -1.53010502457618713379e-01) (46, -1.37811526656150817871e-01) (47, -4.16430346667766571045e-02) (48, -1.61339735984802246094e+00) (0, 9.77729111909866333008e-02) (1, 8.31422023475170135498e-03) (2, 1.43838375806808471680e-01) (3, 2.69565079361200332642e-02) (4, -6.10222555696964263916e-02) (5, 9.05998647212982177734e-02) (6, -1.69193103909492492676e-01) (7, -1.35441064834594726562e-01) (8, -5.71119710803031921387e-02) (9, 6.95087462663650512695e-02) (10, 1.76324546337127685547e-02) (11, -1.60729974508285522461e-01) (12, -8.01865905523300170898e-02) (13, 3.22731286287307739258e-02) (14, -3.04580889642238616943e-02) (15, -4.26004201173782348633e-01) (16, 1.08999662101268768311e-01) (17, 6.98831602931022644043e-02) (18, 2.38114465028047561646e-02) (19, -8.32934305071830749512e-02) (20, -3.61130118370056152344e-01) (21, -2.38760203123092651367e-01) (22, -9.49159413576126098633e-02) (23, 2.82504498958587646484e-01) (24, 1.43997952342033386230e-01) (25, 1.53622657060623168945e-01) (26, 2.37828448414802551270e-01) (27, 1.02140214294195175171e-02) (28, -1.75515279173851013184e-01) (29, 1.65056101977825164795e-02) (30, 1.87910094857215881348e-01) (31, 3.26556384563446044922e-01) (32, -2.95119080692529678345e-02) (33, 2.10419610142707824707e-01) (34, 2.00381740927696228027e-01) (35, 9.00621563196182250977e-02) (36, -1.10001862049102783203e-01) (37, 1.83991804718971252441e-01) (38, 1.17654472589492797852e-01) (39, 1.58900871872901916504e-01) (40, -1.17950454354286193848e-01) (41, 7.36452862620353698730e-02) (42, -6.45676776766777038574e-02) (43, 1.79747357964515686035e-01) (44, 3.43527435325086116791e-03) (45, 7.25079327821731567383e-02) (46, -3.05501874536275863647e-02) (47, 1.67814075946807861328e-01) (48, -1.67450964450836181641e+00) (0, -2.73516047745943069458e-02) (1, -7.33543783426284790039e-02) (2, -1.41245990991592407227e-01) (3, -1.13797612488269805908e-01) (4, -2.85821169614791870117e-01) (5, -1.20642311871051788330e-01) (6, -3.74738797545433044434e-02) (7, -9.55635309219360351562e-02) (8, -1.67868122458457946777e-01) (9, -2.36607149243354797363e-01) (10, -1.97561681270599365234e-01) (11, -1.40668034553527832031e-01) (12, -2.90446102619171142578e-01) (13, -1.73919200897216796875e-01) (14, -9.05274376273155212402e-02) (15, -1.48855196312069892883e-02) (16, -8.44616889953613281250e-02) (17, -1.03405684232711791992e-01) (18, -2.44370549917221069336e-01) (19, -2.73689746856689453125e-01) (20, -2.76527792215347290039e-01) (21, -3.06363344192504882812e-01) (22, -2.60204255580902099609e-01) (23, -2.73504644632339477539e-01) (24, -4.52032312750816345215e-02) (25, -1.47845938801765441895e-01) (26, -1.59051492810249328613e-01) (27, -2.84837961196899414062e-01) (28, -3.70517730712890625000e-01) (29, -2.55360424518585205078e-01) (30, -2.07265883684158325195e-01) (31, -2.16989159584045410156e-01) (32, -3.18332314491271972656e-02) (33, -2.21364825963973999023e-01) (34, -1.54825851321220397949e-01) (35, -3.14657360315322875977e-01) (36, -3.00237685441970825195e-01) (37, -2.83592700958251953125e-01) (38, -2.09789574146270751953e-01) (39, -8.43059122562408447266e-02) (40, 3.23821082711219787598e-02) (41, -1.80495604872703552246e-01) (42, -1.20243780314922332764e-01) (43, -2.71302312612533569336e-01) (44, -3.55716168880462646484e-01) (45, -1.58320724964141845703e-01) (46, -1.95219293236732482910e-01) (47, -1.93326890468597412109e-01) (48, -1.40679097175598144531e+00) (0, -4.01823744177818298340e-02) (1, -4.03716117143630981445e-02) (2, 1.04490257799625396729e-01) (3, -4.16129454970359802246e-02) (4, -1.21389724314212799072e-01) (5, -6.05080276727676391602e-02) (6, -2.46526330709457397461e-01) (7, -9.53332781791687011719e-02) (8, -1.92723557353019714355e-01) (9, -8.14818590879440307617e-02) (10, 6.27595372498035430908e-03) (11, -5.35672269761562347412e-02) (12, -3.20638120174407958984e-01) (13, -1.30308941006660461426e-01) (14, -2.81779821962118148804e-02) (15, -1.91485404968261718750e-01) (16, 1.51001632213592529297e-01) (17, -1.49057552218437194824e-01) (18, 1.32471203804016113281e-01) (19, -4.90514039993286132812e-02) (20, -3.02913695573806762695e-01) (21, -6.33300989866256713867e-02) (22, 8.46626982092857360840e-02) (23, 1.68688729405403137207e-01) (24, -1.79230626672506332397e-02) (25, 6.87120184302330017090e-02) (26, 1.38993650674819946289e-01) (27, 7.35168308019638061523e-02) (28, -2.97544896602630615234e-01) (29, 1.80120483040809631348e-01) (30, 3.56025636196136474609e-01) (31, 3.94311308860778808594e-01) (32, -8.16159229725599288940e-03) (33, 1.46801680326461791992e-01) (34, 2.61729151010513305664e-01) (35, 2.94502675533294677734e-01) (36, -7.41568878293037414551e-02) (37, 2.21587836742401123047e-01) (38, 3.98654490709304809570e-01) (39, 1.55470430850982666016e-01) (40, -1.25421732664108276367e-01) (41, 3.45118790864944458008e-02) (42, 4.64845634996891021729e-02) (43, 2.25174933671951293945e-01) (44, -5.63770979642868041992e-02) (45, 2.53710784018039703369e-02) (46, 3.92308458685874938965e-02) (47, 1.09648145735263824463e-01) (48, -1.70212650299072265625e+00) (0, -3.15433025360107421875e-01) (1, -2.35961079597473144531e-02) (2, 2.38138422369956970215e-01) (3, -3.85971330106258392334e-02) (4, 3.20344358682632446289e-01) (5, -1.69695600867271423340e-01) (6, -7.07052707672119140625e-01) (7, -2.83001482486724853516e-01) (8, 3.91311049461364746094e-02) (9, 3.98498058319091796875e-01) (10, 5.86976528167724609375e-01) (11, 2.47936934232711791992e-01) (12, -1.68562173843383789062e-01) (13, -8.95527958869934082031e-01) (14, -8.67107331752777099609e-01) (15, 7.22314184531569480896e-03) (16, 3.75592917203903198242e-01) (17, 7.90651857852935791016e-01) (18, 2.23469510674476623535e-01) (19, -6.90010860562324523926e-02) (20, 2.77720123529434204102e-01) (21, -1.25272840261459350586e-01) (22, 4.75044250488281250000e-01) (23, 3.47002387046813964844e-01) (24, 5.66009163856506347656e-01) (25, 1.27870608121156692505e-02) (26, 3.22768956422805786133e-01) (27, -3.47140699625015258789e-01) (28, -4.59317624568939208984e-01) (29, -5.32430052757263183594e-01) (30, -1.16202756762504577637e-01) (31, 4.54375147819519042969e-01) (32, 1.72935396432876586914e-01) (33, 2.71283179521560668945e-01) (34, 1.06055639684200286865e-01) (35, -7.68415689468383789062e-01) (36, -7.03812241554260253906e-02) (37, -3.04677546024322509766e-01) (38, 4.23967719078063964844e-01) (39, -1.98616325855255126953e-01) (40, -8.50487872958183288574e-02) (41, -9.89081487059593200684e-02) (42, -7.62533247470855712891e-01) (43, -3.95335167646408081055e-01) (44, -1.95877566933631896973e-01) (45, -6.60834133625030517578e-01) (46, -1.19538441300392150879e-01) (47, -3.27042043209075927734e-01) (48, -1.82098603248596191406e+00) (0, -2.01268360018730163574e-01) (1, -4.27123069763183593750e-01) (2, -7.03133702278137207031e-01) (3, -4.33041572570800781250e-01) (4, -5.70862412452697753906e-01) (5, -2.64037311077117919922e-01) (6, -3.10300648212432861328e-01) (7, -4.20222252607345581055e-01) (8, 7.50708878040313720703e-02) (9, -1.61323383450508117676e-01) (10, -9.93320159614086151123e-03) (11, -3.29206734895706176758e-01) (12, -8.80705356597900390625e-01) (13, -6.51974678039550781250e-01) (14, -3.45685839653015136719e-01) (15, -4.17799860239028930664e-01) (16, 3.96862685680389404297e-01) (17, -1.48151680827140808105e-01) (18, -1.42539724707603454590e-01) (19, -4.35772955417633056641e-01) (20, -4.79157865047454833984e-01) (21, -5.11218070983886718750e-01) (22, -4.07517910003662109375e-01) (23, -5.76541066169738769531e-01) (24, 6.23722791671752929688e-01) (25, 1.69227197766304016113e-01) (26, 3.60753089189529418945e-01) (27, -2.78849363327026367188e-01) (28, -1.34552747011184692383e-01) (29, -4.60396081209182739258e-01) (30, -2.63565003871917724609e-01) (31, -5.12529432773590087891e-01) (32, -4.22389924526214599609e-01) (33, 1.83954983949661254883e-01) (34, 3.27975243330001831055e-01) (35, 1.74880534410476684570e-01) (36, -4.70707088708877563477e-01) (37, -1.50415584444999694824e-01) (38, -3.00281673669815063477e-01) (39, -4.40722376108169555664e-01) (40, -5.48448026180267333984e-01) (41, -2.47682392597198486328e-01) (42, 3.08012306690216064453e-01) (43, 4.51633781194686889648e-01) (44, -3.11796128749847412109e-01) (45, 2.64274943619966506958e-02) (46, -2.14367032051086425781e-01) (47, -1.26934394240379333496e-01) (48, -1.68412530422210693359e+00) (0, -1.15579970180988311768e-01) (1, -1.81115925312042236328e-01) (2, -2.86020904779434204102e-01) (3, -2.21989795565605163574e-01) (4, -3.14395338296890258789e-01) (5, -8.06655287742614746094e-02) (6, -1.90329756587743759155e-02) (7, -3.13492156565189361572e-02) (8, -7.51150175929069519043e-02) (9, -3.75953227281570434570e-01) (10, -3.59676331281661987305e-01) (11, -4.04398351907730102539e-01) (12, -2.80867218971252441406e-01) (13, -1.74526914954185485840e-01) (14, 1.31605699658393859863e-01) (15, 6.19739927351474761963e-02) (16, -2.80580878257751464844e-01) (17, -5.10391354560852050781e-01) (18, -3.49267274141311645508e-01) (19, -5.12861251831054687500e-01) (20, -4.24399495124816894531e-01) (21, -3.23320031166076660156e-01) (22, -2.81595349311828613281e-01) (23, -1.84746712446212768555e-01) (24, -2.73524463176727294922e-01) (25, -3.59752565622329711914e-01) (26, -4.13565993309020996094e-01) (27, -5.46680808067321777344e-01) (28, -4.44360554218292236328e-01) (29, -4.84011888504028320312e-01) (30, -3.27945858240127563477e-01) (31, -3.77591967582702636719e-01) (32, 1.46500587463378906250e-01) (33, -5.74882388114929199219e-01) (34, -4.00210022926330566406e-01) (35, -6.47631049156188964844e-01) (36, -4.30302947759628295898e-01) (37, -4.06638085842132568359e-01) (38, -4.89786386489868164062e-01) (39, -7.76008069515228271484e-02) (40, 9.05429571866989135742e-02) (41, -1.90232604742050170898e-01) (42, -7.19903483986854553223e-02) (43, -7.52176702022552490234e-01) (44, -5.82236707210540771484e-01) (45, -3.45603853464126586914e-01) (46, -2.63910919427871704102e-01) (47, -1.46652117371559143066e-01) (48, -1.01152729988098144531e+00) (0, -1.18642218410968780518e-01) (1, -2.10802689194679260254e-01) (2, -2.51981288194656372070e-01) (3, -5.36273121833801269531e-01) (4, -6.63445353507995605469e-01) (5, -4.69947904348373413086e-01) (6, -4.09095823764801025391e-01) (7, -5.28089702129364013672e-01) (8, 4.15004670619964599609e-01) (9, 5.38102984428405761719e-01) (10, 7.72512853145599365234e-01) (11, 5.89019119739532470703e-01) (12, -1.34785330295562744141e+00) (13, -1.32246065139770507812e+00) (14, -6.71810686588287353516e-01) (15, -8.06463837623596191406e-01) (16, 4.59307789802551269531e-01) (17, 7.83737778663635253906e-01) (18, 2.30170533061027526855e-01) (19, 6.12648129463195800781e-01) (20, 9.86995249986648559570e-02) (21, -2.81960159540176391602e-01) (22, -5.37958085536956787109e-01) (23, -6.80526494979858398438e-01) (24, 4.87828850746154785156e-01) (25, 5.03669917583465576172e-01) (26, 8.30588817596435546875e-01) (27, 7.41241097450256347656e-01) (28, 9.03340399265289306641e-01) (29, 2.93030321598052978516e-01) (30, -2.79733896255493164062e-01) (31, -2.50859379768371582031e-01) (32, -1.09757542610168457031e+00) (33, 1.18240259587764739990e-01) (34, 3.77283275127410888672e-01) (35, 6.52929484844207763672e-01) (36, 3.51011365652084350586e-01) (37, 4.19438391923904418945e-01) (38, 5.88510215282440185547e-01) (39, -4.56343531608581542969e-01) (40, -7.75985419750213623047e-01) (41, -3.03752362728118896484e-01) (42, 2.67445296049118041992e-02) (43, 5.22612750530242919922e-01) (44, 3.43647807836532592773e-01) (45, 1.06298995018005371094e+00) (46, 3.13200592994689941406e-01) (47, 2.39314943552017211914e-01) (48, -2.75998377799987792969e+00) (0, -2.29608699679374694824e-01) (1, -3.27236235141754150391e-01) (2, -7.24408179521560668945e-02) (3, -3.28282445669174194336e-01) (4, -7.99778223037719726562e-01) (5, -4.12761241197586059570e-01) (6, -3.87162774801254272461e-01) (7, 2.33601987361907958984e-01) (8, -3.47785800695419311523e-01) (9, -4.90809351205825805664e-01) (10, -6.92477300763130187988e-02) (11, -9.42904725670814514160e-02) (12, -7.03018605709075927734e-01) (13, -5.13082407414913177490e-02) (14, 1.21513068675994873047e-01) (15, 3.18177193403244018555e-01) (16, -2.58437871932983398438e-01) (17, -7.31774032115936279297e-01) (18, 6.24180398881435394287e-02) (19, -1.34927019476890563965e-01) (20, -1.64556190371513366699e-01) (21, 3.09619873762130737305e-01) (22, 4.36241596937179565430e-01) (23, 3.74646067619323730469e-01) (24, -3.08395266532897949219e-01) (25, -4.93851751089096069336e-01) (26, -5.03662526607513427734e-01) (27, -2.30018217116594314575e-02) (28, 1.12592196092009544373e-02) (29, 2.03048869967460632324e-01) (30, 6.11083388328552246094e-01) (31, 5.14589250087738037109e-01) (32, 1.34074121713638305664e-01) (33, -3.28604072332382202148e-01) (34, -1.80538017302751541138e-02) (35, 8.57698976993560791016e-01) (36, 1.30265876650810241699e-01) (37, 3.19724529981613159180e-01) (38, 9.14984881877899169922e-01) (39, -1.77307367324829101562e-01) (40, -1.24299906194210052490e-01) (41, 1.12001039087772369385e-01) (42, 6.37353003025054931641e-01) (43, 4.33601588010787963867e-01) (44, -9.65147614479064941406e-02) (45, 2.86531746387481689453e-01) (46, 2.16957002878189086914e-01) (47, -2.83500641584396362305e-01) (48, -2.17302656173706054688e+00) (0, -9.87994968891143798828e-02) (1, 5.15672042965888977051e-02) (2, -7.71033838391304016113e-02) (3, -1.65798112750053405762e-01) (4, 1.25725090503692626953e-01) (5, 4.64173685759305953979e-03) (6, -1.92706629633903503418e-01) (7, -2.74339944124221801758e-01) (8, 9.90231335163116455078e-02) (9, 8.39332342147827148438e-02) (10, 1.37267142534255981445e-01) (11, 7.40175768733024597168e-02) (12, -1.09775178134441375732e-01) (13, -3.62831979990005493164e-01) (14, -8.64225551486015319824e-02) (15, -1.05841569602489471436e-01) (16, 2.49724805355072021484e-01) (17, 2.95022934675216674805e-01) (18, -4.54062363132834434509e-03) (19, -2.38336753100156784058e-02) (20, 8.97592231631278991699e-02) (21, 7.27601274847984313965e-02) (22, 2.55826234817504882812e-01) (23, 2.77302622795104980469e-01) (24, 2.03122854232788085938e-01) (25, 8.85677039623260498047e-02) (26, 8.30636993050575256348e-02) (27, -1.14897802472114562988e-01) (28, -9.92856696248054504395e-02) (29, -4.36016321182250976562e-02) (30, 2.05018550157546997070e-01) (31, 3.96536827087402343750e-01) (32, -2.32491195201873779297e-01) (33, 2.89611101150512695312e-01) (34, 1.86876952648162841797e-01) (35, -9.08506959676742553711e-02) (36, 2.04994180239737033844e-03) (37, 1.09357155859470367432e-01) (38, 1.24430499970912933350e-01) (39, 2.65282746404409408569e-02) (40, -1.36542230844497680664e-01) (41, 1.43630921840667724609e-01) (42, -1.80918931961059570312e-01) (43, 2.03490972518920898438e-01) (44, 4.84653636813163757324e-02) (45, -5.36992475390434265137e-02) (46, 2.92170513421297073364e-02) (47, -1.54021039605140686035e-01) (48, -1.66432237625122070312e+00) (0, 9.06127169728279113770e-02) (1, -3.57363373041152954102e-02) (2, -2.14800655841827392578e-01) (3, 9.06913951039314270020e-02) (4, -2.62371718883514404297e-01) (5, -6.72650635242462158203e-02) (6, -1.37626096606254577637e-01) (7, -2.49200046062469482422e-01) (8, 4.85462062060832977295e-02) (9, -2.77433186769485473633e-01) (10, -2.50502645969390869141e-01) (11, -3.40922743082046508789e-01) (12, -4.56127710640430450439e-03) (13, -5.69701679050922393799e-02) (14, 9.33466553688049316406e-02) (15, -1.95568814873695373535e-01) (16, -2.05923512578010559082e-01) (17, -4.03550177812576293945e-01) (18, -1.54433444142341613770e-01) (19, -3.78047615289688110352e-01) (20, -3.13711822032928466797e-01) (21, -2.03340411186218261719e-01) (22, -2.05049350857734680176e-01) (23, -4.09575216472148895264e-02) (24, -2.78370350599288940430e-01) (25, -4.33298587799072265625e-01) (26, -3.06131601333618164062e-01) (27, -4.06288236379623413086e-01) (28, -2.38872289657592773438e-01) (29, -4.39627796411514282227e-01) (30, -1.86033174395561218262e-01) (31, -3.48531037569046020508e-01) (32, -2.78502434492111206055e-01) (33, -5.97404241561889648438e-01) (34, -4.60277080535888671875e-01) (35, -5.59906363487243652344e-01) (36, -4.06415134668350219727e-01) (37, -2.12487131357192993164e-01) (38, -3.86766701936721801758e-01) (39, -1.29534140229225158691e-01) (40, -1.25436440110206604004e-01) (41, -4.03269350528717041016e-01) (42, -1.65608853101730346680e-01) (43, -5.52978813648223876953e-01) (44, -5.26882946491241455078e-01) (45, -1.85223147273063659668e-01) (46, -1.22220069169998168945e-01) (47, 1.84101909399032592773e-02) (48, -1.24518239498138427734e+00) (0, 2.13413402438163757324e-01) (1, 2.99384266138076782227e-01) (2, 3.34198683500289916992e-01) (3, 3.93655598163604736328e-01) (4, 3.52976247668266296387e-02) (5, 1.56663700938224792480e-01) (6, -7.30982199311256408691e-02) (7, 4.17476184666156768799e-02) (8, -2.01751943677663803101e-02) (9, 1.67189966887235641479e-02) (10, 3.81229668855667114258e-02) (11, -2.73004829883575439453e-01) (12, 8.41173753142356872559e-02) (13, 4.55782026052474975586e-01) (14, 4.18720692396163940430e-01) (15, -4.26092207431793212891e-01) (16, 9.55655891448259353638e-03) (17, -1.93299099802970886230e-01) (18, 1.37239083647727966309e-01) (19, -1.25106960535049438477e-01) (20, -5.62949597835540771484e-01) (21, -8.56026113033294677734e-02) (22, -1.33417114615440368652e-01) (23, 1.01181221008300781250e+00) (24, -3.11681598424911499023e-01) (25, 7.86426439881324768066e-02) (26, -4.37935162335634231567e-03) (27, -1.83548703789710998535e-01) (28, -1.81734994053840637207e-01) (29, 3.41071598231792449951e-02) (30, 4.69306647777557373047e-01) (31, 4.75898444652557373047e-01) (32, -1.91419079899787902832e-01) (33, -3.02716761827468872070e-01) (34, 2.32848823070526123047e-01) (35, -2.52701509743928909302e-02) (36, -5.50816893577575683594e-01) (37, 1.06324911117553710938e-01) (38, -8.29598959535360336304e-03) (39, 1.51203244924545288086e-01) (40, -1.99386149644851684570e-01) (41, -8.79545807838439941406e-02) (42, -2.67631471157073974609e-01) (43, -2.54683315753936767578e-01) (44, 1.91461183130741119385e-02) (45, -1.36962637305259704590e-01) (46, -7.20849493518471717834e-03) (47, -3.92388142645359039307e-02) (48, -2.04532480239868164062e+00) (0, -4.55154553055763244629e-02) (1, -9.23882052302360534668e-02) (2, -1.17463916540145874023e-01) (3, -2.43537053465843200684e-01) (4, -1.49125173687934875488e-01) (5, -1.64335831999778747559e-01) (6, -1.66323974728584289551e-01) (7, -2.23247647285461425781e-01) (8, 2.96717826277017593384e-02) (9, 2.77853962033987045288e-02) (10, 2.43971333838999271393e-03) (11, -3.11151593923568725586e-02) (12, -1.57404854893684387207e-01) (13, -2.65346974134445190430e-01) (14, -2.41271212697029113770e-01) (15, -3.33906412124633789062e-01) (16, 3.16297948360443115234e-01) (17, 1.84071525931358337402e-01) (18, -6.54565393924713134766e-02) (19, -8.60596746206283569336e-02) (20, -1.84404030442237854004e-01) (21, 6.20465688407421112061e-02) (22, 1.57728478312492370605e-01) (23, 1.68837234377861022949e-01) (24, 3.02490502595901489258e-01) (25, 1.72598913311958312988e-01) (26, 2.40299850702285766602e-01) (27, 8.99009034037590026855e-02) (28, 2.83497348427772521973e-02) (29, -1.81097552180290222168e-01) (30, 1.02849137037992477417e-02) (31, 1.00367859005928039551e-01) (32, -3.12127172946929931641e-01) (33, 5.65508231520652770996e-02) (34, 9.39725562930107116699e-02) (35, 4.28682379424571990967e-02) (36, -2.86750167608261108398e-01) (37, 1.29717662930488586426e-01) (38, -3.53842116892337799072e-02) (39, -1.13492242991924285889e-01) (40, -3.93742293119430541992e-01) (41, -7.93121829628944396973e-02) (42, -9.41922962665557861328e-02) (43, -2.66405865550041198730e-02) (44, -1.02635450661182403564e-01) (45, 1.15484133362770080566e-01) (46, -2.05922336317598819733e-03) (47, -6.92926570773124694824e-02) (48, -1.69099569320678710938e+00) (0, 1.08324503526091575623e-02) (1, -4.85016852617263793945e-02) (2, -9.04655605554580688477e-02) (3, -1.12106420099735260010e-01) (4, -1.65243625640869140625e-01) (5, -1.05070687830448150635e-01) (6, -7.04352334141731262207e-02) (7, -5.00935092568397521973e-02) (8, -1.46178856492042541504e-01) (9, -2.59919166564941406250e-01) (10, -1.72874718904495239258e-01) (11, -2.09166586399078369141e-01) (12, -1.85642153024673461914e-01) (13, -9.34186652302742004395e-02) (14, 9.13172438740730285645e-02) (15, -7.09839388728141784668e-02) (16, -1.57582849264144897461e-01) (17, -2.51615315675735473633e-01) (18, -1.23559162020683288574e-01) (19, -2.46811926364898681641e-01) (20, -3.11029314994812011719e-01) (21, -1.69829830527305603027e-01) (22, -1.04315243661403656006e-01) (23, -3.51534523069858551025e-02) (24, -1.99066072702407836914e-01) (25, -1.40711903572082519531e-01) (26, -3.44250828027725219727e-01) (27, -3.05400848388671875000e-01) (28, -3.14913123846054077148e-01) (29, -2.81738877296447753906e-01) (30, -4.86924387514591217041e-02) (31, 7.57992081344127655029e-03) (32, -1.68642848730087280273e-01) (33, -3.02044838666915893555e-01) (34, -2.30587556958198547363e-01) (35, -3.02540183067321777344e-01) (36, -3.59548866748809814453e-01) (37, -2.43120446801185607910e-01) (38, -1.66951417922973632812e-01) (39, -9.54158306121826171875e-02) (40, 1.74511484801769256592e-02) (41, -6.77726566791534423828e-02) (42, -2.72101853042840957642e-02) (43, -4.71154540777206420898e-01) (44, -2.89578288793563842773e-01) (45, -1.31364047527313232422e-01) (46, -7.83373266458511352539e-02) (47, -1.17340952157974243164e-01) (48, -1.48047482967376708984e+00) (0, -7.51840695738792419434e-02) (1, -2.12981738150119781494e-02) (2, -8.15909057855606079102e-02) (3, -1.83626860380172729492e-01) (4, -1.61481887102127075195e-01) (5, -1.76592648029327392578e-01) (6, -2.02353134751319885254e-01) (7, -4.19794097542762756348e-02) (8, -9.66756567358970642090e-02) (9, -3.71063798666000366211e-02) (10, -7.02432170510292053223e-03) (11, -1.11877046525478363037e-01) (12, -2.55132436752319335938e-01) (13, -1.58480718731880187988e-01) (14, -1.40480935573577880859e-01) (15, -9.20194908976554870605e-02) (16, -8.51458609104156494141e-02) (17, -4.02140319347381591797e-02) (18, -1.89313322305679321289e-01) (19, -1.67613252997398376465e-01) (20, -1.29546567797660827637e-01) (21, -1.83184921741485595703e-01) (22, -2.57701817899942398071e-02) (23, -1.35236695408821105957e-01) (24, -2.04783026129007339478e-02) (25, -1.81856349110603332520e-01) (26, -1.82797566056251525879e-01) (27, -7.32801556587219238281e-02) (28, -2.13828012347221374512e-01) (29, -2.06620007753372192383e-01) (30, -2.29183360934257507324e-01) (31, -1.99614048004150390625e-01) (32, -6.20519965887069702148e-02) (33, -1.64121799170970916748e-02) (34, -4.80542108416557312012e-02) (35, -1.24755047261714935303e-01) (36, -1.91012099385261535645e-01) (37, -1.13017104566097259521e-01) (38, -9.22711342573165893555e-02) (39, -1.89568683505058288574e-01) (40, -2.67975032329559326172e-02) (41, -7.33242779970169067383e-02) (42, -1.16121932864189147949e-01) (43, -3.65820974111557006836e-01) (44, -3.37659627199172973633e-01) (45, -2.67713248729705810547e-01) (46, -1.79428219795227050781e-01) (47, -1.07870049774646759033e-01) (48, -1.50926184654235839844e+00) (0, -1.62098467350006103516e-01) (1, -4.57916744053363800049e-02) (2, -1.46430701017379760742e-01) (3, -1.56397178769111633301e-01) (4, -1.42030537128448486328e-01) (5, -1.89962163567543029785e-01) (6, -1.02038653567433357239e-02) (7, 9.52982828021049499512e-02) (8, -2.19634890556335449219e-01) (9, -1.40883803367614746094e-01) (10, -4.70032952725887298584e-02) (11, -8.62273275852203369141e-02) (12, -3.83052706718444824219e-01) (13, -2.11823433637619018555e-01) (14, 3.90295055694878101349e-03) (15, 9.45722237229347229004e-02) (16, -1.03676497936248779297e-01) (17, -1.23832061886787414551e-01) (18, -9.09865088760852813721e-03) (19, -1.30214855074882507324e-01) (20, -1.82654067873954772949e-01) (21, -8.84091034531593322754e-02) (22, -8.62235352396965026855e-02) (23, 1.29100913181900978088e-02) (24, -1.60891979932785034180e-01) (25, -1.25311940908432006836e-01) (26, -2.33530387282371520996e-01) (27, -1.70456320047378540039e-01) (28, -2.82885551452636718750e-01) (29, -5.56415021419525146484e-02) (30, 3.13207469880580902100e-02) (31, 6.06215968728065490723e-02) (32, 5.37998937070369720459e-02) (33, -1.88850328326225280762e-01) (34, -1.31198555231094360352e-01) (35, -1.73915967345237731934e-01) (36, -2.24058255553245544434e-01) (37, -1.48679479956626892090e-01) (38, -2.43950649746693670750e-04) (39, -8.67801755666732788086e-02) (40, -4.21085283160209655762e-02) (41, -9.35019552707672119141e-02) (42, -9.54020917415618896484e-02) (43, -2.94375985860824584961e-01) (44, -2.59851187467575073242e-01) (45, -4.19729910790920257568e-02) (46, -1.62381097674369812012e-01) (47, -2.16739743947982788086e-01) (48, -1.56535470485687255859e+00) (0, -3.09267163276672363281e-01) (1, -3.46692763268947601318e-02) (2, 2.59076803922653198242e-02) (3, -4.18604649603366851807e-02) (4, -2.44138687849044799805e-01) (5, -5.63651248812675476074e-02) (6, -2.14145243167877197266e-01) (7, 8.86277109384536743164e-02) (8, -1.84104382991790771484e-01) (9, -2.09240391850471496582e-01) (10, 7.29686170816421508789e-02) (11, 1.28367647528648376465e-01) (12, -1.87934786081314086914e-01) (13, -3.12317460775375366211e-01) (14, -2.60071843862533569336e-01) (15, 9.85028520226478576660e-02) (16, -2.36425906419754028320e-01) (17, -1.06142517179250717163e-02) (18, 8.84141679853200912476e-03) (19, 5.46710789203643798828e-02) (20, -2.26725131273269653320e-01) (21, -3.53025704622268676758e-01) (22, -3.03013902157545089722e-02) (23, -4.30093616247177124023e-01) (24, -1.40614002943038940430e-01) (25, 1.13050200045108795166e-01) (26, -1.93610534071922302246e-01) (27, -9.16861072182655334473e-02) (28, -5.87181627750396728516e-01) (29, -1.33960083127021789551e-01) (30, -4.23145353794097900391e-01) (31, -3.30764293670654296875e-01) (32, 2.24695056676864624023e-01) (33, -8.73063206672668457031e-02) (34, -3.07272046804428100586e-01) (35, -1.96739986538887023926e-01) (36, -4.20984625816345214844e-01) (37, -2.13377386331558227539e-01) (38, -7.89058879017829895020e-02) (39, -9.80943068861961364746e-02) (40, 2.04324349761009216309e-01) (41, -1.89454585313796997070e-01) (42, -5.68833351135253906250e-02) (43, -6.10482871532440185547e-01) (44, -5.73697388172149658203e-01) (45, -3.18154513835906982422e-01) (46, -2.18861907720565795898e-01) (47, -2.52165853977203369141e-01) (48, -1.47351574897766113281e+00) (0, -3.32292355597019195557e-02) (1, -1.57253473997116088867e-01) (2, -1.40224859118461608887e-01) (3, -1.14970162510871887207e-01) (4, -3.91714841127395629883e-01) (5, -2.22869291901588439941e-01) (6, -4.55717407166957855225e-02) (7, -1.36724069714546203613e-01) (8, 1.72569416463375091553e-02) (9, -2.98776149749755859375e-01) (10, -2.62891650199890136719e-01) (11, -2.03012987971305847168e-01) (12, -3.13510775566101074219e-01) (13, -1.23013615608215332031e-01) (14, -3.51693248376250267029e-03) (15, 9.02236066758632659912e-03) (16, -2.31715232133865356445e-01) (17, -3.82376462221145629883e-01) (18, -1.43126890063285827637e-01) (19, -3.53978812694549560547e-01) (20, -2.17999249696731567383e-01) (21, -3.25987428426742553711e-01) (22, -2.78540968894958496094e-01) (23, -3.48252028226852416992e-01) (24, -3.28488796949386596680e-01) (25, -2.16930463910102844238e-01) (26, -4.03959780931472778320e-01) (27, -4.12843823432922363281e-01) (28, -2.73629486560821533203e-01) (29, -3.11660110950469970703e-01) (30, -3.51618945598602294922e-01) (31, -3.09884160757064819336e-01) (32, -1.33276894688606262207e-01) (33, -3.38325262069702148438e-01) (34, -4.80558931827545166016e-01) (35, -6.05671107769012451172e-01) (36, -3.07820826768875122070e-01) (37, -2.61329978704452514648e-01) (38, -3.54874968528747558594e-01) (39, -8.58899671584367752075e-03) (40, 5.73550583794713020325e-03) (41, -2.62406140565872192383e-01) (42, -1.03831507265567779541e-01) (43, -6.86734616756439208984e-01) (44, -4.30415332317352294922e-01) (45, -2.49240815639495849609e-01) (46, -3.58931049704551696777e-02) (47, -7.96273723244667053223e-02) (48, -1.16136968135833740234e+00) (0, -3.55426594614982604980e-02) (1, -4.85038831830024719238e-02) (2, -7.22557157278060913086e-02) (3, -1.87264963984489440918e-01) (4, -5.12881815433502197266e-01) (5, -5.21277301013469696045e-02) (6, -2.16444581747055053711e-01) (7, 1.58966984599828720093e-02) (8, -2.39021232118830084801e-04) (9, -2.34214901924133300781e-01) (10, -2.07789793610572814941e-01) (11, -2.08425462245941162109e-01) (12, -4.44441318511962890625e-01) (13, -2.23796397447586059570e-01) (14, -6.89499154686927795410e-02) (15, 1.19590140879154205322e-01) (16, -1.54903843998908996582e-01) (17, -9.22003164887428283691e-02) (18, -2.53455400466918945312e-01) (19, -3.25877606868743896484e-01) (20, -5.00499188899993896484e-01) (21, -5.49032807350158691406e-01) (22, -4.17509406805038452148e-01) (23, -6.25484466552734375000e-01) (24, 1.13691739737987518311e-01) (25, -1.56837061047554016113e-01) (26, -2.21422806382179260254e-01) (27, -4.34653013944625854492e-01) (28, -5.54318726062774658203e-01) (29, -4.99525517225265502930e-01) (30, -6.41595542430877685547e-01) (31, -8.16296398639678955078e-01) (32, 2.32808917760848999023e-01) (33, -4.30297583341598510742e-01) (34, -3.79389375448226928711e-01) (35, -5.31436324119567871094e-01) (36, -5.97159504890441894531e-01) (37, -4.32735353708267211914e-01) (38, -5.12606382369995117188e-01) (39, 7.51511901617050170898e-02) (40, 2.72310897707939147949e-02) (41, -2.64601022005081176758e-01) (42, -1.69829264283180236816e-01) (43, -7.09778308868408203125e-01) (44, -7.89949536323547363281e-01) (45, -3.20752084255218505859e-01) (46, 7.68198445439338684082e-03) (47, -8.06047469377517700195e-02) (48, -1.02767193317413330078e+00) (0, -2.16638520359992980957e-01) (1, -2.15779721736907958984e-01) (2, -1.91386312246322631836e-01) (3, -2.02978298068046569824e-01) (4, -5.03061532974243164062e-01) (5, -3.45462560653686523438e-01) (6, 8.70554707944393157959e-03) (7, 6.30864873528480529785e-02) (8, -1.17358349263668060303e-01) (9, -3.90602380037307739258e-01) (10, -9.71203073859214782715e-02) (11, -1.63974881172180175781e-01) (12, -5.32617032527923583984e-01) (13, -1.28718152642250061035e-01) (14, -8.06807801127433776855e-02) (15, 2.28631213307380676270e-01) (16, -3.52003455162048339844e-01) (17, -3.93640697002410888672e-01) (18, -1.88199728727340698242e-01) (19, -4.00467157363891601562e-01) (20, -3.10246437788009643555e-01) (21, -3.48636776208877563477e-01) (22, -1.36666119098663330078e-01) (23, -3.72245639562606811523e-01) (24, -4.11597639322280883789e-01) (25, -3.30257773399353027344e-01) (26, -4.42291676998138427734e-01) (27, -3.91472280025482177734e-01) (28, -3.76263618469238281250e-01) (29, -3.79545867443084716797e-01) (30, -4.18297380208969116211e-01) (31, -2.57194370031356811523e-01) (32, 7.12728649377822875977e-02) (33, -4.81018364429473876953e-01) (34, -6.43754601478576660156e-01) (35, -7.90343344211578369141e-01) (36, -3.59604805707931518555e-01) (37, -4.38953340053558349609e-01) (38, -1.74346774816513061523e-01) (39, -1.70931488275527954102e-01) (40, 2.34419628977775573730e-01) (41, -1.36575162410736083984e-01) (42, 5.28258010745048522949e-02) (43, -9.52869713306427001953e-01) (44, -5.92238605022430419922e-01) (45, -3.92300695180892944336e-01) (46, 4.69511374831199645996e-03) (47, -2.03364118933677673340e-01) (48, -9.72498297691345214844e-01) (0, -1.64124459028244018555e-01) (1, -2.15771630406379699707e-01) (2, -2.23694607615470886230e-01) (3, -2.36924082040786743164e-01) (4, -3.87765198945999145508e-01) (5, -7.39662796258926391602e-02) (6, -1.28510249778628349304e-02) (7, -1.11847676336765289307e-01) (8, -1.42912134528160095215e-01) (9, -3.27665895223617553711e-01) (10, -3.62010687589645385742e-01) (11, -2.96878606081008911133e-01) (12, -2.64404028654098510742e-01) (13, -3.37281115353107452393e-02) (14, 9.74662154912948608398e-02) (15, 6.58064037561416625977e-02) (16, -2.22596660256385803223e-01) (17, -2.22180426120758056641e-01) (18, -2.82998234033584594727e-01) (19, -4.63967561721801757812e-01) (20, -4.42885130643844604492e-01) (21, -3.96403223276138305664e-01) (22, -2.01495155692100524902e-01) (23, -2.54179328680038452148e-01) (24, -9.99256689101457595825e-03) (25, -1.76682949066162109375e-01) (26, -2.31837749481201171875e-01) (27, -2.67934024333953857422e-01) (28, -4.20677155256271362305e-01) (29, -2.82722890377044677734e-01) (30, -4.13205683231353759766e-01) (31, -4.82634365558624267578e-01) (32, 5.00350520014762878418e-02) (33, -3.13705474138259887695e-01) (34, -2.44996830821037292480e-01) (35, -4.94066774845123291016e-01) (36, -4.94536042213439941406e-01) (37, -3.50967586040496826172e-01) (38, -3.86699080467224121094e-01) (39, -9.80130285024642944336e-02) (40, 1.39401599764823913574e-01) (41, -1.14261321723461151123e-01) (42, -2.03117504715919494629e-01) (43, -5.60687005519866943359e-01) (44, -4.75417643785476684570e-01) (45, -3.64106923341751098633e-01) (46, -1.23433664441108703613e-01) (47, -3.54853123426437377930e-02) (48, -1.19945132732391357422e+00) (0, 6.21769651770591735840e-02) (1, -1.74119427800178527832e-01) (2, -2.35906466841697692871e-01) (3, -1.89388707280158996582e-01) (4, -3.62354457378387451172e-01) (5, -2.85086575895547866821e-02) (6, -1.50290310382843017578e-01) (7, -4.72799018025398254395e-02) (8, 1.71496383845806121826e-02) (9, -1.89447849988937377930e-01) (10, -2.41653218865394592285e-01) (11, -1.56212925910949707031e-01) (12, -2.55393087863922119141e-01) (13, -1.53328686952590942383e-01) (14, -3.94271798431873321533e-02) (15, -9.44065675139427185059e-02) (16, -1.18038982152938842773e-01) (17, -2.15261623263359069824e-01) (18, -1.72696769237518310547e-01) (19, -2.28937104344367980957e-01) (20, -2.58253186941146850586e-01) (21, -3.39343577623367309570e-01) (22, -2.19302773475646972656e-01) (23, -2.88980603218078613281e-01) (24, -5.10799996554851531982e-02) (25, -1.30193442106246948242e-01) (26, -1.16858564317226409912e-01) (27, -3.21145296096801757812e-01) (28, -2.74420261383056640625e-01) (29, -2.28135034441947937012e-01) (30, -2.98971772193908691406e-01) (31, -3.95057380199432373047e-01) (32, 4.51043434441089630127e-02) (33, -2.58299440145492553711e-01) (34, -1.66245475411415100098e-01) (35, -2.78471052646636962891e-01) (36, -4.23113167285919189453e-01) (37, -1.39472737908363342285e-01) (38, -2.33553528785705566406e-01) (39, -8.20120796561241149902e-02) (40, -1.10035657882690429688e-01) (41, -8.13790038228034973145e-02) (42, -1.27286836504936218262e-01) (43, -3.51082831621170043945e-01) (44, -4.00680273771286010742e-01) (45, -2.33674079179763793945e-01) (46, -7.26113915443420410156e-02) (47, -6.08820430934429168701e-02) (48, -1.40625190734863281250e+00) (0, 6.58494457602500915527e-02) (1, -8.72784759849309921265e-03) (2, 2.53947108983993530273e-01) (3, 1.72315672039985656738e-01) (4, -7.90807425975799560547e-01) (5, -5.77536106109619140625e-01) (6, -3.55510443449020385742e-01) (7, -7.06283673644065856934e-02) (8, 6.60263955593109130859e-01) (9, -2.16756969690322875977e-01) (10, -1.16032548248767852783e-01) (11, -3.42958152294158935547e-01) (12, -5.66001772880554199219e-01) (13, -5.28671825304627418518e-03) (14, -1.42420351505279541016e-01) (15, 2.30689480900764465332e-01) (16, -2.23861873149871826172e-01) (17, -2.81310200691223144531e-01) (18, -2.83540874719619750977e-01) (19, -3.17993253469467163086e-01) (20, -7.28179514408111572266e-01) (21, -6.92972183227539062500e-01) (22, -4.50367629528045654297e-01) (23, -1.03081166744232177734e+00) (24, 3.04845683276653289795e-02) (25, -3.73303771018981933594e-01) (26, -5.92961549758911132812e-01) (27, -6.71337008476257324219e-01) (28, -7.04556643962860107422e-01) (29, -6.96677863597869873047e-01) (30, -1.07282221317291259766e+00) (31, -8.22409629821777343750e-01) (32, -2.76689141988754272461e-01) (33, -6.38855576515197753906e-01) (34, -1.01636242866516113281e+00) (35, -1.44140827655792236328e+00) (36, -8.34983289241790771484e-01) (37, -6.14109516143798828125e-01) (38, -4.46601599454879760742e-01) (39, 6.03545270860195159912e-02) (40, -1.55578300356864929199e-01) (41, -7.29738116264343261719e-01) (42, -2.88098871707916259766e-01) (43, -1.90359544754028320312e+00) (44, -8.61943542957305908203e-01) (45, -4.58587169647216796875e-01) (46, 3.20424854755401611328e-01) (47, 1.78975746035575866699e-01) (48, -2.11371220648288726807e-02) (0, 3.39672788977622985840e-02) (1, -1.65157672017812728882e-02) (2, 4.48132455348968505859e-02) (3, -1.33603185415267944336e-01) (4, 1.89064461737871170044e-02) (5, -2.99558509141206741333e-02) (6, -2.40329399704933166504e-01) (7, -5.25584109127521514893e-02) (8, -7.96223208308219909668e-02) (9, 1.01446501910686492920e-01) (10, 1.44618049263954162598e-01) (11, -8.75724330544471740723e-02) (12, -2.81040698289871215820e-01) (13, -1.04121275246143341064e-01) (14, -1.67923137545585632324e-01) (15, -4.45340067148208618164e-01) (16, 3.77242416143417358398e-01) (17, 2.29156926274299621582e-01) (18, 1.52383029460906982422e-01) (19, -3.08028049767017364502e-03) (20, -2.51215577125549316406e-01) (21, -6.54512122273445129395e-02) (22, -1.04122526943683624268e-01) (23, 4.74315643310546875000e-01) (24, 3.06947976350784301758e-01) (25, 3.82622122764587402344e-01) (26, 4.72930967807769775391e-01) (27, 1.30681648850440979004e-01) (28, -4.58062887191772460938e-02) (29, 2.08793938159942626953e-01) (30, 4.61183607578277587891e-01) (31, 5.10336875915527343750e-01) (32, 7.84977078437805175781e-02) (33, 4.46261376142501831055e-01) (34, 5.70887744426727294922e-01) (35, 2.90995925664901733398e-01) (36, -7.43685290217399597168e-02) (37, 3.43789875507354736328e-01) (38, 2.78829783201217651367e-01) (39, 2.50106334686279296875e-01) (40, -6.18743151426315307617e-03) (41, 1.21294073760509490967e-01) (42, 2.54184398800134658813e-02) (43, 5.03751516342163085938e-01) (44, 1.60078093409538269043e-01) (45, 1.88917994499206542969e-01) (46, 5.21398521959781646729e-02) (47, 2.25636765360832214355e-01) (48, -1.60954725742340087891e+00) (0, -2.10814431309700012207e-01) (1, -1.32953643798828125000e-01) (2, 1.22167810797691345215e-01) (3, -1.43171772360801696777e-01) (4, 1.89838886260986328125e-01) (5, -8.99602547287940979004e-02) (6, -3.05934935808181762695e-01) (7, -5.27656972408294677734e-02) (8, -2.81424999237060546875e-01) (9, 6.38588070869445800781e-02) (10, 2.72826969623565673828e-01) (11, 1.23929843306541442871e-01) (12, -5.27450814843177795410e-02) (13, -3.84850651025772094727e-01) (14, -4.03553247451782226562e-01) (15, 2.62166224420070648193e-02) (16, -1.16537995636463165283e-01) (17, 3.14728647470474243164e-01) (18, 1.39205113053321838379e-01) (19, 1.97989031672477722168e-01) (20, 1.29647582769393920898e-01) (21, 8.03653672337532043457e-02) (22, 2.46977254748344421387e-01) (23, -2.64112949371337890625e-02) (24, 5.11326454579830169678e-02) (25, -6.91234990954399108887e-02) (26, 8.29227641224861145020e-02) (27, 2.47263051569461822510e-02) (28, -3.39972406625747680664e-01) (29, -6.01331107318401336670e-02) (30, -5.82408271729946136475e-02) (31, 1.03920131921768188477e-01) (32, -5.95775730907917022705e-02) (33, 2.38958641886711120605e-01) (34, 1.70113459229469299316e-01) (35, 8.16771537065505981445e-02) (36, -1.96004509925842285156e-01) (37, -1.70840308070182800293e-01) (38, 1.48589923977851867676e-01) (39, -2.30928629636764526367e-01) (40, -2.36721485853195190430e-02) (41, 6.70973286032676696777e-02) (42, -3.70801798999309539795e-02) (43, -7.98979476094245910645e-02) (44, -1.33239671587944030762e-01) (45, -2.89639949798583984375e-01) (46, -2.78881341218948364258e-01) (47, -2.36960589885711669922e-01) (48, -1.68095874786376953125e+00) (0, 6.78026005625724792480e-02) (1, -1.29712998867034912109e-01) (2, -1.56329780817031860352e-01) (3, -1.34975388646125793457e-01) (4, -4.09746974706649780273e-01) (5, -1.24736495316028594971e-01) (6, -1.61025762557983398438e-01) (7, -2.80762255191802978516e-01) (8, -5.69969639182090759277e-02) (9, -3.57536345720291137695e-01) (10, -3.16209465265274047852e-01) (11, -3.45451354980468750000e-01) (12, -1.12470485270023345947e-01) (13, 1.88151225447654724121e-02) (14, -1.38607192784547805786e-02) (15, -1.86240538954734802246e-01) (16, -1.18587510660290718079e-02) (17, -4.10716712474822998047e-01) (18, -2.71673589944839477539e-01) (19, -3.84689569473266601562e-01) (20, -5.54518520832061767578e-01) (21, -3.06660234928131103516e-01) (22, -2.10560202598571777344e-01) (23, -1.74683451652526855469e-01) (24, 1.00365027785301208496e-01) (25, -2.21168309450149536133e-01) (26, -2.65264064073562622070e-01) (27, -3.17141801118850708008e-01) (28, -2.45115816593170166016e-01) (29, -4.63220417499542236328e-01) (30, -8.79805535078048706055e-02) (31, -4.92010802030563354492e-01) (32, -1.96390133351087570190e-02) (33, -2.63037413358688354492e-01) (34, -1.63996875286102294922e-01) (35, -5.20250976085662841797e-01) (36, -5.17250835895538330078e-01) (37, -3.13412874937057495117e-01) (38, -4.71718370914459228516e-01) (39, -1.50584116578102111816e-01) (40, -1.11129231750965118408e-01) (41, -3.46000403165817260742e-01) (42, 2.37590689212083816528e-02) (43, -4.58642125129699707031e-01) (44, -4.19486820697784423828e-01) (45, -2.96450942754745483398e-01) (46, -2.64542520046234130859e-01) (47, -2.53623742610216140747e-02) (48, -1.28143751621246337891e+00) (0, 2.80112656764686107635e-03) (1, -1.30266189575195312500e-01) (2, -1.36953040957450866699e-01) (3, -2.11589679121971130371e-01) (4, -3.07502567768096923828e-01) (5, -5.68941347301006317139e-02) (6, -2.14685231447219848633e-01) (7, -2.75352716445922851562e-01) (8, -4.01839986443519592285e-02) (9, -4.89789620041847229004e-02) (10, -1.15479081869125366211e-01) (11, -2.01396569609642028809e-01) (12, -2.07489669322967529297e-01) (13, -1.71357527375221252441e-01) (14, -1.01812981069087982178e-01) (15, -9.90940630435943603516e-02) (16, 1.18522439152002334595e-02) (17, -1.19429752230644226074e-01) (18, -2.11964905261993408203e-01) (19, -1.82910963892936706543e-01) (20, -4.42651689052581787109e-01) (21, -1.73033311963081359863e-01) (22, -2.43746936321258544922e-01) (23, -2.44958817958831787109e-01) (24, 2.23999992012977600098e-01) (25, -1.95183441042900085449e-01) (26, -1.32594183087348937988e-01) (27, -2.66812801361083984375e-01) (28, -1.58523544669151306152e-01) (29, -2.35613882541656494141e-01) (30, -1.19017533957958221436e-01) (31, -4.32439029216766357422e-01) (32, -1.77491679787635803223e-01) (33, -9.52516049146652221680e-02) (34, -6.51828274130821228027e-02) (35, -2.21875786781311035156e-01) (36, -4.79596197605133056641e-01) (37, -1.59020498394966125488e-01) (38, -3.48605751991271972656e-01) (39, -1.64823114871978759766e-01) (40, -1.77666261792182922363e-01) (41, -3.05927127599716186523e-01) (42, -2.04001814126968383789e-01) (43, -2.08927810192108154297e-01) (44, -3.78749579191207885742e-01) (45, -1.58778280019760131836e-01) (46, -1.31526052951812744141e-01) (47, 1.20002962648868560791e-02) (48, -1.50285053253173828125e+00) (0, -1.29167452454566955566e-01) (1, -8.59804525971412658691e-02) (2, 7.73090645670890808105e-02) (3, -2.98791825771331787109e-02) (4, -1.44493386149406433105e-01) (5, -4.92500066757202148438e-02) (6, -1.81673318147659301758e-01) (7, -1.54439240694046020508e-01) (8, -1.43879041075706481934e-01) (9, 1.32728591561317443848e-01) (10, 1.38188049197196960449e-01) (11, 6.33851736783981323242e-02) (12, -3.40845644474029541016e-01) (13, -2.35129669308662414551e-01) (14, -4.20503884553909301758e-01) (15, 2.92027480900287628174e-02) (16, 1.01160563528537750244e-01) (17, 2.62837082147598266602e-01) (18, -4.34460863471031188965e-02) (19, -1.06150977313518524170e-01) (20, -2.78583765029907226562e-01) (21, -1.89005538821220397949e-01) (22, -1.03186465799808502197e-01) (23, -2.58400440216064453125e-01) (24, 1.55180096626281738281e-01) (25, -4.59318980574607849121e-02) (26, -4.90006469190120697021e-02) (27, -1.65039494633674621582e-01) (28, -3.51500451564788818359e-01) (29, -1.99518442153930664062e-01) (30, -3.10379654169082641602e-01) (31, -1.92969232797622680664e-01) (32, 1.04508556425571441650e-01) (33, 9.21044796705245971680e-02) (34, -8.19243043661117553711e-02) (35, -2.43145301938056945801e-01) (36, -4.16662782430648803711e-01) (37, -1.37904480099678039551e-01) (38, -5.32558113336563110352e-02) (39, -1.48232504725456237793e-01) (40, -1.04451663792133331299e-01) (41, -9.98198539018630981445e-02) (42, -2.52552479505538940430e-01) (43, -1.75913244485855102539e-01) (44, -4.12278085947036743164e-01) (45, -1.73474565148353576660e-01) (46, -1.54056489467620849609e-01) (47, -2.71118670701980590820e-01) (48, -1.61608934402465820312e+00) (0, -2.11420729756355285645e-01) (1, -4.66748446226119995117e-01) (2, -7.85048782825469970703e-01) (3, -6.07810616493225097656e-01) (4, -5.86712360382080078125e-01) (5, 2.02974304556846618652e-01) (6, -1.72981932759284973145e-01) (7, -3.78494590520858764648e-01) (8, -2.43565499782562255859e-01) (9, -6.08561992645263671875e-01) (10, -4.61459487676620483398e-01) (11, -6.49121582508087158203e-01) (12, -9.13707077503204345703e-01) (13, -3.36614280939102172852e-01) (14, -4.48368310928344726562e-01) (15, -3.66483092308044433594e-01) (16, 2.53359615802764892578e-01) (17, -3.05541068315505981445e-01) (18, -4.34604100883007049561e-02) (19, -1.07680153846740722656e+00) (20, -8.88692855834960937500e-01) (21, -5.68560540676116943359e-01) (22, -4.77256894111633300781e-01) (23, -6.02889955043792724609e-01) (24, 8.41808915138244628906e-01) (25, 1.14204697310924530029e-01) (26, 2.84164339303970336914e-01) (27, -5.63715815544128417969e-01) (28, -4.90482211112976074219e-01) (29, -5.34847736358642578125e-01) (30, -4.01129513978958129883e-01) (31, -1.07907009124755859375e+00) (32, -1.46014094352722167969e-01) (33, -6.10016239807009696960e-03) (34, 2.40186840295791625977e-01) (35, 5.40700973942875862122e-03) (36, -8.17016243934631347656e-01) (37, -3.58708769083023071289e-01) (38, -5.29623031616210937500e-01) (39, -3.84581714868545532227e-01) (40, -3.43620657920837402344e-01) (41, -2.44730085134506225586e-01) (42, 3.29348146915435791016e-01) (43, 2.07441121339797973633e-01) (44, -6.98954582214355468750e-01) (45, 5.03616034984588623047e-02) (46, -2.69342064857482910156e-01) (47, -1.98387488722801208496e-01) (48, -1.14495384693145751953e+00) (0, 1.20557136833667755127e-01) (1, 3.04183121770620346069e-02) (2, -1.15393981337547302246e-01) (3, -1.36571228504180908203e-01) (4, -2.17824414372444152832e-01) (5, -7.46717005968093872070e-02) (6, -1.76659449934959411621e-01) (7, -2.49522939324378967285e-01) (8, -1.12934666685760021210e-03) (9, -9.34570059180259704590e-02) (10, -8.31409916281700134277e-02) (11, -2.40208536386489868164e-01) (12, -2.08434730768203735352e-01) (13, -1.54078617691993713379e-01) (14, -1.45387593656778335571e-02) (15, -2.37635523080825805664e-01) (16, 1.18302188813686370850e-01) (17, -8.74943211674690246582e-02) (18, -8.00923481583595275879e-02) (19, -2.17143017798662185669e-02) (20, -3.89649778604507446289e-01) (21, -2.59071350097656250000e-01) (22, -8.66251513361930847168e-02) (23, -1.28021165728569030762e-01) (24, 2.09747210144996643066e-01) (25, -3.99649851024150848389e-02) (26, 5.41383586823940277100e-02) (27, -3.53585407137870788574e-02) (28, 7.76057168841361999512e-02) (29, -2.43892118334770202637e-01) (30, -7.05056935548782348633e-02) (31, -1.14401996135711669922e-01) (32, -3.03397625684738159180e-01) (33, -8.93964618444442749023e-02) (34, -6.70992434024810791016e-02) (35, -1.58913969993591308594e-01) (36, -3.70449274778366088867e-01) (37, 2.40402966737747192383e-02) (38, -1.10535092651844024658e-01) (39, -1.64582028985023498535e-01) (40, -1.67950838804244995117e-01) (41, -2.70170688629150390625e-01) (42, -1.21466763317584991455e-01) (43, -1.45355582237243652344e-01) (44, -1.58173978328704833984e-01) (45, -1.15506619215011596680e-01) (46, -1.96559838950634002686e-02) (47, -4.41811271011829376221e-02) (48, -1.59466874599456787109e+00) (0, -1.39953598380088806152e-01) (1, -1.88475340604782104492e-01) (2, -5.04954494535923004150e-02) (3, -1.61947935819625854492e-01) (4, -1.00294843316078186035e-01) (5, -1.45137179642915725708e-02) (6, -1.10022321343421936035e-01) (7, 8.91251675784587860107e-03) (8, -1.54929772019386291504e-01) (9, -1.19864143431186676025e-01) (10, -4.38203066587448120117e-02) (11, 1.05915674939751625061e-02) (12, -2.03350529074668884277e-01) (13, -2.54713565111160278320e-01) (14, -6.93587735295295715332e-02) (15, -7.74888088926672935486e-03) (16, -1.58044531941413879395e-01) (17, -8.13930854201316833496e-02) (18, -2.21329517662525177002e-02) (19, -1.24177262187004089355e-01) (20, -1.15407228469848632812e-01) (21, -8.35824608802795410156e-02) (22, 7.55156129598617553711e-02) (23, -9.80061963200569152832e-02) (24, -1.76628530025482177734e-01) (25, -9.82450619339942932129e-02) (26, -2.08787620067596435547e-01) (27, -1.22774884104728698730e-01) (28, -3.01410347223281860352e-01) (29, -8.05707722902297973633e-02) (30, 6.58478355035185813904e-03) (31, -4.68036793172359466553e-02) (32, -3.66796664893627166748e-02) (33, -3.61075103282928466797e-02) (34, 5.59244677424430847168e-02) (35, 1.25212315469980239868e-02) (36, -1.80331125855445861816e-01) (37, -3.82273718714714050293e-02) (38, 2.81502045691013336182e-02) (39, -8.89035388827323913574e-02) (40, 8.66278558969497680664e-02) (41, 3.17355841398239135742e-02) (42, 9.64143127202987670898e-03) (43, -1.34420856833457946777e-01) (44, -1.33337631821632385254e-01) (45, -1.17608219385147094727e-01) (46, -4.86644469201564788818e-02) (47, -2.57136881351470947266e-01) (48, -1.58950769901275634766e+00) (0, -1.30786746740341186523e-02) (1, -9.14669558405876159668e-02) (2, 5.88438510894775390625e-02) (3, -2.71973293274641036987e-02) (4, -2.16650679707527160645e-01) (5, -1.20633915066719055176e-01) (6, -3.01016241312026977539e-01) (7, -2.55643159151077270508e-01) (8, 1.33746355772018432617e-01) (9, 4.01486046612262725830e-02) (10, -5.71607537567615509033e-02) (11, -9.38335508108139038086e-02) (12, -1.44525706768035888672e-01) (13, -1.82398706674575805664e-01) (14, -9.76456254720687866211e-02) (15, -2.36085653305053710938e-01) (16, 2.43061289191246032715e-01) (17, 8.09347406029701232910e-02) (18, -5.50002716481685638428e-02) (19, -1.19668528437614440918e-01) (20, -6.70334994792938232422e-02) (21, -4.05200123786926269531e-02) (22, 9.02989953756332397461e-02) (23, -1.08293807134032249451e-02) (24, 6.35234117507934570312e-02) (25, -4.69350032508373260498e-02) (26, 1.66722476482391357422e-01) (27, -1.01730450987815856934e-01) (28, -4.10191155970096588135e-02) (29, -9.46782976388931274414e-02) (30, 1.09199576079845428467e-01) (31, 1.00182965397834777832e-01) (32, -2.86824256181716918945e-01) (33, 1.20455093681812286377e-01) (34, 6.28866925835609436035e-02) (35, -1.65582731366157531738e-01) (36, -2.80557751655578613281e-01) (37, -3.11888158321380615234e-02) (38, -4.46724286302924156189e-03) (39, -4.44519259035587310791e-02) (40, -3.31568688154220581055e-01) (41, -1.25033725053071975708e-02) (42, -2.59063720703125000000e-01) (43, -3.40638011693954467773e-02) (44, -9.11858528852462768555e-02) (45, -4.21200655400753021240e-02) (46, -1.12502403557300567627e-01) (47, 3.73463961295783519745e-04) (48, -1.61569905281066894531e+00) (0, 4.03712168335914611816e-02) (1, -1.24117523431777954102e-01) (2, -2.50345259904861450195e-01) (3, -1.55085295438766479492e-01) (4, -2.91844129562377929688e-01) (5, -6.47756531834602355957e-02) (6, -8.31782072782516479492e-02) (7, -2.13655024766921997070e-01) (8, -4.17633838951587677002e-02) (9, -1.61816269159317016602e-01) (10, -2.43800729513168334961e-01) (11, -2.76085287332534790039e-01) (12, -1.57446697354316711426e-01) (13, -1.42702683806419372559e-01) (14, -6.54650032520294189453e-02) (15, -3.88848930597305297852e-02) (16, -1.77936162799596786499e-02) (17, -1.99636831879615783691e-01) (18, -1.77815020084381103516e-01) (19, -3.13382595777511596680e-01) (20, -3.84589731693267822266e-01) (21, -2.78620451688766479492e-01) (22, -1.51143744587898254395e-01) (23, -2.91720092296600341797e-01) (24, -2.18629557639360427856e-02) (25, -2.77969270944595336914e-01) (26, -1.40018448233604431152e-01) (27, -3.38357001543045043945e-01) (28, -2.78720408678054809570e-01) (29, -3.06820541620254516602e-01) (30, -2.00631156563758850098e-01) (31, -4.53628808259963989258e-01) (32, 9.96235571801662445068e-03) (33, -2.28785783052444458008e-01) (34, -2.42787659168243408203e-01) (35, -3.72409760951995849609e-01) (36, -4.20821011066436767578e-01) (37, -1.44177302718162536621e-01) (38, -2.98501789569854736328e-01) (39, -1.18359826505184173584e-01) (40, -9.11146253347396850586e-02) (41, -1.22283622622489929199e-01) (42, -4.64479289948940277100e-02) (43, -4.21723693609237670898e-01) (44, -4.35512512922286987305e-01) (45, -2.44310960173606872559e-01) (46, -8.76951441168785095215e-02) (47, 3.56283709406852722168e-02) (48, -1.36295044422149658203e+00) (0, -6.24110959470272064209e-02) (1, -1.67597413063049316406e-01) (2, -3.60456466674804687500e-01) (3, -1.47605806589126586914e-01) (4, -4.57219034433364868164e-01) (5, -1.46308422088623046875e-01) (6, -2.07593366503715515137e-01) (7, -2.23484635353088378906e-01) (8, -8.37312117218971252441e-02) (9, -1.43967598676681518555e-01) (10, -2.76462644338607788086e-01) (11, -3.01729917526245117188e-01) (12, -2.11261242628097534180e-01) (13, -1.87664642930030822754e-01) (14, -1.47482275962829589844e-01) (15, -5.68695217370986938477e-02) (16, 8.49147960543632507324e-02) (17, -7.94473066926002502441e-02) (18, -8.42671841382980346680e-02) (19, -3.19172859191894531250e-01) (20, -4.97619539499282836914e-01) (21, -2.88118183612823486328e-01) (22, -2.68600136041641235352e-01) (23, -3.75561207532882690430e-01) (24, 1.07873030006885528564e-01) (25, -1.35353580117225646973e-01) (26, -9.62370708584785461426e-02) (27, -2.59177923202514648438e-01) (28, -2.84237176179885864258e-01) (29, -3.77021491527557373047e-01) (30, -2.38416820764541625977e-01) (31, -4.92551833391189575195e-01) (32, -8.80968496203422546387e-02) (33, -2.08332806825637817383e-01) (34, -1.24461442232131958008e-01) (35, -2.67525643110275268555e-01) (36, -4.62281584739685058594e-01) (37, -2.17133358120918273926e-01) (38, -2.94698029756546020508e-01) (39, -1.43305450677871704102e-01) (40, -9.96178239583969116211e-02) (41, -2.55302101373672485352e-01) (42, -1.61272048950195312500e-01) (43, -2.08264514803886413574e-01) (44, -4.08611148595809936523e-01) (45, -2.10942015051841735840e-01) (46, -1.46315142512321472168e-01) (47, -3.94379161298274993896e-02) (48, -1.44100821018218994141e+00) (0, 2.86691747605800628662e-02) (1, -1.14051721990108489990e-01) (2, -3.93575429916381835938e-02) (3, 1.09458386898040771484e-01) (4, -2.01157599687576293945e-01) (5, -9.31425988674163818359e-02) (6, -2.15404450893402099609e-01) (7, -1.71193316578865051270e-01) (8, 1.10370703041553497314e-01) (9, -2.11638793349266052246e-01) (10, -2.24386695772409439087e-02) (11, -2.49241679906845092773e-01) (12, -2.14754164218902587891e-01) (13, -1.13020628690719604492e-01) (14, 1.34525656700134277344e-01) (15, -1.78540542721748352051e-01) (16, -1.47370830178260803223e-01) (17, -4.14345651865005493164e-01) (18, -1.95236615836620330811e-02) (19, -1.67351379990577697754e-01) (20, -3.52236896753311157227e-01) (21, -2.19329655170440673828e-01) (22, -8.59254673123359680176e-02) (23, 1.88426077365875244141e-01) (24, -2.89801448583602905273e-01) (25, -2.94703185558319091797e-01) (26, -2.47031316161155700684e-01) (27, -2.61231780052185058594e-01) (28, -3.60011160373687744141e-01) (29, -1.15751691162586212158e-01) (30, 1.59721806645393371582e-01) (31, 2.12122797966003417969e-01) (32, -2.49520108103752136230e-01) (33, -4.31732892990112304688e-01) (34, -2.18098565936088562012e-01) (35, -1.83211952447891235352e-01) (36, -2.59914577007293701172e-01) (37, -8.36545228958129882812e-02) (38, 4.43372204899787902832e-02) (39, 1.18530854582786560059e-01) (40, -6.98279738426208496094e-02) (41, -2.48986706137657165527e-01) (42, -1.78462252020835876465e-01) (43, -2.43345111608505249023e-01) (44, -2.51731336116790771484e-01) (45, -6.45698457956314086914e-02) (46, -5.93271739780902862549e-02) (47, 1.68559491634368896484e-01) (48, -1.66885757446289062500e+00) (0, 3.52818787097930908203e-01) (1, 1.76578938961029052734e-01) (2, 3.86638224124908447266e-01) (3, 8.76569569110870361328e-01) (4, 1.10232561826705932617e-01) (5, 1.28240302205085754395e-01) (6, -5.67780315876007080078e-01) (7, -2.02528774738311767578e-01) (8, -1.01443693041801452637e-01) (9, 2.14253529906272888184e-01) (10, -1.11670963466167449951e-01) (11, -1.90861970186233520508e-01) (12, 9.95578229427337646484e-01) (13, 6.59747004508972167969e-01) (14, 1.48886308073997497559e-01) (15, -4.01081293821334838867e-01) (16, 1.63629561662673950195e-01) (17, -4.38333421945571899414e-01) (18, -2.15176232159137725830e-02) (19, -1.12228021025657653809e-01) (20, -5.83593174815177917480e-02) (21, 9.21741902828216552734e-01) (22, 8.85242700576782226562e-01) (23, 1.14574790000915527344e+00) (24, -3.23700428009033203125e-01) (25, -1.13068155944347381592e-01) (26, -6.99089944362640380859e-01) (27, -3.76522839069366455078e-01) (28, -1.15882806479930877686e-01) (29, 1.45887255668640136719e-01) (30, 8.29352855682373046875e-01) (31, 6.41730546951293945312e-01) (32, -2.54233002662658691406e-01) (33, -1.50655403733253479004e-01) (34, -2.86511659622192382812e-01) (35, -8.10594916343688964844e-01) (36, -9.86823499202728271484e-01) (37, -4.73625123500823974609e-01) (38, 1.55605256557464599609e-01) (39, 3.69141817092895507812e-01) (40, -3.42720448970794677734e-01) (41, 6.35232850909233093262e-02) (42, -3.32313090562820434570e-01) (43, -5.46849906444549560547e-01) (44, -6.57851994037628173828e-01) (45, -1.03725719451904296875e+00) (46, -1.11795835196971893311e-01) (47, -3.70430618524551391602e-01) (48, -2.75933718681335449219e+00) (0, -1.72482967376708984375e-01) (1, -1.71820849180221557617e-01) (2, -1.57163411378860473633e-01) (3, -1.04123391211032867432e-01) (4, -1.64520904421806335449e-01) (5, -5.49498461186885833740e-02) (6, -6.31779581308364868164e-02) (7, -2.38680094480514526367e-02) (8, -2.34969779849052429199e-01) (9, -1.98874458670616149902e-01) (10, -2.41348817944526672363e-02) (11, -1.78641334176063537598e-01) (12, -3.76229435205459594727e-01) (13, -9.89461541175842285156e-02) (14, -6.71578496694564819336e-02) (15, 8.10844302177429199219e-02) (16, -1.28157749772071838379e-01) (17, -3.65937836468219757080e-02) (18, 2.07777414470911026001e-02) (19, -2.52836436033248901367e-01) (20, -1.78423136472702026367e-01) (21, -1.70816659927368164062e-01) (22, -1.89470034092664718628e-02) (23, -6.75729364156723022461e-02) (24, -1.27566739916801452637e-01) (25, -1.61343619227409362793e-01) (26, -2.78616338968276977539e-01) (27, -1.13231115043163299561e-01) (28, -2.46180057525634765625e-01) (29, -2.10388489067554473877e-02) (30, -1.15643024444580078125e-01) (31, 3.71529944241046905518e-02) (32, -2.58507505059242248535e-02) (33, -1.26597762107849121094e-01) (34, -1.09222359955310821533e-01) (35, -2.93595284223556518555e-01) (36, -1.43622100353240966797e-01) (37, -1.11833587288856506348e-01) (38, -3.48959192633628845215e-02) (39, -8.07869900017976760864e-03) (40, 1.63710474967956542969e-01) (41, 1.77780557423830032349e-02) (42, 1.45667912438511848450e-02) (43, -3.44669073820114135742e-01) (44, -2.34862297773361206055e-01) (45, -1.28293946385383605957e-01) (46, -1.37031570076942443848e-01) (47, -1.37622371315956115723e-01) (48, -1.55914211273193359375e+00) (0, -2.66406208276748657227e-01) (1, -8.21166783571243286133e-02) (2, 1.66123315691947937012e-01) (3, -3.27334888279438018799e-02) (4, 1.10130719840526580811e-01) (5, -3.23642939329147338867e-02) (6, -2.64886647462844848633e-01) (7, -5.86504265666007995605e-02) (8, -2.04816743731498718262e-01) (9, 1.65520206093788146973e-01) (10, 2.64673322439193725586e-01) (11, 1.47204697132110595703e-01) (12, -2.02028393745422363281e-01) (13, -4.21603560447692871094e-01) (14, -3.24562013149261474609e-01) (15, -1.49325460195541381836e-01) (16, 1.58769339323043823242e-02) (17, 3.50582361221313476562e-01) (18, 1.67827233672142028809e-01) (19, 1.70941546559333801270e-01) (20, 3.97851876914501190186e-02) (21, 8.37169885635375976562e-02) (22, 3.27395707368850708008e-01) (23, 2.12255224585533142090e-01) (24, 1.89499363303184509277e-01) (25, 6.85883164405822753906e-02) (26, 8.41961875557899475098e-02) (27, -1.69283092021942138672e-01) (28, -2.97561556100845336914e-01) (29, 1.08316846191883087158e-01) (30, 1.96163132786750793457e-01) (31, 1.40503197908401489258e-01) (32, -3.10046086087822914124e-03) (33, 3.09130102396011352539e-01) (34, 3.11122983694076538086e-01) (35, 4.31307442486286163330e-02) (36, -1.40509560704231262207e-01) (37, 8.88338461518287658691e-02) (38, 2.71672785282135009766e-01) (39, -2.13367953896522521973e-01) (40, -1.56088948249816894531e-01) (41, 8.09191390872001647949e-02) (42, -1.68503537774085998535e-01) (43, 8.07316824793815612793e-02) (44, -4.85484078526496887207e-02) (45, -4.79221493005752563477e-02) (46, -2.21444487571716308594e-01) (47, -3.20970118045806884766e-01) (48, -1.62554991245269775391e+00) (0, -2.18508057296276092529e-02) (1, 8.09940397739410400391e-02) (2, 7.18637928366661071777e-02) (3, 6.61683976650238037109e-02) (4, -1.91952988505363464355e-01) (5, 9.23826359212398529053e-03) (6, -2.45993092656135559082e-01) (7, -1.63938939571380615234e-01) (8, 4.27874252200126647949e-02) (9, -8.79589915275573730469e-02) (10, -1.06963738799095153809e-01) (11, -2.24843770265579223633e-01) (12, -1.87318620737642049789e-03) (13, 2.20152754336595535278e-02) (14, 1.58648137003183364868e-02) (15, -2.60386347770690917969e-01) (16, 1.16899065673351287842e-01) (17, 1.46200610324740409851e-02) (18, -6.30099233239889144897e-03) (19, -2.38825887441635131836e-01) (20, -3.40550452470779418945e-01) (21, -2.11350247263908386230e-01) (22, -1.46207138895988464355e-01) (23, 2.16907814145088195801e-01) (24, -7.91695937514305114746e-02) (25, -1.01398557424545288086e-01) (26, 8.07736888527870178223e-02) (27, -1.01810045540332794189e-01) (28, -8.24474170804023742676e-02) (29, -9.39727798104286193848e-02) (30, 1.23419933021068572998e-01) (31, 9.44613572210073471069e-03) (32, -1.64301767945289611816e-01) (33, -1.27693578600883483887e-01) (34, -6.53754100203514099121e-02) (35, -6.12853765487670898438e-02) (36, -2.96081572771072387695e-01) (37, -3.87046411633491516113e-02) (38, -1.09948724508285522461e-01) (39, -4.21443730592727661133e-02) (40, -1.27925232052803039551e-01) (41, -9.40158963203430175781e-02) (42, -8.84159505367279052734e-02) (43, -8.00664871931076049805e-02) (44, -1.08861327171325683594e-01) (45, -5.47526627779006958008e-02) (46, -1.26074180006980895996e-01) (47, 1.34034231305122375488e-01) (48, -1.67237699031829833984e+00) (0, -5.03110773861408233643e-02) (1, -2.12194815278053283691e-01) (2, -2.09790274500846862793e-01) (3, -1.40851855278015136719e-01) (4, -5.96293330192565917969e-01) (5, -1.99899613857269287109e-01) (6, -1.39250874519348144531e-01) (7, -1.34816288948059082031e-01) (8, -1.48721709847450256348e-02) (9, -4.15915161371231079102e-01) (10, -2.42665648460388183594e-01) (11, -2.18763813376426696777e-01) (12, -2.11390435695648193359e-01) (13, -7.74238407611846923828e-02) (14, 4.87225390970706939697e-02) (15, 4.92077693343162536621e-03) (16, -2.36359477043151855469e-01) (17, -3.99841189384460449219e-01) (18, -3.31887453794479370117e-01) (19, -4.95190739631652832031e-01) (20, -4.26541060209274291992e-01) (21, -4.92893636226654052734e-01) (22, -2.72716999053955078125e-01) (23, -4.80385988950729370117e-01) (24, -1.42377153038978576660e-01) (25, -3.80128324031829833984e-01) (26, -5.57733476161956787109e-01) (27, -6.13188087940216064453e-01) (28, -3.50128740072250366211e-01) (29, -6.03366196155548095703e-01) (30, -5.94932794570922851562e-01) (31, -5.79276442527770996094e-01) (32, -1.56403854489326477051e-01) (33, -5.24165987968444824219e-01) (34, -6.07167184352874755859e-01) (35, -9.08412098884582519531e-01) (36, -6.49882793426513671875e-01) (37, -4.22871887683868408203e-01) (38, -5.65204262733459472656e-01) (39, -1.17654569447040557861e-01) (40, 8.27447026968002319336e-02) (41, -3.48617762327194213867e-01) (42, -1.29687011241912841797e-01) (43, 